tree
version=v4
num_class=1
num_tree_per_iteration=1
label_index=0
max_feature_idx=49
objective=binary sigmoid:1
feature_names=ret_1d ret_5d ret_10d ret_21d ret_63d vol_5d vol_21d atr_pct_14 bb_width volume_ratio_20d obv_slope_10d dist_ma20_pct dist_ma50_pct dist_ma200_pct autocorr_lag1 autocorr_lag5 trend_strength_10d mean_reversion_5d vix_level vix_percentile vix_ma20_ratio vix_ret_5d rank_ret_5d rank_ret_21d rank_vol_21d rank_volume_ratio macro_tnx_close macro_tnx_ret_21d macro_sp500_ret_63d macro_sp500_breadth_ratio macro_sp500_vol_21d macro_svix_ret_5d fred_yield_curve_10y2y fred_high_yield_oas fred_fed_funds_rate macro_gold_ret_5d macro_gold_ret_21d macro_oil_ret_5d macro_oil_ret_21d macro_em_ret_5d macro_smallcap_ret_5d macro_usd_ret_5d sector_rank sector_momentum_5d sector_momentum_21d leading_sector_momentum lagging_sector_momentum sector_dispersion primary_confidence primary_prob
feature_infos=[-0.40370701024843814:0.50932713798720464] [-0.49460141013228492:1.0928407469582635] [-0.49109210118416835:1.3501037219711023] [-0.56114104266411202:1.3020269272941065] [-0.6984521463630694:4.5834798134049901] [0.0094282405537316778:4.9763516726196961] [0.020218976512687167:2.857582457680008] [0.20128270593406825:46.00282229693002] [0.26441919005866005:82.229850561395352] [0.19368567364120048:11.109583536030796] [-0.41894153997569228:0.42067346088788909] [-46.52471380689235:96.649455441249373] [-51.038643443821897:126.71777623926121] [-62.294401192217485:155.14758530018102] [-0.75209754534089091:0.55381028950241373] [-0.62480973003973095:0.5751339846187179] [1.3005781333322628e-12:0.98690869531534242] [-0.53687235734880578:0.89922289553714352] [11.930000305175781:45.310001373291016] [0.4784688995215311:100] [0.7026190414265544:1.9664945544124939] [-0.41867144300544445:1.0928407469582635] [0.0019120458891013384:1] [0.0019120458891013384:1] [0.0019120458891013384:1] [0.0019193857965451055:1] [3.6800000667572021:4.6830000877380371] [-0.10875200383539518:0.13183614867769666] [-0.13982115695911457:0.26043544781710182] [0.090909090909090912:0.90909090909090906] [0.059067036012996912:0.49284119389647557] [-0.49460141013228487:0.39863638444380323] none none none [-0.029486623071694473:0.053830720036933233] [-0.051683743526417136:0.15901911654146961] [-0.10923457059303288:0.14944140790036609] [-0.089837981860244276:0.086843896780823382] none [-0.032705562726421555:0.045360003295255469] none [0:1] [-0.051882637536420639:0.068782341876153064] [-0.054965527455633656:0.106348293652617] [0.00089708696551715761:0.068782341876153064] [-0.051882637536420639:0.010903710085273799] [0.021641171181411956:0.10226417982794211] [4.0304282272307645e-05:0.93102808107542057] [0.034485959462289738:0.95928134090250261]
tree_sizes=971 1000 1011 1006 1009 1014 1008 1006 1005 1007 1000 1012 1001 1008 1005 1004 1005 1009 1005 1017 1008 1008 1007 1008 1008 1009 1012 1007 1011 1016 1012 1011 1013 1019 1012 1017 1007 1011 1006 1007 1013 1016 1014 1015 1018 1008 1029 1017 1008 1013 1016 1011 1024 1004 899 1013 1027 1010 1021 879 1021 1017 1006 902 1008 1011 883 1023 1010 1011 899 1013 994 1013 1015 1003 1005 1003 1014 1011 1003 1014 996 1013 1008 1013 902 1010 899 1014 1010 998 898 898 1014 1004 895 1000 1008 1007 1009 1012 1013 1004 1021 1018 1008 1014 981 1009 1009 1007 1006 1016 1015 988 981 1021 1004 1019 1004 905 1011 903 982 906 1017 1004 1017 1011 1027 1015 985 992 1024 1017 1010 985 1023 1007 993 989 1007 1025 1025 1012 1013 897 1005 1003

Tree=0
num_leaves=8
num_cat=0
split_feature=26 49 49 47 49 24 49
split_gain=1083.07 600.691 665.566 81.5485 60.3423 35.7911 32.0852
threshold=4.2114999294281015 0.28017312127592359 0.66097230530835993 0.042241512556601031 0.49501533443980178 0.96555020768774324 0.23684706945687781
decision_type=2 2 2 2 2 2 2
left_child=1 6 -3 4 -2 -5 -1
right_child=3 2 -4 5 -6 -7 -8
leaf_value=0.73239267127757479 0.66683060999838162 0.66939056290984822 0.71384859539288625 0.64413654974457402 0.64187843396480682 0.674678235951227 0.71169172659059388
leaf_weight=145.15423227846622 369.70892480015755 1870.1329841762781 359.61254817247391 1021.1971921771765 120.17732755839825 40.43891179561615 145.57656295597553
leaf_count=643 1229 6301 1479 3010 348 139 594
internal_value=0.669717 0.681878 0.67658 0.650009 0.660499 0.645251 0.722283
internal_weight=4072 2520.48 2229.75 1551.52 489.886 1061.64 290.731
internal_count=13743 9017 7780 4726 1577 3149 1237
is_linear=0
shrinkage=1


Tree=1
num_leaves=8
num_cat=0
split_feature=48 26 48 26 48 26 28
split_gain=1177.03 947.799 180.806 153.7 154.869 52.3629 44.9327
threshold=0.29135460351001297 4.2235000133514413 0.46112779435973777 4.1934998035430917 0.10581347705241391 4.2610001564025888 0.17529787063046368
decision_type=2 2 2 2 2 2 2
left_child=3 2 -2 4 -1 -3 -5
right_child=1 5 -4 6 -6 -7 -8
leaf_value=-0.036830338038973461 0.0042626970944391954 -0.056158386702608983 0.029820090790919261 -0.043216123474013317 -0.016902911105491369 -0.030956803105303767 -0.029372972771351688
leaf_weight=642.15567961335182 547.5868976265192 148.16672405600548 458.7726584225893 1030.633823916316 795.36904165148735 178.23446087539196 300.72738502919674
leaf_count=1987 2085 403 1971 3046 2726 563 962
internal_value=-0.0216138 0.0015399 0.0159645 -0.0327569 -0.0258539 -0.0427148 -0.0401492
internal_weight=4101.65 1332.76 1006.36 2768.89 1437.52 326.401 1331.36
internal_count=13743 5022 4056 8721 4713 966 4008
is_linear=0
shrinkage=0.03


Tree=2
num_leaves=8
num_cat=0
split_feature=48 26 36 48 48 37 24
split_gain=1091.01 832.867 201.814 155.682 129.001 56.9253 42.9769
threshold=0.32420938849094172 4.2235000133514413 0.052933573520314921 0.10721016191663198 0.47592213084114393 0.0022742205125617647 0.87559797220573909
decision_type=2 2 2 2 2 2 2
left_child=2 4 5 -4 -2 -1 -3
right_child=1 6 3 -5 -6 -7 -8
leaf_value=-0.030087865826685597 0.007272967402308126 -0.048100266989305945 -0.032407774913779802 -0.0074491948782354298 0.03034125930996788 -0.040439453420496055 -0.019603533801881356
leaf_weight=950.94096572697163 468.53380048274994 208.66118627786636 407.55988496541977 506.92595864832401 412.70186710357666 1103.8071638792753 69.354072451591492
leaf_count=3001 1818 582 1266 1805 1800 3243 228
internal_value=-0.0208271 0.00383905 -0.0304585 -0.0186353 0.0181376 -0.0356899 -0.0412358
internal_weight=4128.48 1159.25 2969.23 914.486 881.236 2054.75 278.015
internal_count=13743 4428 9315 3071 3618 6244 810
is_linear=0
shrinkage=0.03


Tree=3
num_leaves=8
num_cat=0
split_feature=48 26 48 26 48 24 28
split_gain=1013.96 830.469 165.626 128.644 133.271 47.1632 37.9763
threshold=0.29135460351001297 4.2235000133514413 0.44920503241665422 4.1934998035430917 0.10581347705241391 0.87177021750437733 0.17529787063046368
decision_type=2 2 2 2 2 2 2
left_child=3 2 -2 4 -1 -3 -5
right_child=1 5 -4 6 -6 -7 -8
leaf_value=-0.034025567938494962 0.0034123073338058851 -0.045769313193074847 0.027924609521544502 -0.039711526224091423 -0.015687889081889513 -0.018673316384662551 -0.027092787910126748
leaf_weight=655.87400530278683 516.88149192929268 251.57764630019665 479.02291731536388 1056.2160392701626 804.07918603718281 82.856134384870529 306.22220985591412
leaf_count=1987 1964 695 2092 3046 2726 271 962
internal_value=-0.0200824 0.00149912 0.0152499 -0.030254 -0.0239715 -0.0392518 -0.0369302
internal_weight=4152.73 1330.34 995.904 2822.39 1459.95 334.434 1362.44
internal_count=13743 5022 4056 8721 4713 966 4008
is_linear=0
shrinkage=0.03


Tree=4
num_leaves=8
num_cat=0
split_feature=48 26 36 48 48 37 26
split_gain=940.961 732.59 176.299 134.647 119.583 45.9353 38.9359
threshold=0.32420938849094172 4.2235000133514413 0.052933573520314921 0.10721016191663198 0.47592213084114393 0.0022742205125617647 4.2820000648498544
decision_type=2 2 2 2 2 2 2
left_child=2 4 5 -4 -2 -1 -3
right_child=1 6 3 -5 -6 -7 -8
leaf_value=-0.027995700020246501 0.0068779517982567205 -0.049034403866046454 -0.029833109865662524 -0.0067759138415326913 0.029242118348861441 -0.037234080917419171 -0.025746831768600067
leaf_weight=966.29184140264988 466.22575505077839 145.66234713792801 415.49367493391037 510.23722273111343 403.8814562857151 1128.1662746220827 138.47719073295593
leaf_count=3001 1818 383 1266 1805 1800 3243 427
internal_value=-0.0193772 0.00364705 -0.0281782 -0.0171828 0.0173193 -0.0330098 -0.0379968
internal_weight=4174.44 1154.25 3020.19 925.731 870.107 2094.46 284.14
internal_count=13743 4428 9315 3071 3618 6244 810
is_linear=0
shrinkage=0.03


Tree=5
num_leaves=8
num_cat=0
split_feature=48 26 48 36 48 37 37
split_gain=877.571 730.459 151.597 147.47 109.918 42.7112 34.3383
threshold=0.29135460351001297 4.2235000133514413 0.46112779435973777 0.052933573520314921 0.10721016191663198 -0.0053335993684920915 0.0022742205125617647
decision_type=2 2 2 2 2 2 2
left_child=3 2 -2 6 -5 -3 -1
right_child=1 5 -4 4 -6 -7 -8
leaf_value=-0.028012879550857482 0.0039406567803641308 -0.048331160902639309 0.027635933484060581 -0.028708562304107683 -0.0073235332719927722 -0.026094696947586524 -0.036292265663961765
leaf_weight=910.85127875208855 545.39918015897274 151.56866428256035 439.96857203543186 418.84175449609756 453.88115349411964 189.42508259415627 1083.9682839512825
leaf_count=2787 2085 391 1971 1266 1593 575 3075
internal_value=-0.0187076 0.00145969 0.0145704 -0.0280356 -0.0176461 -0.0362465 -0.0325512
internal_weight=4193.9 1326.36 985.368 2867.54 872.723 340.994 1994.82
internal_count=13743 5022 4056 8721 2859 966 5862
is_linear=0
shrinkage=0.03


Tree=6
num_leaves=8
num_cat=0
split_feature=48 28 48 36 48 18 37
split_gain=815.676 470.11 181.828 136.167 102.126 39.2616 31.7355
threshold=0.29135460351001297 0.12235552402232865 0.5516536418525918 0.052933573520314921 0.10291800326046686 16.510000228881839 0.0022742205125617647
decision_type=2 2 2 2 2 2 2
left_child=3 2 -2 6 -5 -3 -1
right_child=1 5 -4 4 -6 -7 -8
leaf_value=-0.026972066846953569 0.0027639993728688634 -0.0046340964651665987 0.031585259193518546 -0.027990571715788219 -0.0073906839255105782 -0.042705711057520808 -0.034905483943776586
leaf_weight=917.59110805392265 842.70110960304737 29.4310412555933 255.88433189690113 408.1375398337841 468.66569352149963 195.58396479487419 1093.1575378924608
leaf_count=2787 3231 101 1174 1222 1637 516 3075
internal_value=-0.0180713 0.00141934 0.00953592 -0.0270055 -0.0170385 -0.0378769 -0.031323
internal_weight=4211.15 1323.6 1098.59 2887.55 876.803 225.015 2010.75
internal_count=13743 5022 4405 8721 2859 617 5862
is_linear=0
shrinkage=0.03


Tree=7
num_leaves=8
num_cat=0
split_feature=26 49 49 31 49 49 3
split_gain=629.462 418.411 445.068 54.8387 41.3232 29.707 28.9914
threshold=4.2114999294281015 0.28017312127592359 0.62015392810438053 -0.0073143126540285422 0.44681154749477059 0.23684706945687781 0.10961950157142424
decision_type=2 2 2 2 2 2 2
left_child=1 5 -3 6 -5 -1 -2
right_child=3 2 -4 4 -6 -7 -8
leaf_value=0.037017571994271109 -0.043070968767728202 -0.018872355811754369 0.014277953123644396 -0.020267943521026451 -0.03237231202120594 0.016558516724190054 -0.016359165736957944
leaf_weight=133.98656670749187 429.77732846140862 1837.2983053922653 452.48867982625961 412.42359365522861 776.58520330488682 138.91899093985558 45.600418254733086
leaf_count=643 1124 5907 1873 1264 2198 594 140
internal_value=-0.0174625 -0.0081142 -0.0123082 -0.0318203 -0.0282274 0.026854 -0.0406193
internal_weight=4227.08 2562.69 2289.79 1664.39 1189.01 272.906 475.378
internal_count=13743 9017 7780 4726 3462 1237 1264
is_linear=0
shrinkage=0.03


Tree=8
num_leaves=8
num_cat=0
split_feature=26 49 49 38 49 49 49
split_gain=585.546 395.533 417.019 51.1136 42.0402 39.3431 29.0174
threshold=4.2114999294281015 0.28017312127592359 0.62015392810438053 -0.023672327963637326 0.44681154749477059 0.499295901980016 0.23684706945687781
decision_type=2 2 2 2 2 2 2
left_child=1 6 -3 5 -5 -2 -1
right_child=3 2 -4 4 -6 -7 -8
leaf_value=0.036501071319749938 -0.043358829419317756 -0.018214632544601476 0.013925111211371447 -0.019662952603908615 -0.031530280412194189 -0.01066876778304838 0.016173514198670486
leaf_weight=131.86649446189404 360.42232352495193 1846.4623490273952 450.12244656682014 427.61718498170376 847.5563115477562 39.544802844524384 138.02050828933716
leaf_count=643 921 5907 1873 1304 2378 123 594
internal_value=-0.0168793 -0.00785577 -0.0119022 -0.0306693 -0.0275995 -0.0402332 0.0263561
internal_weight=4241.61 2566.47 2296.58 1675.14 1275.17 399.967 269.887
internal_count=13743 9017 7780 4726 3682 1044 1237
is_linear=0
shrinkage=0.03


Tree=9
num_leaves=8
num_cat=0
split_feature=48 28 48 36 48 38 28
split_gain=688.108 374.686 133.471 126.772 104.588 38.0392 29.8553
threshold=0.32420938849094172 0.12235552402232865 0.5516536418525918 0.052933573520314921 0.10721016191663198 0.012994149936529699 0.12753804885884437
decision_type=2 2 2 2 2 2 2
left_child=3 2 -2 5 -5 -1 -3
right_child=1 6 -4 4 -6 -7 -8
leaf_value=-0.031149515185512868 0.00472071816220838 -0.040558441518675346 0.030349050410959241 -0.025326092274192864 -0.0052384070207511036 -0.02284594949698902 -0.013577437586284572
leaf_weight=1243.1289565116167 693.93394714593887 145.51282489299774 247.79825377464294 428.31387430429459 517.5162213742733 922.88539351522923 55.373165369033813
leaf_count=3499 2714 366 1174 1266 1805 2745 174
internal_value=-0.0163223 0.00357287 0.0115302 -0.0236298 -0.0143851 -0.0276428 -0.0334024
internal_weight=4254.46 1142.62 941.732 3111.84 945.83 2166.01 200.886
internal_count=13743 4428 3888 9315 3071 6244 540
is_linear=0
shrinkage=0.03


Tree=10
num_leaves=8
num_cat=0
split_feature=26 49 49 47 49 49 8
split_gain=518.02 358.436 371.822 49.1614 52.1801 27.5128 23.4289
threshold=4.2114999294281015 0.28017312127592359 0.62015392810438053 0.042241512556601031 0.49501533443980178 0.23684706945687781 13.363671958901875
decision_type=2 2 2 2 2 2 2
left_child=1 5 -3 4 -2 -1 -5
right_child=3 2 -4 6 -6 -7 -8
leaf_value=0.035665207506881805 -0.015276127121193164 -0.016994428296082373 0.01343192665046343 -0.033437683245627202 -0.037333991280706573 0.0156868172928313 -0.016515018718508377
leaf_weight=128.22674834728241 398.87456318736076 1862.19049218297 446.28307443857193 1073.4157328009605 130.49843680858612 136.87249808013439 89.370120525360107
leaf_count=643 1229 5907 1873 2879 348 594 270
internal_value=-0.0157907 -0.00729605 -0.0110993 -0.0286773 -0.020862 0.0256011 -0.0321805
internal_weight=4265.73 2573.57 2308.47 1692.16 529.373 265.099 1162.79
internal_count=13743 9017 7780 4726 1577 1237 3149
is_linear=0
shrinkage=0.03


Tree=11
num_leaves=8
num_cat=0
split_feature=48 37 48 36 48 38 3
split_gain=610.291 339.338 161.469 102.2 85.627 31.8195 9.68175
threshold=0.29135460351001297 -0.073232692659131113 0.5516536418525918 0.052933573520314921 0.10291800326046686 0.012994149936529699 0.023126181170695714
decision_type=2 2 2 2 2 2 2
left_child=3 6 -3 5 -5 -1 -2
right_child=1 2 -4 4 -6 -7 -8
leaf_value=-0.029854152973288708 -0.045068138414414587 0.0014876629383361298 0.028752774039141279 -0.024161159671636921 -0.0055002524317522587 -0.022065469215836984 -0.026192214686440774
leaf_weight=1170.9661958068609 105.01044358313084 909.65251329541206 247.56523163616657 418.03368577361107 476.56432601809502 895.07504487037659 52.835771918296814
leaf_count=3237 249 3439 1192 1222 1637 2625 142
internal_value=-0.0152804 0.00171434 0.00737301 -0.0228303 -0.0142714 -0.0265117 -0.0392504
internal_weight=4275.7 1315.06 1157.22 2960.64 894.598 2066.04 157.846
internal_count=13743 5022 4631 8721 2859 5862 391
is_linear=0
shrinkage=0.03


Tree=12
num_leaves=8
num_cat=0
split_feature=48 26 38 48 48 24 6
split_gain=572.442 492.119 110.73 137.935 89.5257 28.0915 21.1675
threshold=0.32420938849094172 4.2235000133514413 -0.018261770291484011 0.10581347705241391 0.5516536418525918 0.87559797220573909 0.64597396916257321
decision_type=2 2 2 2 2 2 2
left_child=2 4 6 -4 -2 -3 -1
right_child=1 5 3 -5 -6 -7 -8
leaf_value=-0.031310887493969569 0.009195822193671056 -0.034901928561053286 -0.025608276810067384 -0.01086042295223461 0.03135039069894046 -0.012624410610091926 0.0047606643652924937
leaf_weight=831.25940078496933 611.7433066368103 223.67985217273235 1099.8741325736046 1205.7265436947346 225.60462807118893 72.88182932138443 13.669544756412504
leaf_count=2301 2488 582 3122 3845 1130 228 47
internal_value=-0.0147924 0.00347067 -0.0213682 -0.0179184 0.0152432 -0.0295986 -0.0306997
internal_weight=4284.44 1133.91 3150.53 2305.6 837.348 296.562 844.929
internal_count=13743 4428 9315 6967 3618 810 2348
is_linear=0
shrinkage=0.03


Tree=13
num_leaves=8
num_cat=0
split_feature=48 26 48 36 48 24 28
split_gain=535.395 506.692 108.245 94.2828 75.8923 35.1867 23.0401
threshold=0.28924964913755119 4.2235000133514413 0.46112779435973777 0.052933573520314921 0.10721016191663198 0.87177021750437733 0.22206258775255264
decision_type=2 2 2 2 2 2 2
left_child=3 2 -2 6 -5 -3 -1
right_child=1 5 -4 4 -6 -7 -8
leaf_value=-0.025856284604042077 0.0041789271503218858 -0.034057925760746503 0.024538235676730909 -0.022150042298415138 -0.0046362921957524067 -0.011544671139763669 -0.013366517170816015
leaf_weight=1913.4521904587746 556.0743110626936 272.94268922507763 409.20356746017933 436.11067716777325 460.97853408753872 87.308658674359322 155.6772076189518
leaf_count=5348 2123 709 1971 1266 1578 273 475
internal_value=-0.0143237 0.00151586 0.0128581 -0.0214033 -0.0131974 -0.028737 -0.0249376
internal_weight=4291.75 1325.53 965.278 2966.22 897.089 360.251 2069.13
internal_count=13743 5076 4094 8667 2844 982 5823
is_linear=0
shrinkage=0.03


Tree=14
num_leaves=8
num_cat=0
split_feature=48 26 48 26 48 38 45
split_gain=501.198 413.863 109.643 120.38 65.367 51.1645 28.0221
threshold=0.35975149169250314 4.2235000133514413 0.19372951985485234 4.2114999294281015 0.5516536418525918 -0.018261770291484011 0.025176105545023145
decision_type=2 2 2 2 2 2 2
left_child=2 4 5 -4 -2 -1 -3
right_child=1 6 3 -5 -6 -7 -8
leaf_value=-0.031167631782583152 0.010705851160529236 -0.0083811434227815344 -0.0035391679952192783 -0.024746649835887667 0.030518041113911869 -0.020455055363931985 -0.033446595702423511
leaf_weight=544.11120952665806 488.44030198454857 54.8595030605793 668.46061797440052 377.17116813361645 219.58256569504738 1752.9189910590649 191.59672746062279
leaf_count=1454 2038 172 2303 1045 1130 5107 494
internal_value=-0.0138767 0.00527575 -0.01935 -0.0112359 0.0169401 -0.023024 -0.0280399
internal_weight=4297.14 954.479 3342.66 1045.63 708.023 2297.03 246.456
internal_count=13743 3834 9909 3348 3168 6561 666
is_linear=0
shrinkage=0.03


Tree=15
num_leaves=8
num_cat=0
split_feature=48 26 36 48 48 48 24
split_gain=469.322 412.7 95.9838 82.3175 78.2738 30.0106 24.2846
threshold=0.32420938849094172 4.2235000133514413 0.052933573520314921 0.5516536418525918 0.10291800326046686 0.17544954695832807 0.87559797220573909
decision_type=2 2 2 2 2 2 2
left_child=2 3 5 -2 -4 -1 -3
right_child=1 6 4 -5 -6 -7 -8
leaf_value=-0.025233744681406881 0.008467713763498922 -0.031697389041591577 -0.020964853965159569 0.030069282860022577 -0.0037150903299531597 -0.01754625591099427 -0.011094302786604691
leaf_weight=1499.6216343045235 605.19911396503448 225.85310208797455 424.99238803982735 216.254309669137 539.60431587696075 716.81601777672768 73.533320963382721
leaf_count=4132 2488 582 1222 1130 1849 2112 228
internal_value=-0.0134458 0.00323198 -0.0193253 0.0142319 -0.0113583 -0.0227724 -0.026794
internal_weight=4301.87 1120.84 3181.03 821.453 964.597 2216.44 299.386
internal_count=13743 4428 9315 3618 3071 6244 810
is_linear=0
shrinkage=0.03


Tree=16
num_leaves=8
num_cat=0
split_feature=48 37 48 19 48 29 8
split_gain=440.537 257.986 96.4402 92.5147 85.1918 42.9706 7.47108
threshold=0.35975149169250314 -0.073232692659131113 0.19372951985485234 27.361521504619862 0.58245927002037345 0.77659582291513474 12.849787007946192
decision_type=2 2 2 2 2 2 2
left_child=2 6 5 -4 -3 -1 -2
right_child=1 4 3 -5 -6 -7 -8
leaf_value=-0.023146252776607958 -0.035884143166453455 0.0061092941498086563 0.0031735378018315553 -0.016283430596116803 0.029401163158460458 -0.010783217422702048 -0.0089461174915317979
leaf_weight=2009.9867895841599 119.07820856571198 631.10469368100166 310.31893916428089 738.73506070673466 181.78182317316532 300.97789503633976 13.40183751285076
leaf_count=5639 287 2566 1072 2276 942 922 39
internal_value=-0.013032 0.00503886 -0.0181208 -0.0105185 0.0113957 -0.0215533 -0.0334442
internal_weight=4305.39 945.367 3360.02 1049.05 812.887 2310.96 132.48
internal_count=13743 3834 9909 3348 3508 6561 326
is_linear=0
shrinkage=0.03


Tree=17
num_leaves=8
num_cat=0
split_feature=48 26 48 38 36 22 21
split_gain=413.758 414.138 93.7972 84.8993 91.5416 22.2912 14.8295
threshold=0.28924964913755119 4.2344999313354501 0.47592213084114393 -0.018261770291484011 0.052933573520314921 0.039233569958169422 -0.13646697366343324
decision_type=2 2 2 2 2 2 2
left_child=3 2 -2 6 -5 -3 -1
right_child=1 5 -4 4 -6 -7 -8
leaf_value=-0.047650468956705182 0.0045033536347437158 0.0079781509457507414 0.024030742483090953 -0.019972321912359984 -0.0069202885684731376 -0.027334323107215966 -0.026300312597107991
leaf_weight=34.030263811349869 593.1640187650919 15.352514281868933 354.74934495985508 1504.737885132432 722.61863662302494 346.89205922186375 738.11224895715714
leaf_count=86 2297 52 1800 4262 2316 927 2003
internal_value=-0.0126285 0.00142506 0.0118623 -0.0187688 -0.0157546 -0.025761 -0.0273813
internal_weight=4309.66 1310.16 947.913 2999.5 2227.36 362.245 772.143
internal_count=13743 5076 4097 8667 6578 979 2089
is_linear=0
shrinkage=0.03


Tree=18
num_leaves=8
num_cat=0
split_feature=26 49 49 47 49 49 49
split_gain=330.329 248.313 241.301 39.984 46.8864 24.2602 21.7117
threshold=4.2114999294281015 0.28017312127592359 0.61745530332912379 0.042241512556601031 0.49501533443980178 0.23684706945687781 0.50036058639350778
decision_type=2 2 2 2 2 2 2
left_child=1 5 -3 4 -2 -1 -5
right_child=3 2 -4 6 -6 -7 -8
leaf_value=0.033098743114920795 -0.010270874438840415 -0.013130805601722468 0.011450157478729271 -0.028656656920160031 -0.030817598903868468 0.013698225038497444 -0.019800490658254469
leaf_weight=115.54489421844482 409.02568723261356 1892.3190546929836 441.30788527429104 757.40145500004292 133.98107579350471 132.0042168200016 430.17591346800327
leaf_count=643 1229 5871 1909 1964 348 594 1185
internal_value=-0.0122441 -0.00543005 -0.0084701 -0.0223807 -0.0154626 0.0230063 -0.0255
internal_weight=4311.76 2581.18 2333.63 1730.58 543.007 247.549 1187.58
internal_count=13743 9017 7780 4726 1577 1237 3149
is_linear=0
shrinkage=0.03


Tree=19
num_leaves=8
num_cat=0
split_feature=36 30 35 21 10 16 4
split_gain=197.699 141.331 39.9107 37.1955 32.3674 20.7377 13.056
threshold=0.052933573520314921 0.10832468845961166 0.012205132493598671 -0.13646697366343324 0.016299892710336637 0.89986564087182519 0.059097898386675361
decision_type=2 2 2 2 2 2 2
left_child=1 2 -1 -3 5 -2 -6
right_child=4 3 -4 -5 6 -7 -8
leaf_value=-0.019953338188435758 -0.0067582794918589718 -0.036942608534543779 -0.032409252350617188 -0.0079189311249226579 -0.0011179541697056202 0.025070223760451923 0.0083894750364267023
leaf_weight=1320.0421911329031 886.50095933675766 39.588693767786026 294.52765695750713 1241.5300645679235 274.91273985803127 16.701817885041237 239.99507634341717
leaf_count=3654 3108 99 742 4163 1007 72 898
internal_value=-0.0118711 -0.0163642 -0.0222721 -0.00888369 -0.00267602 -0.00609905 0.00329969
internal_weight=4313.8 2895.69 1614.57 1281.12 1418.11 903.203 514.908
internal_count=13743 8658 4396 4262 5085 3180 1905
is_linear=0
shrinkage=0.03


Tree=20
num_leaves=8
num_cat=0
split_feature=48 26 48 38 48 24 6
split_gain=368.014 358.984 86.2733 77.2025 89.4684 29.5806 15.4899
threshold=0.28924964913755119 4.2235000133514413 0.5516536418525918 -0.018261770291484011 0.10581347705241391 0.87177021750437733 0.64597396916257321
decision_type=2 2 2 2 2 2 2
left_child=3 2 -2 6 -5 -3 -1
right_child=1 5 -4 4 -6 -7 -8
leaf_value=-0.026009784658876538 0.0067265826995523822 -0.028228014782185454 0.028702251928547372 -0.020382664765569006 -0.0083339036800584004 -0.0078607046865160415 0.0053799154324000835
leaf_weight=762.90573106706142 734.69123049080372 275.92255243659019 205.75793144106865 1122.2771035432816 1115.6802902370691 88.866615399718285 12.974592521786688
leaf_count=2046 2964 709 1130 3122 3456 273 43
internal_value=-0.011502 0.00179314 0.0116012 -0.0172622 -0.0143955 -0.0233771 -0.0254531
internal_weight=4319.08 1305.24 940.449 3013.84 2237.96 364.789 775.88
internal_count=13743 5076 4094 8667 6578 982 2089
is_linear=0
shrinkage=0.03


Tree=21
num_leaves=8
num_cat=0
split_feature=48 37 38 48 48 8 3
split_gain=346.878 204.503 90.1063 119.423 75.2922 14.7555 7.20486
threshold=0.35975149169250314 -0.073232692659131113 -0.018261770291484011 0.10581347705241391 0.58245927002037345 7.2406320876697015 0.070279948435772746
decision_type=2 2 2 2 2 2 2
left_child=2 6 5 -4 -3 -1 -2
right_child=1 4 3 -5 -6 -7 -8
leaf_value=-0.025561095972988591 -0.03249029271466003 0.0058652318692806078 -0.019737068077808034 -0.0064074934630986612 0.028190991298969521 -0.015855371869103133 -0.011267924885170106
leaf_weight=738.31305640935898 109.73571383953094 625.43446981906891 1124.2513022422791 1323.1196639239788 173.37345354259014 202.39927306771278 22.431140244007111
leaf_count=2021 264 2566 3122 4181 942 585 62
internal_value=-0.011157 0.00504128 -0.0156128 -0.012548 0.0107879 -0.0235268 -0.0292219
internal_weight=4319.06 930.975 3388.08 2447.37 798.808 940.712 132.167
internal_count=13743 3834 9909 7303 3508 2606 326
is_linear=0
shrinkage=0.03


Tree=22
num_leaves=8
num_cat=0
split_feature=48 26 48 38 48 24 21
split_gain=326.901 329.635 79.9444 68.1508 78.0523 26.3844 14.5786
threshold=0.28924964913755119 4.2344999313354501 0.5516536418525918 -0.018261770291484011 0.10581347705241391 0.87177021750437733 -0.13646697366343324
decision_type=2 2 2 2 2 2 2
left_child=3 2 -2 6 -5 -3 -1
right_child=1 5 -4 4 -6 -7 -8
leaf_value=-0.043535310243540917 0.006561800131924359 -0.026970980117829613 0.027957180529293732 -0.019116793851397113 -0.0078753503555917224 -0.007683360482876953 -0.02285840972786864
leaf_weight=34.756334453821182 733.84145058691502 275.04134279489517 199.94506153464317 1125.9456162303686 1118.0407442599535 88.651297211647034 743.65740320086479
leaf_count=86 2967 707 1130 3122 3456 272 2003
internal_value=-0.0108211 0.00176276 0.011209 -0.0162257 -0.0135346 -0.0223783 -0.0239101
internal_weight=4319.88 1297.48 933.787 3022.4 2243.99 363.693 778.414
internal_count=13743 5076 4097 8667 6578 979 2089
is_linear=0
shrinkage=0.03


Tree=23
num_leaves=8
num_cat=0
split_feature=48 26 38 48 48 45 11
split_gain=306.993 272.582 81.0061 106.839 51.0392 21.991 14.4788
threshold=0.35975149169250314 4.2235000133514413 -0.018261770291484011 0.17544954695832807 0.5516536418525918 0.025176105545023145 0.66054703389636804
decision_type=2 2 2 2 2 2 2
left_child=2 4 6 -4 -2 -3 -1
right_child=1 5 3 -5 -6 -7 -8
leaf_value=-0.026269883900206809 0.0093105258128169232 -0.0047893351217321084 -0.016058539219445896 -0.0026083121374333943 0.027559571987394074 -0.026715885313392279 -0.018385272675732065
leaf_weight=444.16430154442787 477.57959277927876 55.729935362935066 1667.6421865075827 785.23972161114216 196.8212041258812 192.30230356752872 499.2159793227911
leaf_count=1197 2038 172 4750 2553 1130 494 1409
internal_value=-0.0105004 0.00482687 -0.0146681 -0.0117645 0.0147244 -0.021927 -0.0221611
internal_weight=4318.7 922.433 3396.26 2452.88 674.401 248.032 943.38
internal_count=13743 3834 9909 7303 3168 666 2606
is_linear=0
shrinkage=0.03


Tree=24
num_leaves=8
num_cat=0
split_feature=26 49 49 47 49 49 24
split_gain=248.224 197.911 183.713 33.4262 42.4141 22.1453 20.4998
threshold=4.2114999294281015 0.28017312127592359 0.61745530332912379 0.042241512556601031 0.499295901980016 0.23684706945687781 0.96555020768774324
decision_type=2 2 2 2 2 2 2
left_child=1 5 -3 4 -2 -1 -5
right_child=3 2 -4 6 -6 -7 -8
leaf_value=0.031750678605622369 -0.0079886816785502638 -0.010933187701964105 0.01066410315427559 -0.022579362638890536 -0.027905734308382064 0.012815508986206104 -0.0014871714649764974
leaf_weight=108.05924916267395 421.82754926383495 1909.2426673024893 432.82558961212635 1145.4134481549263 125.45494298636913 129.83114863932133 44.914194270968437
leaf_count=643 1255 5871 1909 3010 322 594 139
internal_value=-0.0101886 -0.00427195 -0.00692981 -0.0189498 -0.0126666 0.0216721 -0.0217999
internal_weight=4317.57 2579.96 2342.07 1737.61 547.282 237.89 1190.33
internal_count=13743 9017 7780 4726 1577 1237 3149
is_linear=0
shrinkage=0.03


Tree=25
num_leaves=8
num_cat=0
split_feature=48 26 48 36 38 38 22
split_gain=276.673 283.952 71.5823 64.0402 58.9281 23.4029 19.4052
threshold=0.28924964913755119 4.2344999313354501 0.5516536418525918 0.052933573520314921 -0.01647966887235541 0.012994149936529699 0.039233569958169422
decision_type=2 2 2 2 2 2 2
left_child=3 2 -2 5 -5 -1 -3
right_child=1 6 -4 4 -6 -7 -8
leaf_value=-0.020540450923256324 0.0062871005824160558 0.01053150878846214 0.026891457072618957 -0.02304838727506139 -0.0042630541949199401 -0.014002075279931473 -0.022078903054454781
leaf_weight=1191.630803540349 730.07209604978561 15.468196079134939 191.47486409544945 188.6813165396452 731.96547400951385 918.71333266794682 348.12280561029911
leaf_count=3207 2967 52 1130 528 2316 2616 927
internal_value=-0.00988608 0.00176677 0.0106334 -0.0148297 -0.00817087 -0.0177171 -0.0206005
internal_weight=4316.13 1285.14 921.547 3030.99 920.647 2110.34 363.591
internal_count=13743 5076 4097 8667 2844 5823 979
is_linear=0
shrinkage=0.03


Tree=26
num_leaves=8
num_cat=0
split_feature=48 26 48 36 48 24 38
split_gain=259.716 267.823 69.2979 60.2699 56.7424 24.268 22.0534
threshold=0.28924964913755119 4.2344999313354501 0.47592213084114393 0.052933573520314921 0.10291800326046686 0.87177021750437733 0.012994149936529699
decision_type=2 2 2 2 2 2 2
left_child=3 2 -2 6 -5 -3 -1
right_child=1 5 -4 4 -6 -7 -8
leaf_value=-0.019918599578099969 0.0041666576262097106 -0.024402199166939312 0.021409516132161164 -0.015808412180500594 -0.00087261712917502778 -0.0059926242973102166 -0.013571510829052056
leaf_weight=1192.0238284915686 589.56460349261761 274.38547487556934 327.28275883197784 432.64939807355404 488.96846526861191 89.154513627290726 919.47564372420311
leaf_count=3207 2297 707 1800 1222 1622 272 2616
internal_value=-0.00959556 0.00172254 0.0103713 -0.0143763 -0.00791945 -0.019986 -0.0171772
internal_weight=4313.5 1280.39 916.847 3033.12 921.618 363.54 2111.5
internal_count=13743 5076 4097 8667 2844 979 5823
is_linear=0
shrinkage=0.03


Tree=27
num_leaves=8
num_cat=0
split_feature=26 49 49 31 49 49 49
split_gain=207.412 151.221 144.26 38.4861 44.3365 15.7486 11.003
threshold=4.1934998035430917 0.26619228019392344 0.62015392810438053 0.0037927435488661625 0.448023907771531 0.50036058639350778 0.23684706945687781
decision_type=2 2 2 2 2 2 2
left_child=1 6 -3 5 -5 -2 -1
right_child=3 2 -4 4 -6 -7 -8
leaf_value=0.03088693943556586 -0.024173816184282122 -0.0091448569326059107 0.010410040930546743 -0.0056967673395882214 -0.018427144188123957 -0.015353384433843802 0.014150418922489657
leaf_weight=94.047596350312233 596.24338395893574 1825.7298822104931 414.58036650717258 463.02902464568615 540.99107064306736 302.86729401350021 72.418297976255417
leaf_count=586 1532 5671 1868 1448 1459 831 348
internal_value=-0.00931619 -0.00345115 -0.00551338 -0.0167141 -0.0125941 -0.02126 0.0239495
internal_weight=4309.91 2406.78 2240.31 1903.13 1004.02 899.111 166.466
internal_count=13743 8473 7539 5270 2907 2363 934
is_linear=0
shrinkage=0.03


Tree=28
num_leaves=8
num_cat=0
split_feature=36 30 49 49 49 47 5
split_gain=133.675 88.0313 123.013 69.4873 78.4594 34.0818 1.67451
threshold=0.052933573520314921 0.10832468845961166 0.3360408646579523 0.23684706945687781 0.59613937417738205 0.042241512556601031 0.10783707040203715
decision_type=2 2 2 2 2 2 2
left_child=1 5 -3 6 -5 -1 -2
right_child=3 2 -4 4 -6 -7 -8
leaf_value=-0.011149652582707597 0.013466744842368709 0.013089008096546426 -0.011146895495919795 -0.0065620879610396692 0.011246310033501883 -0.020514485040653316 0.032948391817084192
leaf_weight=545.29488310217857 11.833134710788725 227.31094767153263 1050.6807381212711 1074.7508459091187 278.35356751084328 1072.2686456739902 47.129217654466629
leaf_count=1566 72 1015 3247 3475 1236 2830 302
internal_value=-0.00904155 -0.0127307 -0.00681072 -0.00145875 -0.00287638 -0.0173844 0.0298548
internal_weight=4307.62 2895.56 1277.99 1412.07 1353.1 1617.56 58.9624
internal_count=13743 8658 4262 5085 4711 4396 374
is_linear=0
shrinkage=0.03


Tree=29
num_leaves=8
num_cat=0
split_feature=48 26 48 28 29 48 38
split_gain=225.847 253.792 95.1652 38.6664 32.0792 28.8635 23.4454
threshold=0.20608083512758493 4.2114999294281015 0.44920503241665422 0.17529787063046368 0.77659582291513474 0.043222009397955126 -0.023672327963637326
decision_type=2 2 2 2 2 2 2
left_child=4 2 -2 -3 6 -6 -1
right_child=1 3 -4 -5 5 -7 -8
leaf_value=-0.02271705894794938 0.001222914577454357 -0.019800893211013259 0.019100711364444665 0.0054888257136543476 -0.019219633267329738 0.00018605416460595181 -0.014502625599403636
leaf_weight=401.85105323791504 887.63656130433083 524.67776770889759 383.32987566292286 58.827222272753716 97.082835420966148 222.02915188670158 1730.4573873728514
leaf_count=1055 3179 1398 2091 190 265 698 4867
internal_value=-0.00877319 -0.000862817 0.00664827 -0.0172156 -0.0147456 -0.00575392 -0.0160776
internal_weight=4305.89 1854.47 1270.97 583.505 2451.42 319.112 2132.31
internal_count=13743 6858 5270 1588 6885 963 5922
is_linear=0
shrinkage=0.03


Tree=30
num_leaves=8
num_cat=0
split_feature=48 37 38 48 48 7 0
split_gain=213.251 135.384 69.9346 92.5139 61.6083 14.3866 7.88573
threshold=0.35975149169250314 -0.073232692659131113 -0.018261770291484011 0.10581347705241391 0.64259591738954525 1.9148330717633313 -0.0009373723033632204
decision_type=2 2 2 2 2 2 2
left_child=2 6 5 -4 -3 -1 -2
right_child=1 4 3 -5 -6 -7 -8
leaf_value=-0.013281398027236732 -0.032146467068207923 0.0059865371667288574 -0.015567320980783433 -0.0038792691329335824 0.031399541102433114 -0.021547417879083521 -0.015738264063770789
leaf_weight=307.12159785628319 58.395044878125191 668.46065720915794 1130.6501549482346 1333.0392128676176 97.384771317243576 635.87920466065407 70.93490968644619
leaf_count=871 138 2911 3122 4181 597 1735 188
internal_value=-0.00851827 0.0044919 -0.011942 -0.00925758 0.00931095 -0.018905 -0.0236378
internal_weight=4301.87 895.175 3406.69 2463.69 765.845 943.001 129.33
internal_count=13743 3834 9909 7303 3508 2606 326
is_linear=0
shrinkage=0.03


Tree=31
num_leaves=8
num_cat=0
split_feature=48 26 48 28 29 48 38
split_gain=202.664 248.272 88.6713 38.9582 30.801 27.1858 22.343
threshold=0.19372951985485234 4.2114999294281015 0.44920503241665422 0.17529787063046368 0.77659582291513474 0.043222009397955126 -0.023672327963637326
decision_type=2 2 2 2 2 2 2
left_child=4 2 -2 -3 6 -6 -1
right_child=1 3 -4 -5 5 -7 -8
leaf_value=-0.022268052187832725 0.0013087902695784444 -0.019263921612142635 0.018498904612368808 0.0043084827168245422 -0.018164702880745214 0.0008373623976127817 -0.013999143370849896
leaf_weight=375.95245824754238 950.38755817711353 559.17603559792042 376.69626377522945 69.218061223626137 97.211472168564796 208.96733477711678 1661.4957018047571
leaf_count=982 3379 1490 2091 222 265 657 4657
internal_value=-0.00826902 -0.0011273 0.00622003 -0.0166382 -0.0142155 -0.00522583 -0.0155526
internal_weight=4299.1 1955.48 1327.08 628.394 2343.63 306.179 2037.45
internal_count=13743 7182 5470 1712 6561 922 5639
is_linear=0
shrinkage=0.03


Tree=32
num_leaves=8
num_cat=0
split_feature=49 49 37 46 46 49 28
split_gain=102.45 102.627 118.762 52.06 35.7154 67.5352 12.4756
threshold=0.67630228779472235 0.35396452652201466 -0.073232692659131113 -0.023478099598789878 -0.025555489376950454 0.82310679616673188 0.097404011421401107
decision_type=2 2 2 2 2 2 2
left_child=1 2 -1 -3 5 -2 -6
right_child=4 3 -4 -5 6 -7 -8
leaf_value=-0.023690967334105122 -0.0099960491116196874 -0.015666880607609426 0.0054084362021325364 -0.0079107424975058196 0.02589628600248536 0.028145533809017811 -0.0056265564935387294
leaf_weight=152.79435274004936 142.35141158103943 1572.623551055789 681.92798289656639 1580.7891858667135 95.948671594262123 56.760991424322128 11.192141801118849
leaf_count=385 594 4372 2828 4700 474 350 40
internal_value=-0.00803012 -0.00931641 2.00221e-05 -0.011791 0.00862342 0.00097416 0.0224231
internal_weight=4294.39 3988.14 834.722 3153.41 306.253 199.112 107.141
internal_count=13743 12285 3213 9072 1458 944 514
is_linear=0
shrinkage=0.03


Tree=33
num_leaves=8
num_cat=0
split_feature=48 46 48 35 29 48 38
split_gain=183.369 101.622 111.278 88.3525 28.6881 25.8187 20.8293
threshold=0.19372951985485234 -0.025555489376950454 0.58245927002037345 0.0078241445915282499 0.77659582291513474 0.10581347705241391 -0.023672327963637326
decision_type=2 2 2 2 2 2 2
left_child=4 2 -2 -3 6 -6 -1
right_child=1 3 -4 -5 5 -7 -8
leaf_value=-0.021224538164031161 -0.01007903331672619 -0.0031439420039413302 0.016991312029856216 0.017210385573486316 -0.010383804038087117 0.0085395784539369062 -0.013237106179903627
leaf_weight=375.29255905747414 1028.3884628415108 363.69754582643509 155.36662904918194 400.7297588288784 216.61165273189545 89.731510683894157 1661.9331668913364
leaf_count=982 3416 1287 856 1623 619 303 4657
internal_value=-0.00779394 -0.000981986 -0.00649076 0.00752374 -0.0134446 -0.00477284 -0.0147353
internal_weight=4291.75 1948.18 1183.76 764.427 2343.57 306.343 2037.23
internal_count=13743 7182 4272 2910 6561 922 5639
is_linear=0
shrinkage=0.03


Tree=34
num_leaves=8
num_cat=0
split_feature=48 26 38 48 48 40 2
split_gain=173.373 158.04 69.8516 91.0355 37.0192 19.2108 14.2351
threshold=0.38293794996026054 4.240999937057496 -0.018261770291484011 0.2081197117780054 0.60829019484535229 1.0000000180025095e-35 0.011423459867171045
decision_type=2 2 2 2 2 2 2
left_child=2 4 6 -4 -2 -3 -1
right_child=1 5 3 -5 -6 -7 -8
leaf_value=-0.020414667377847969 0.0095165202685659998 0.0020047102466634881 -0.01101674109356012 0.0021239863205672793 0.028712403797945742 -0.02099784533660886 -0.012919419136235354
leaf_weight=553.86248506605625 451.98864145576954 38.347162708640099 1883.1740542948246 630.90078192949295 114.16627694666386 172.94716222584248 444.45338647067547
leaf_count=1517 2128 120 5381 2109 754 454 1280
internal_value=-0.00756358 0.00523213 -0.0104015 -0.00771408 0.0135013 -0.0167732 -0.0171253
internal_weight=4289.84 777.449 3512.39 2514.07 566.155 211.294 998.316
internal_count=13743 3456 10287 7490 2882 574 2797
is_linear=0
shrinkage=0.03


Tree=35
num_leaves=8
num_cat=0
split_feature=48 37 48 46 48 9 23
split_gain=163.534 115.947 72.7622 46.7341 68.7611 17.8388 10.8621
threshold=0.28924964913755119 -0.073232692659131113 0.58245927002037345 -0.023478099598789878 0.10721016191663198 0.82901026442111148 0.64019105807198384
decision_type=2 2 2 2 2 2 2
left_child=3 6 -3 5 -5 -1 -2
right_child=1 2 -4 4 -6 -7 -8
leaf_value=-0.019994983161577308 -0.02809288804601448 0.0021370710324649612 0.024660508643747928 -0.013460412523786033 -0.00074912840159995083 -0.012660775609092699 -0.010236712281408968
leaf_weight=447.92197997868061 102.29761597514153 947.30090215802193 147.95938843488693 802.82611198723316 736.26314075291157 1048.3619296103716 52.559491366147995
leaf_count=1190 250 3740 942 2225 2320 2932 144
internal_value=-0.00734408 0.00177561 0.00523285 -0.0111036 -0.00739824 -0.0148901 -0.0223358
internal_weight=4285.49 1250.12 1095.26 3035.37 1539.09 1496.28 154.857
internal_count=13743 5076 4682 8667 4545 4122 394
is_linear=0
shrinkage=0.03


Tree=36
num_leaves=8
num_cat=0
split_feature=26 49 49 31 49 49 49
split_gain=142.266 111.708 94.7788 28.0677 33.3613 13.5591 10.5853
threshold=4.1934998035430917 0.26619228019392344 0.61745530332912379 0.0037927435488661625 0.448023907771531 0.50036058639350778 0.23684706945687781
decision_type=2 2 2 2 2 2 2
left_child=1 6 -3 5 -5 -2 -1
right_child=3 2 -4 4 -6 -7 -8
leaf_value=0.029325103255226068 -0.019907081096423061 -0.006926081885313645 0.0089544695895272062 -0.0037909993676175147 -0.014839612290498554 -0.011755229692474131 0.012530051881919701
leaf_weight=85.79281921684742 587.24390351772308 1822.9192168414593 412.66707624495029 462.71811810135841 538.68974004685879 301.34420795738697 69.888319551944733
leaf_count=586 1532 5636 1903 1448 1459 831 348
internal_value=-0.00713183 -0.00225889 -0.0039826 -0.0132804 -0.00976709 -0.017192 0.0221352
internal_weight=4281.26 2391.27 2235.59 1890 1001.41 888.588 155.681
internal_count=13743 8473 7539 5270 2907 2363 934
is_linear=0
shrinkage=0.03


Tree=37
num_leaves=8
num_cat=0
split_feature=48 26 48 28 29 48 9
split_gain=149.507 202.824 70.6089 32.6508 26.3713 24.8785 16.2728
threshold=0.19372951985485234 4.2114999294281015 0.44920503241665422 0.17529787063046368 0.77659582291513474 0.030024433837319679 1.4366540011839766
decision_type=2 2 2 2 2 2 2
left_child=4 2 -2 -3 6 -6 -1
right_child=1 3 -4 -5 5 -7 -8
leaf_value=-0.014386348979465597 0.0016180607452091942 -0.017224608419196034 0.017187498425387318 0.0043470394143466269 -0.019304913471669769 0.00086906917899771702 -0.006641391081238417
leaf_weight=1734.9588437378407 950.16099201142788 555.07551577687263 361.70734032988548 69.206379324197769 69.073127120733261 237.50323274731636 299.13227286934853
leaf_count=4769 3379 1490 2091 222 184 738 870
internal_value=-0.00692512 -0.000747619 0.0059419 -0.014803 -0.0120236 -0.00372328 -0.0132624
internal_weight=4276.82 1936.15 1311.87 624.282 2340.67 306.576 2034.09
internal_count=13743 7182 5470 1712 6561 922 5639
is_linear=0
shrinkage=0.03


Tree=38
num_leaves=8
num_cat=0
split_feature=48 28 19 48 48 30 18
split_gain=140.996 86.5908 52.3435 82.9953 49.1859 33.0737 32.4303
threshold=0.35975149169250314 0.1026262902796591 25.905210825008211 0.10581347705241391 0.53910095427273397 0.0853865146980234 17.090000152587894
decision_type=2 2 2 2 2 2 2
left_child=2 4 3 -1 -2 -3 -4
right_child=1 5 6 -5 -6 -7 -8
leaf_value=-0.012260924991360974 0.0039070687361296283 0.018355933026911013 -0.015705836186222094 0.0024764406400833178 0.021818229019391337 -0.01828982081283026 -0.0079163424099314671
leaf_weight=687.79845359921455 482.50155997276306 23.434046775102615 1201.5484809875488 682.07465721666813 193.61061236262321 168.74613603949547 831.34196351468563
leaf_count=1909 2038 94 3299 2208 1246 456 2493
internal_value=-0.00672667 0.0040444 -0.00948032 -0.00491918 0.00910743 -0.013601 -0.0125386
internal_weight=4271.06 868.292 3402.76 1369.87 676.112 192.18 2032.89
internal_count=13743 3834 9909 4117 3284 550 5792
is_linear=0
shrinkage=0.03


Tree=39
num_leaves=8
num_cat=0
split_feature=36 30 49 49 38 35 5
split_gain=87.4914 53.6813 84.4178 49.9065 53.1374 29.3223 2.24445
threshold=0.052933573520314921 0.10832468845961166 0.3360408646579523 0.23684706945687781 -0.01647966887235541 0.012205132493598671 0.10783707040203715
decision_type=2 2 2 2 2 2 2
left_child=1 5 -3 6 -5 -1 -2
right_child=3 2 -4 4 -6 -7 -8
leaf_value=-0.011242146454959343 0.010281602094002657 0.011891216062167814 -0.0084467273351159257 -0.0096418683515515601 0.0028395111590055534 -0.021976178887621763 0.031266201345609868
leaf_weight=1315.8264909982681 10.62585313618183 220.28681674599648 1047.7091380506754 469.38985289633274 876.05141845345497 284.71819229424 41.688467718660831
leaf_count=3654 72 1015 3247 1770 2941 742 302
internal_value=-0.00653201 -0.00952939 -0.00488848 -0.000365104 -0.00151164 -0.013186 0.0278156
internal_weight=4266.3 2868.54 1268 1397.76 1345.44 1600.54 52.3143
internal_count=13743 8658 4262 5085 4711 4396 374
is_linear=0
shrinkage=0.03


Tree=40
num_leaves=8
num_cat=0
split_feature=26 49 49 31 49 49 49
split_gain=116.232 95.515 82.7378 24.1021 31.9295 21.7299 10.0632
threshold=4.1934998035430917 0.26619228019392344 0.61745530332912379 0.0027408664135206711 0.44681154749477059 0.50036058639350778 0.23684706945687781
decision_type=2 2 2 2 2 2 2
left_child=1 6 -3 5 -5 -2 -1
right_child=3 2 -4 4 -6 -7 -8
leaf_value=0.028383326509321096 -0.019358785834200292 -0.0062361008758955163 0.008648190561580605 -0.0032085971885594377 -0.013293372456707687 -0.0065331762697959962 0.01174820380108456
leaf_weight=80.944280497729778 529.24453619122505 1824.0627653896809 409.39567370712757 477.88241469860077 711.84215003252029 161.69175806641579 68.668191954493523
leaf_count=586 1383 5636 1903 1493 1936 458 348
internal_value=-0.0063396 -0.00192876 -0.00349579 -0.0119128 -0.00926734 -0.0164065 0.0211029
internal_weight=4263.73 2383.07 2233.46 1880.66 1189.72 690.936 149.612
internal_count=13743 8473 7539 5270 3429 1841 934
is_linear=0
shrinkage=0.03


Tree=41
num_leaves=8
num_cat=0
split_feature=48 26 38 28 38 48 18
split_gain=129.115 171.852 69.2485 28.9776 23.3283 20.4689 11.1323
threshold=0.19372951985485234 4.2114999294281015 -0.018261770291484011 0.17529787063046368 -0.023672327963637326 0.10581347705241391 16.510000228881839
decision_type=2 2 2 2 2 2 2
left_child=4 2 -2 -3 6 -6 -1
right_child=1 3 -4 -5 5 -7 -8
leaf_value=-0.02633349672816437 -0.00066816854124249897 -0.015664753225899039 0.013161819862439183 0.0046436046305280403 -0.011856800089118363 -0.0053839437874771759 -0.014322172218670437
leaf_weight=102.13204310834408 694.39489451795816 551.31181308627129 608.40639089047909 69.258343040943146 1224.2505806684494 710.80771560966969 298.21061123907566
leaf_count=255 3036 1490 2434 222 3385 2113 808
internal_value=-0.00615658 -0.000391014 0.0057892 -0.0133665 -0.0108941 -0.00949487 -0.0175394
internal_weight=4258.77 1923.37 1302.8 620.57 2335.4 1935.06 400.343
internal_count=13743 7182 5470 1712 6561 5498 1063
is_linear=0
shrinkage=0.03


Tree=42
num_leaves=8
num_cat=0
split_feature=48 37 38 48 48 8 23
split_gain=122.681 77.1296 61.0339 71.1976 47.0649 19.106 8.98349
threshold=0.38293794996026054 -0.073232692659131113 -0.018261770291484011 0.10581347705241391 0.64259591738954525 7.2406320876697015 0.61148289781176979
decision_type=2 2 2 2 2 2 2
left_child=2 6 5 -4 -3 -1 -2
right_child=1 4 3 -5 -6 -7 -8
leaf_value=-0.016830380364728642 -0.024071619211844981 0.0057178082541641372 -0.0114309374425846 -0.0012601848147320814 0.029431363959525711 -0.0064410982074294661 -0.0054808924573713589
leaf_weight=780.340500831604 71.812917396426201 555.77060933411121 1126.2789405435324 1383.1406525373459 86.112333349883556 210.87604826688766 39.839319989085197
leaf_count=2176 182 2564 3122 4368 597 621 113
internal_value=-0.00597948 0.00497843 -0.00834402 -0.00583647 0.00900395 -0.0146526 -0.0177833
internal_weight=4254.17 753.535 3500.64 2509.42 641.883 991.217 111.652
internal_count=13743 3456 10287 7490 3161 2797 295
is_linear=0
shrinkage=0.03


Tree=43
num_leaves=8
num_cat=0
split_feature=48 26 38 28 29 48 38
split_gain=116.445 159.13 65.0267 26.8359 23.1178 22.8189 15.8403
threshold=0.19372951985485234 4.2114999294281015 -0.018261770291484011 0.17529787063046368 0.77659582291513474 0.030024433837319679 -0.023672327963637326
decision_type=2 2 2 2 2 2 2
left_child=4 2 -2 -3 6 -6 -1
right_child=1 3 -4 -5 5 -7 -8
leaf_value=-0.017163560861031001 -0.00062278337990385427 -0.015045342611891542 0.012800494661500923 0.0045004444402654718 -0.017498321694227655 0.001842940701104079 -0.010169550369264146
leaf_weight=370.03233548998833 693.09710814058781 549.39782811701298 605.6353011354804 69.219856888055801 68.939622566103935 237.50442714989185 1655.7274108231068
leaf_count=982 3036 1490 2434 222 184 738 4657
internal_value=-0.00580705 -0.000320583 0.00563539 -0.0128267 -0.010307 -0.00254481 -0.0114702
internal_weight=4249.55 1917.35 1298.73 618.618 2332.2 306.444 2025.76
internal_count=13743 7182 5470 1712 6561 922 5639
is_linear=0
shrinkage=0.03


Tree=44
num_leaves=8
num_cat=0
split_feature=48 37 38 48 48 11 23
split_gain=112.872 70.6618 55.623 64.2464 45.7431 17.7585 8.63802
threshold=0.38293794996026054 -0.073232692659131113 -0.018261770291484011 0.10581347705241391 0.64259591738954525 1.0950472169126055 0.61148289781176979
decision_type=2 2 2 2 2 2 2
left_child=2 6 5 -4 -3 -1 -2
right_child=1 4 3 -5 -6 -7 -8
leaf_value=-0.017807701296450283 -0.023176050976966053 0.0055424728657759289 -0.010828808320736488 -0.0011612870048468057 0.029116214215793915 -0.0095755870875909432 -0.0049198860140727699
leaf_weight=518.7275283485651 71.048162847757339 553.68384398519993 1124.7944043725729 1381.8876186609268 84.473195523023605 470.48299978673458 39.636411786079407
leaf_count=1435 182 2564 3122 4368 597 1362 113
internal_value=-0.00563995 0.00490759 -0.0079051 -0.00551044 0.00876759 -0.0139347 -0.0169749
internal_weight=4244.73 748.842 3495.89 2506.68 638.157 989.211 110.685
internal_count=13743 3456 10287 7490 3161 2797 295
is_linear=0
shrinkage=0.03


Tree=45
num_leaves=8
num_cat=0
split_feature=48 26 26 36 48 24 11
split_gain=106.552 109.799 47.1441 52.699 35.3217 15.6946 15.4264
threshold=0.35975149169250314 4.2235000133514413 4.0019999742507943 0.052933573520314921 0.60829019484535229 0.96555020768774324 2.8789767332640275
decision_type=2 2 2 2 2 2 2
left_child=2 4 6 -4 -2 -3 -1
right_child=1 5 3 -5 -6 -7 -8
leaf_value=-0.036664199180268371 0.0074174682124297474 -0.015792065267834391 -0.0097501022722709316 -0.0014689086227257365 0.026769024524213387 0.0083151340647125132 -0.0076066728553214526
leaf_weight=65.292545408010483 509.61467792093754 213.97484962642193 2302.8817640542984 995.73158942162991 101.89842429757118 25.279164642095566 25.275582134723663
leaf_count=164 2414 583 6521 3149 754 83 75
internal_value=-0.00547763 0.00399556 -0.00786101 -0.00725726 0.0107433 -0.0131349 -0.0290565
internal_weight=4239.95 850.767 3389.18 3298.61 611.513 239.254 90.5681
internal_count=13743 3834 9909 9670 3168 666 239
is_linear=0
shrinkage=0.03


Tree=46
num_leaves=8
num_cat=0
split_feature=48 46 48 35 46 49 46
split_gain=101.973 81.3162 77.8568 71.9105 18.9552 27.5928 27.1052
threshold=0.19372951985485234 -0.025555489376950454 0.58245927002037345 0.0078241445915282499 -0.023478099598789878 0.50195713985053636 -0.0098651984111131057
decision_type=2 2 2 2 2 2 2
left_child=4 2 -2 -3 5 -1 -6
right_child=1 3 -4 -5 6 -7 -8
leaf_value=-0.016202305892845235 -0.0080863009872118568 -0.0021715638026468002 0.015639958502852842 0.016313301619354823 -0.0022885538740786758 -0.0062510322596163919 -0.011210647220228067
leaf_weight=673.58179065585136 1014.1675729006529 360.33033086359501 139.61572128534317 393.43779162317514 595.10552962124348 414.50252199172974 643.90935845673084
leaf_count=1806 3416 1287 856 1623 1783 1179 1793
internal_value=-0.00532029 -0.000169202 -0.00518019 0.00747461 -0.00953249 -0.0124436 -0.006948
internal_weight=4234.65 1907.55 1153.78 753.768 2327.1 1088.08 1239.01
internal_count=13743 7182 4272 2910 6561 2985 3576
is_linear=0
shrinkage=0.03


Tree=47
num_leaves=8
num_cat=0
split_feature=36 49 49 30 49 36 5
split_gain=63.9188 41.6386 41.8575 37.2974 67.7639 26.3764 2.46284
threshold=0.052933573520314921 0.23684706945687781 0.54166423698975219 0.10832468845961166 0.3360408646579523 0.019100329202770053 0.10783707040203715
decision_type=2 2 2 2 2 2 2
left_child=3 6 -3 5 -5 -1 -2
right_child=1 2 -4 4 -6 -7 -8
leaf_value=-0.0089760518198603121 0.0087676468851208139 -0.0043873136487660907 0.0071463416356483869 0.011308063267323235 -0.0070437604727745752 -0.019238125769393318 0.030397069853008652
leaf_weight=1304.3586498349905 10.084264822304247 936.61812148988247 403.15947981178761 216.67021895945072 1042.9609162956476 278.19211284816265 38.790040083229542
leaf_count=3654 72 3027 1684 1015 3247 742 302
internal_value=-0.00516576 9.94097e-05 -0.000900003 -0.00774178 -0.00386224 -0.0108115 0.0267492
internal_weight=4230.83 1388.65 1339.78 2842.18 1259.63 1582.55 48.8743
internal_count=13743 5085 4711 8658 4262 4396 374
is_linear=0
shrinkage=0.03


Tree=48
num_leaves=8
num_cat=0
split_feature=48 37 48 19 48 7 23
split_gain=94.7926 67.7955 55.4428 38.6513 54.1673 22.2115 10.6313
threshold=0.28924964913755119 -0.073232692659131113 0.64259591738954525 25.905210825008211 0.10581347705241391 1.2155517597312642 0.64019105807198384
decision_type=2 2 2 2 2 2 2
left_child=3 6 -3 4 -1 -5 -2
right_child=1 2 -4 5 -6 -7 -8
leaf_value=-0.0096077452662853714 -0.022703857117734472 0.0027024248294714539 0.02836306793324659 0.0067568528862829358 0.0027727053276681074 -0.011423746785683999 -0.0050654173357247145
leaf_weight=683.3696920722723 96.447023630142212 986.52067606896162 80.400200322270393 60.43913134932518 589.5152752995491 1679.4519425928593 50.337281659245491
leaf_count=1909 250 4085 597 186 1881 4691 144
internal_value=-0.00501553 0.0020509 0.00469962 -0.0078667 -0.00386683 -0.0107766 -0.0169053
internal_weight=4226.48 1213.71 1066.92 3012.78 1272.88 1739.89 146.784
internal_count=13743 5076 4682 8667 3790 4877 394
is_linear=0
shrinkage=0.03


Tree=49
num_leaves=8
num_cat=0
split_feature=26 10 26 31 15 3 18
split_gain=78.9817 31.0315 28.1069 18.8537 21.242 18.6425 18.612
threshold=4.1934998035430917 0.016299892710336637 3.8305000066757207 0.0027408664135206711 -0.18534252484461969 0.11198514799482871 16.300000190734867
decision_type=2 2 2 2 2 2 2
left_child=1 2 -1 5 -5 -2 -3
right_child=3 6 -4 4 -6 -7 -8
leaf_value=-0.038451774081823438 -0.015019293902487114 0.010168183174673091 -0.003227808497864026 0.0031097384493006977 -0.0087227726687955243 0.0026900708507586408 0.00039024248345969633
leaf_weight=18.777437970042229 620.39341987669468 256.40676146745682 1532.9153447523713 154.379229798913 1026.7857999876142 56.375779137015343 555.41230902075768
leaf_count=46 1671 900 5455 480 2949 170 2072
internal_value=-0.00487084 -0.00122311 -0.00371267 -0.00949681 -0.00716093 -0.0135184 0.00351436
internal_weight=4221.45 2363.51 1551.69 1857.93 1181.17 676.769 811.819
internal_count=13743 8473 5501 5270 3429 1841 2972
is_linear=0
shrinkage=0.03


Tree=50
num_leaves=8
num_cat=0
split_feature=36 38 30 21 35 8 22
split_gain=55.4004 33.5155 32.9776 26.7636 24.2653 20.8917 17.2916
threshold=0.052933573520314921 -0.01647966887235541 0.10832468845961166 -0.13646697366343324 0.012205132493598671 10.559666494842913 0.89473674571254858
decision_type=2 2 2 2 2 2 2
left_child=2 5 4 -4 -1 -2 -3
right_child=1 6 3 -5 -6 -7 -8
leaf_value=-0.0082684664875674451 -0.0076631933402501011 0.0023336936535709898 -0.02723282680492143 -0.0026575655015990802 -0.018153619936345809 0.015359842951858351 0.016692421129305236
leaf_weight=1300.1023650765419 470.95439910143614 796.84036381542683 39.457820996642113 1218.4486932232976 275.30819864571095 36.111410349607468 82.182406224310398
leaf_count=3654 1919 2678 99 4163 742 169 319
internal_value=-0.00472768 0.000176863 -0.00713076 -0.00348235 -0.0100263 -0.00594021 0.003728
internal_weight=4219.41 1386.09 2833.32 1257.91 1575.41 507.066 879.023
internal_count=13743 5085 8658 4262 4396 2088 2997
is_linear=0
shrinkage=0.03


Tree=51
num_leaves=8
num_cat=0
split_feature=48 26 38 48 38 22 8
split_gain=90.4474 84.5718 49.1383 56.1109 30.4073 21.2004 17.5133
threshold=0.38293794996026054 4.240999937057496 -0.018261770291484011 0.2081197117780054 -0.018261770291484011 0.039233569958169422 7.2406320876697015
decision_type=2 2 2 2 2 2 2
left_child=2 4 6 -4 -2 -3 -1
right_child=1 5 3 -5 -6 -7 -8
leaf_value=-0.014391024773102902 0.0066485151847460221 0.026967571370516256 -0.0069642760633044339 0.0033777079380623528 0.022704307348372331 -0.013773094748265069 -0.0044422957939646039
leaf_weight=772.76141455769539 384.36955720931292 10.1601495295763 1871.7159678936005 627.65931549668312 148.73586818575859 192.92926469445229 209.29296830296516
leaf_count=2176 2080 37 5381 2109 802 537 621
internal_value=-0.00458837 0.00494353 -0.00661001 -0.00436051 0.0112242 -0.0114187 -0.0122994
internal_weight=4217.62 736.195 3481.43 2499.38 533.105 203.089 982.054
internal_count=13743 3456 10287 7490 2882 574 2797
is_linear=0
shrinkage=0.03


Tree=52
num_leaves=8
num_cat=0
split_feature=36 38 30 35 8 47 10
split_gain=51.2666 31.2607 29.802 22.8355 19.4988 17.9165 16.8143
threshold=0.052933573520314921 -0.01647966887235541 0.10832468845961166 0.012205132493598671 10.559666494842913 0.055954001994037002 0.016299892710336637
decision_type=2 2 2 2 2 2 2
left_child=2 4 3 -1 -2 -4 -3
right_child=1 6 5 -5 -6 -7 -8
leaf_value=-0.0078263409593021457 -0.0072999628601665093 0.00052316371770819712 -0.011396235038761719 -0.017444968915833848 0.014999208673183639 -0.0016955956018767817 0.0091726396764541043
leaf_weight=1297.3394343852997 471.51909859478474 558.80811586230993 204.44879683852196 273.32518257200718 35.886090658605099 1051.9934550970793 318.91855172812939
leaf_count=3654 1919 1852 583 742 169 3679 1145
internal_value=-0.00445593 0.000262163 -0.00677139 -0.00952976 -0.00564072 -0.00330161 0.00369668
internal_weight=4212.24 1385.13 2827.11 1570.66 507.405 1256.44 877.727
internal_count=13743 5085 8658 4396 2088 4262 2997
is_linear=0
shrinkage=0.03


Tree=53
num_leaves=8
num_cat=0
split_feature=26 4 26 13 31 6 8
split_gain=63.955 29.6793 22.068 21.1141 17.048 13.7664 11.8609
threshold=4.1934998035430917 0.2666720473975917 4.0019999742507943 10.812450974464053 0.0037927435488661625 0.18115595823710653 11.224518345686624
decision_type=2 2 2 2 2 2 2
left_child=1 2 -1 -3 6 -6 -2
right_child=4 3 -4 -5 5 -7 -8
leaf_value=-0.012525709264436725 -0.012800014185244681 0.016186198576743444 -0.0010578036173564695 -0.018779192077097943 -0.011594533750226064 -0.0035709868403199507 -0.00091058669685029981
leaf_weight=161.54208886623383 771.26374946534634 127.7576797157526 2057.486073449254 15.583215937018393 267.00534626841545 722.48670812696218 87.080616474151611
leaf_count=606 2106 523 7298 46 740 2167 257
internal_value=-0.0043248 -0.00104549 -0.00190993 0.0120756 -0.00850347 -0.00577022 -0.0116162
internal_weight=4210.21 2362.37 2219.03 143.341 1847.84 989.492 858.344
internal_count=13743 8473 7904 569 5270 2907 2363
is_linear=0
shrinkage=0.03


Tree=54
num_leaves=7
num_cat=0
split_feature=49 49 37 19 9 45
split_gain=53.3359 51.9819 48.9962 37.8668 3.60601 0.994899
threshold=0.82310679616673188 0.26879847891677128 -0.073232692659131113 25.905210825008211 1.552163104289882 0.025176105545023145
decision_type=2 2 2 2 2 2
left_child=1 2 -1 -3 5 -2
right_child=4 3 -4 -5 -6 -7
leaf_value=-0.013139700928724166 0.030546239642307224 -0.0016171690184884117 0.015544807993855861 -0.0077583339049045888 0.0034654619523725072 0.0052986064452121588
leaf_weight=70.460685044527054 39.537141695618629 1449.1195820868015 201.83381994813681 2435.3663758784533 7.848961502313613 3.96070223301649
leaf_count=196 300 4489 1179 7501 54 24
internal_value=-0.00419836 -0.00458191 0.00802585 -0.00547322 0.0255783 0.028911
internal_weight=4208.13 4156.78 272.295 3884.49 51.3468 43.4978
internal_count=13743 13365 1375 11990 378 324
is_linear=0
shrinkage=0.03


Tree=55
num_leaves=8
num_cat=0
split_feature=26 49 49 21 49 10 7
split_gain=59.8178 72.0275 57.2641 15.1727 23.6982 14.5297 9.30531
threshold=4.1934998035430917 0.26101503025689349 0.53960742417536001 -0.023635541446451434 0.44681154749477059 0.32427010175160054 1.7548932786295977
decision_type=2 2 2 2 2 2 2
left_child=1 6 -3 4 -2 -5 -1
right_child=3 2 -4 5 -6 -7 -8
leaf_value=0.0049047445677551458 0.0010361742973971342 -0.0054406496850425423 0.0048494345753392004 -0.011024427459884249 -0.0094046007861706537 0.012557203005425737 0.025425341232840362
leaf_weight=28.685549572110176 338.47361857444048 1525.0903194993734 711.31379421800375 1030.0067389160395 452.98952852189541 21.885592296719551 96.93325999379158
leaf_count=179 1098 4748 2869 2848 1254 70 677
internal_value=-0.00407423 -0.000904508 -0.00215966 -0.00812231 -0.00492928 -0.0104967 0.0210072
internal_weight=4205.38 2362.02 2236.4 1843.36 791.463 1051.89 125.619
internal_count=13743 8473 7617 5270 2352 2918 856
is_linear=0
shrinkage=0.03


Tree=56
num_leaves=8
num_cat=0
split_feature=48 46 48 35 38 36 45
split_gain=82.3824 68.6839 66.2967 61.2351 16.2514 18.8827 11.5208
threshold=0.19372951985485234 -0.025555489376950454 0.58245927002037345 0.0078241445915282499 -0.023672327963637326 0.086906718746321179 0.029875054279419725
decision_type=2 2 2 2 2 2 2
left_child=4 2 -2 -3 6 -6 -1
right_child=1 3 -4 -5 5 -7 -8
leaf_value=-0.0090305597272635832 -0.0066020103929609903 -0.0011541636646872065 0.015682656395941245 0.015938589020508064 -0.008004640862823667 -0.00028423619805087902 -0.019915882897653697
leaf_weight=239.55921983718872 1006.6759312525392 360.34591553360224 134.17014467716217 389.79974654316902 1564.8510056138039 353.6950675547123 151.53221108019352
leaf_count=670 3416 1287 856 1623 4415 1083 393
internal_value=-0.00395576 0.000680272 -0.00394522 0.0077266 -0.00775525 -0.00659093 -0.0133662
internal_weight=4200.63 1890.99 1140.85 750.146 2309.64 1918.55 391.091
internal_count=13743 7182 4272 2910 6561 5498 1063
is_linear=0
shrinkage=0.03


Tree=57
num_leaves=8
num_cat=0
split_feature=48 26 38 26 36 24 11
split_gain=78.5688 91.0158 56.153 30.1826 26.3905 17.1105 13.2102
threshold=0.28924964913755119 4.2344999313354501 -0.018261770291484011 4.0019999742507943 0.052933573520314921 0.87177021750437733 0.84289689150839786
decision_type=2 2 2 2 2 2 2
left_child=3 2 -2 6 -5 -3 -1
right_child=1 5 -4 4 -6 -7 -8
leaf_value=-0.042137492271467208 0.0019986699413441431 -0.01421601112919893 0.017964916872000247 -0.007863055542059752 -0.0016485974866938529 0.00089532758899955791 -0.013138457261128906
leaf_weight=27.222280353307724 544.09084720164537 256.89720077812672 312.72301360964775 2038.2652834951878 891.75681960582733 88.417818039655685 36.891736954450607
leaf_count=60 2629 707 1468 5748 2758 272 101
internal_value=-0.00384149 0.00262505 0.00787182 -0.0064428 -0.00597921 -0.0103207 -0.0265803
internal_weight=4196.27 1202.13 856.814 2994.14 2930.02 345.315 64.114
internal_count=13743 5076 4097 8667 8506 979 161
is_linear=0
shrinkage=0.03


Tree=58
num_leaves=8
num_cat=0
split_feature=48 26 38 23 29 48 49
split_gain=74.6333 100.476 56.5288 23.4128 15.5822 21.2138 14.802
threshold=0.19372951985485234 4.2114999294281015 -0.018261770291484011 0.060286220815659736 0.77659582291513474 0.043222009397955126 0.51216660194389652
decision_type=2 2 2 2 2 2 2
left_child=4 2 -2 -3 6 -6 -1
right_child=1 3 -4 -5 5 -7 -8
leaf_value=-0.010031604068160701 -0.00040573599599743248 0.012211043087912642 0.012200221048152446 -0.010951515361195851 -0.012496352456965024 0.0043527083702823198 -0.0043521715863215566
leaf_weight=1390.6073318272829 684.87241669744253 39.972524538636208 595.36514932662249 564.83505460619926 96.563338920474052 208.73555392026901 609.68303190171719
leaf_count=3881 3036 130 2434 1582 265 657 1758
internal_value=-0.00373215 0.000688443 0.00545476 -0.00936075 -0.00735038 -0.000974334 -0.0083141
internal_weight=4190.63 1885.05 1280.24 604.808 2305.59 305.299 2000.29
internal_count=13743 7182 5470 1712 6561 922 5639
is_linear=0
shrinkage=0.03


Tree=59
num_leaves=7
num_cat=0
split_feature=49 49 26 38 26 25
split_gain=47.856 44.2948 57.2924 46.0702 3.25654 2.03713
threshold=0.82310679616673188 0.26101503025689349 4.240999937057496 -0.018261770291484011 4.0945000648498544 0.90778089472907142
decision_type=2 2 2 2 2 2
left_child=1 2 -1 -3 5 -2
right_child=4 3 -4 -5 -6 -7
leaf_value=0.020951606641978846 0.030137740427290022 -0.0094727712787633245 -0.0093909773955708105 -0.0024862959931619402 0 0.0071740608001379953
leaf_weight=137.16796354204416 38.374064169824123 1255.7352994084358 91.391694232821465 2651.6116866618395 3.8906313031911841 7.4271987229585639
leaf_count=945 302 3963 265 8192 21 55
internal_value=-0.00362479 -0.00398466 0.00877757 -0.00473913 0.0250327 0.0271837
internal_weight=4185.6 4135.91 228.56 3907.35 49.6919 45.8013
internal_count=13743 13365 1210 12155 378 357
is_linear=0
shrinkage=0.03


Tree=60
num_leaves=8
num_cat=0
split_feature=36 38 30 21 35 8 10
split_gain=36.1608 28.3859 21.2547 23.8089 21.3849 18.0029 15.3076
threshold=0.052933573520314921 -0.01647966887235541 0.10832468845961166 -0.13646697366343324 0.012205132493598671 10.559666494842913 0.016299892710336637
decision_type=2 2 2 2 2 2 2
left_child=2 5 4 -4 -1 -2 -3
right_child=1 6 3 -5 -6 -7 -8
leaf_value=-0.0061775442439266897 -0.0067785338697646681 0.00069577109666842552 -0.02502998918910811 -0.0017601026718345998 -0.01555699723185334 0.014797024620225054 0.0089735636297882358
leaf_weight=1285.7824078500271 469.79725278168917 557.03300339728594 39.08193776011467 1211.2046250998974 267.44560195505619 35.323977522552013 316.96102188527584
leaf_count=3654 1919 1852 99 4163 742 169 1145
internal_value=-0.00351772 0.000449178 -0.00547341 -0.00253827 -0.00782014 -0.00518773 0.00372854
internal_weight=4182.63 1379.12 2803.51 1250.29 1553.23 505.121 873.994
internal_count=13743 5085 8658 4262 4396 2088 2997
is_linear=0
shrinkage=0.03


Tree=61
num_leaves=8
num_cat=0
split_feature=26 4 10 13 31 15 0
split_gain=43.7637 27.4736 20.7234 19.4039 14.0311 14.5466 11.7415
threshold=4.1934998035430917 0.2666720473975917 0.016299892710336637 10.812450974464053 0.0037927435488661625 -0.18534252484461969 0.0024845392476543623
decision_type=2 2 2 2 2 2 2
left_child=1 2 -1 -3 6 -6 -2
right_child=4 3 -4 -5 5 -7 -8
leaf_value=-0.0036116241803269954 -0.01254623584110935 0.015969928031795599 0.0025138321495609128 -0.017618177672498497 0.0047171820147338273 -0.0058618636485476064 -0.0051263625473180092
leaf_weight=1461.7374322637916 521.61095623672009 126.29224386811256 748.16980667412281 15.520445853471754 132.4409814029932 851.41457125544548 323.37588047981262
leaf_count=5173 1432 523 2731 46 416 2491 931
internal_value=-0.00341448 -0.000699118 -0.00153066 0.0119957 -0.00689342 -0.00441588 -0.00974318
internal_weight=4180.56 2351.72 2209.91 141.813 1828.84 983.856 844.987
internal_count=13743 8473 7904 569 5270 2907 2363
is_linear=0
shrinkage=0.03


Tree=62
num_leaves=8
num_cat=0
split_feature=48 48 46 28 6 49 26
split_gain=71.9328 45.6087 81.0719 21.5163 18.3646 14.5941 8.85641
threshold=0.58245927002037345 0.17544954695832807 -0.025555489376950454 0.10612451449426953 0.40904663629036153 0.51216660194389652 4.2849998474121103
decision_type=2 2 2 2 2 2 2
left_child=1 5 -3 6 -5 -1 -2
right_child=3 2 -4 4 -6 -7 -8
leaf_value=-0.0087803777021047934 0.024887967352593056 -0.0060797966067155287 0.0064617083453766102 -0.021410619595726633 0.021271847631189996 -0.0033810577697614645 -0.0024832317017569171
leaf_weight=1463.8190336674452 110.87256264686584 1077.7474918961525 810.921052955091 20.46970035135746 13.076969668269156 671.11971765756607 10.280562728643416
leaf_count=4121 888 3629 3013 58 48 1954 32
internal_value=-0.0033143 -0.00409208 -0.000685888 0.0166133 -0.0040897 -0.00709487 0.022441
internal_weight=4178.31 4023.61 1888.67 154.7 33.5467 2134.94 121.153
internal_count=13743 12717 6642 1026 106 6075 920
is_linear=0
shrinkage=0.03


Tree=63
num_leaves=7
num_cat=0
split_feature=49 49 26 46 9 37
split_gain=43.4708 41.701 45.884 44.0772 3.64677 0.823846
threshold=0.82310679616673188 0.26879847891677128 4.240999937057496 -0.025555489376950454 1.552163104289882 -0.0082468420161069238
decision_type=2 2 2 2 2 2
left_child=1 2 -1 -3 5 -2
right_child=4 3 -4 -5 -6 -7
leaf_value=0.017820281766899745 0.029661101136416821 -0.0076206084638672277 -0.0076036221739585047 -0.0011989106163534941 0.0023375211702200767 0.0055163603764833719
leaf_weight=161.55830980092287 36.565519899129868 1890.658564478159 102.37337885797024 1971.1659385338426 7.5646449998021117 4.0197167769074431
leaf_count=1074 298 5741 301 6249 54 26
internal_value=-0.00321807 -0.00355709 0.00791948 -0.00434902 0.0245157 0.0279933
internal_weight=4173.91 4125.76 263.932 3861.82 48.1499 40.5852
internal_count=13743 13365 1375 11990 378 324
is_linear=0
shrinkage=0.03


Tree=64
num_leaves=8
num_cat=0
split_feature=48 26 38 26 48 22 49
split_gain=67.0251 64.957 36.7093 35.6247 26.0209 17.9031 12.9405
threshold=0.32759619614258095 4.2344999313354501 -0.018261770291484011 4.0019999742507943 0.10581347705241391 0.044019179065661565 0.50363998276494459
decision_type=2 2 2 2 2 2 2
left_child=3 2 -2 6 -5 -3 -1
right_child=1 5 -4 4 -6 -7 -8
leaf_value=-0.03009064066794595 0.0037178705311950166 0.022660935151049159 0.018364940986288891 -0.0077544093315482536 -0.0022229512819769604 -0.01032037020366156 0.002481722734735679
leaf_weight=66.222211509943008 469.99755976349115 13.574773088097571 230.75494981557131 1397.0483788251877 1717.7790388315916 263.30322389304638 11.742218524217604
leaf_count=165 2404 48 1170 3926 5242 752 36
internal_value=-0.00312319 0.00373536 0.00860097 -0.00522899 -0.00471209 -0.00849866 -0.025058
internal_weight=4170.42 977.631 700.753 3192.79 3114.83 276.878 77.9644
internal_count=13743 4374 3574 9369 9168 800 201
is_linear=0
shrinkage=0.03


Tree=65
num_leaves=8
num_cat=0
split_feature=48 46 48 24 28 6 48
split_gain=65.332 40.9968 84.651 20.9406 19.6899 17.3836 4.79754
threshold=0.58245927002037345 -0.025555489376950454 0.13491762548191613 0.30047874405690722 0.10612451449426953 0.40904663629036153 0.68111457790463825
decision_type=2 2 2 2 2 2 2
left_child=1 3 -3 -1 6 -6 -2
right_child=4 2 -4 -5 5 -7 -8
leaf_value=-0.0021655887326686549 0.015745172488019162 -0.007032309028940799 0.0052547005150709565 -0.0088592759141144749 -0.020661750796726157 0.020963383943808731 0.029979162482539193
leaf_weight=615.71572501957417 71.077523477375507 983.82607412338257 1031.2919499799609 1383.6490570157766 20.210202544927597 13.078373603522776 46.499490067362785
leaf_count=1929 529 2796 3697 4295 58 48 391
internal_value=-0.00303305 -0.00376737 -0.000737683 -0.00680964 0.0162024 -0.00362179 0.0219072
internal_weight=4165.35 4014.48 2015.12 1999.36 150.866 33.2886 117.577
internal_count=13743 12717 6493 6224 1026 106 920
is_linear=0
shrinkage=0.03


Tree=66
num_leaves=7
num_cat=0
split_feature=49 49 26 38 38 4
split_gain=39.1524 38.0735 48.0631 41.7672 3.29089 2.83096
threshold=0.82310679616673188 0.26101503025689349 4.240999937057496 -0.018261770291484011 -0.005744696527764547 -0.085882804281880679
decision_type=2 2 2 2 2 2
left_child=1 2 -1 -3 5 -2
right_child=4 3 -4 -5 -6 -7
leaf_value=0.020144938715038332 0.0078638121044358814 -0.0084713867150453398 -0.00796377976000456 -0.0018073338517490959 0 0.030550151799190829
leaf_weight=132.45048117637634 10.051668018102644 1250.235505387187 89.962388306856155 2642.4844701290131 3.6825270652770987 32.611721687018871
leaf_count=945 81 3963 265 8192 20 277
internal_value=-0.00294409 -0.00326113 0.00873893 -0.00395475 0.0238669 0.0261325
internal_weight=4161.48 4115.13 222.413 3892.72 46.3459 42.6634
internal_count=13743 13365 1210 12155 378 358
is_linear=0
shrinkage=0.03


Tree=67
num_leaves=8
num_cat=0
split_feature=48 31 48 38 48 11 35
split_gain=60.5127 41.3231 39.8866 36.2623 43.2051 16.864 13.8732
threshold=0.38293794996026054 -0.004493844500459975 0.6935208622756911 -0.018261770291484011 0.10581347705241391 0.66054703389636804 -0.01328068201494109
decision_type=2 2 2 2 2 2 2
left_child=3 2 -2 5 -5 -1 -3
right_child=1 6 -4 4 -6 -7 -8
leaf_value=-0.01365989078190314 -0.0055093859344456852 0.0016844090084734292 0.024847921296573861 -0.0069763315038402175 0.00097645256246200996 -0.0056192031070184494 0.015940808903715024
leaf_weight=454.19074442982674 325.48884084820747 84.091345593333244 42.142752036452293 1106.8164749890566 1372.8669323772192 512.81068941950798 260.09974368661642
leaf_count=1287 1421 397 322 3122 4368 1510 1316
internal_value=-0.00285701 0.00508626 -0.00187323 -0.00450384 -0.00257002 -0.00943171 0.0125309
internal_weight=4158.51 711.823 367.632 3446.68 2479.68 967.001 344.191
internal_count=13743 3456 1743 10287 7490 2797 1713
is_linear=0
shrinkage=0.03


Tree=68
num_leaves=8
num_cat=0
split_feature=48 46 48 9 28 6 26
split_gain=58.4192 37.8203 77.0333 20.2793 18.2965 16.4962 8.17076
threshold=0.58245927002037345 -0.025555489376950454 0.13491762548191613 0.84863249992491518 0.10612451449426953 0.40904663629036153 4.2849998474121103
decision_type=2 2 2 2 2 2 2
left_child=1 3 -3 -1 6 -6 -2
right_child=4 2 -4 -5 5 -7 -8
leaf_value=-0.010591430245133078 0.023794872193818376 -0.0065604678940213513 0.0051714196022820342 -0.0041765536811790701 -0.020148651366670382 0.020447040874061014 -0.0025215612746523099
leaf_weight=682.39175666123629 103.70409193634987 981.93112367391586 1029.594643548131 1313.2543409913778 20.047736838459969 13.09270830452442 10.272317633032797
leaf_count=2109 888 2796 3697 4115 58 48 32
internal_value=-0.00277375 -0.00346135 -0.000548908 -0.00638597 0.0156497 -0.00343282 0.0212911
internal_weight=4154.29 4007.17 2011.53 1995.65 147.117 33.1404 113.976
internal_count=13743 12717 6493 6224 1026 106 920
is_linear=0
shrinkage=0.03


Tree=69
num_leaves=8
num_cat=0
split_feature=48 26 38 26 46 17 49
split_gain=56.1657 65.7624 48.681 27.5701 24.7676 15.6175 9.84204
threshold=0.28924964913755119 4.2344999313354501 -0.018261770291484011 4.0019999742507943 -0.023478099598789878 -0.045978531256086856 0.50363998276494459
decision_type=2 2 2 2 2 2 2
left_child=3 2 -2 6 -5 -3 -1
right_child=1 5 -4 4 -6 -7 -8
leaf_value=-0.02942712451049 0.0018481519273402794 0.010238727204331942 0.016880709076006053 -0.0072800190326603462 -0.0017225516593538141 -0.010470893761914934 0.00030348683458953377
leaf_weight=52.566104248166084 536.90266282856464 34.374030604958534 304.36981246620417 1422.1700000166893 1484.4626256972551 304.29250551760197 11.011228293180464
leaf_count=128 2629 111 1468 4047 4459 868 33
internal_value=-0.00269313 0.00283262 0.00733181 -0.00489376 -0.00445003 -0.0082771 -0.024197
internal_weight=4150.15 1179.94 841.272 2970.21 2906.63 338.667 63.5773
internal_count=13743 5076 4097 8667 8506 979 161
is_linear=0
shrinkage=0.03


Tree=70
num_leaves=7
num_cat=0
split_feature=49 49 26 38 9 27
split_gain=34.4157 33.7535 43.8764 37.009 3.90869 1.59421
threshold=0.82310679616673188 0.26101503025689349 4.240999937057496 -0.018261770291484011 1.552163104289882 0.0094589320855416065
decision_type=2 2 2 2 2 2
left_child=1 2 -1 -3 5 -2
right_child=4 3 -4 -5 -6 -7
leaf_value=0.01957728110999582 0.0014458038076474004 -0.0078168087324900857 -0.0074611932260938403 -0.0015343130741127748 0.00027758408848408935 0.02881546341768022
leaf_weight=129.26970462501049 3.4920869246125212 1246.0011955723166 89.343482032418251 2636.2795245349407 7.0875031426548949 33.646600425243378
leaf_count=945 25 3963 265 8192 54 299
internal_value=-0.00261563 -0.00290769 0.00849166 -0.0035575 0.0230959 0.0268306
internal_weight=4145.12 4100.89 218.613 3882.28 44.2262 37.1387
internal_count=13743 13365 1210 12155 378 324
is_linear=0
shrinkage=0.03


Tree=71
num_leaves=8
num_cat=0
split_feature=48 48 46 28 49 2 13
split_gain=53.313 34.6519 62.6083 16.7274 13.4681 9.28465 4.79283
threshold=0.58245927002037345 0.17544954695832807 -0.025555489376950454 0.10612451449426953 0.51216660194389652 -0.063375177146758263 5.3123297933874989
decision_type=2 2 2 2 2 2 2
left_child=1 4 -3 6 -1 -5 -2
right_child=3 2 -4 5 -6 -7 -8
leaf_value=-0.0074392023690331675 -0.0067054596591006998 -0.0049596496650485813 0.0060968930383848534 0.019098589275792395 -0.0022470024884582531 -0.013288335934129163 0.022009996697814622
leaf_weight=1453.1502902060747 3.8096774443984023 1073.0677042007446 804.71452682465315 9.4512376040220243 667.61710628867149 23.432313658297062 106.96142198890448
leaf_count=4121 17 3629 3013 34 1954 72 903
internal_value=-0.00253807 -0.00318914 -0.000211996 0.0152761 -0.00581542 -0.00298853 0.020788
internal_weight=4142.2 3998.55 1877.78 143.655 2120.77 32.8836 110.771
internal_count=13743 12717 6642 1026 6075 106 920
is_linear=0
shrinkage=0.03


Tree=72
num_leaves=8
num_cat=0
split_feature=48 48 46 30 28 8 9
split_gain=50.6772 34.8574 57.6589 13.5524 10.5213 11.3399 2.01022
threshold=0.62458712772584291 0.17544954695832807 -0.025555489376950454 0.11707470373631262 0.10612451449426953 7.5116013959748571 1.4968538351641583
decision_type=2 2 2 2 2 2 2
left_child=1 3 -3 -1 6 -6 -2
right_child=4 2 -4 -5 5 -7 -8
leaf_value=-0.004008786213630486 0.025753279135335625 -0.0045217655910195029 0.0059922194689917855 -0.0092368501556038055 -0.020359958563930983 0.01836446279784509 0.0080917558051653571
leaf_weight=1461.245825484395 65.660758256912231 1105.3865486755967 812.81251715123653 657.83641427755356 10.609721645712854 12.762996613979338 11.795376412570475
leaf_count=4242 586 3830 3082 1833 30 45 95
internal_value=-0.00246418 -0.0029957 -5.71852e-05 -0.00564601 0.0183168 0 0.0235239
internal_weight=4138.11 4037.28 1918.2 2119.08 100.829 23.3727 77.4561
internal_count=13743 12987 6912 6075 756 75 681
is_linear=0
shrinkage=0.03


Tree=73
num_leaves=8
num_cat=0
split_feature=26 49 49 20 26 49 15
split_gain=30.3276 50.0251 34.9025 12.0206 11.3164 9.38233 2.63245
threshold=4.1934998035430917 0.23684706945687781 0.53960742417536001 0.91754483107481766 4.2820000648498544 0.28017312127592359 -0.11856204266279563
decision_type=2 2 2 2 2 2 2
left_child=1 6 -3 5 -5 -2 -1
right_child=3 2 -4 4 -6 -7 -8
leaf_value=0.0067698274803294116 0.016023503485414477 -0.0033782593011146521 0.0046750582420871222 -0.01284620267202327 -0.005398256815303577 -0.0019222480777290978 0.02794828743264724
leaf_weight=9.6593102514743787 26.171348229050636 1565.7102627009153 698.05943681299686 222.16396178305149 1191.8205947130919 365.1755552738905 55.754223823547363
leaf_count=85 141 5018 2869 632 3407 1090 501
internal_value=-0.00239183 -0.000122363 -0.000886371 -0.00530816 -0.00659556 -0.00060862 0.0253371
internal_weight=4134.51 2329.18 2263.77 1805.33 1413.98 391.347 65.4135
internal_count=13743 8473 7887 5270 4039 1231 586
is_linear=0
shrinkage=0.03


Tree=74
num_leaves=8
num_cat=0
split_feature=48 35 35 35 46 1 9
split_gain=47.7931 39.5568 32.4219 30.6952 26.8359 4.2175 2.43335
threshold=0.32759619614258095 0.037448169519456183 0.03142026928909137 -0.027192975355031065 -0.023478099598789878 0.036465461892198493 1.1375403227114516
decision_type=2 2 2 2 2 2 2
left_child=3 2 -2 5 -5 -1 -3
right_child=1 6 -4 4 -6 -7 -8
leaf_value=-0.032917997899320595 0.0054415614110412116 0.025723024363597895 -0.0070454923892135637 -0.0064735168135015122 -0.00090158480463014786 -0.0085484558228853206 0.011526953261819515
leaf_weight=35.326104208827019 598.51448354870081 64.846236236393452 269.29234861582518 1575.4938298165798 1550.3863046765327 12.028186812996863 24.456266947090626
leaf_count=86 2712 344 1194 4538 4711 34 124
internal_value=-0.00232177 0.00354057 0.00154212 -0.00409581 -0.00371707 -0.0276292 0.0223373
internal_weight=4130.34 957.109 867.807 3173.23 3125.88 47.3543 89.3025
internal_count=13743 4374 3906 9369 9249 120 468
is_linear=0
shrinkage=0.03


Tree=75
num_leaves=8
num_cat=0
split_feature=48 48 26 29 37 8 9
split_gain=47.3973 31.35 59.8842 13.3601 11.6344 8.1189 3.16613
threshold=0.62458712772584291 0.19372951985485234 4.2114999294281015 0.64423076923076927 -0.073232692659131113 7.5116013959748571 1.4968538351641583
decision_type=2 2 2 2 2 2 2
left_child=1 3 -3 -1 5 -2 -6
right_child=4 2 -4 -5 6 -7 -8
leaf_value=-0.0066758271046324247 -0.020154560171915512 0.0040744698085536709 -0.0077876792229976859 -0.0017304463965763836 0.025952662600009255 0.014386346075196817 0.0065856895640803289
leaf_weight=1539.988230869174 9.4943993538618106 1187.400901414454 562.84767311811447 737.89285904169083 65.505217008292675 10.945005774497984 12.891216747462748
leaf_count=4382 26 4809 1617 2179 593 36 101
internal_value=-0.00225419 -0.00276469 0.000246726 -0.00508333 0.0180449 -0.00135624 0.0231977
internal_weight=4126.97 4028.13 1750.25 2277.88 98.8358 20.4394 78.3964
internal_count=13743 12987 6426 6561 756 62 694
is_linear=0
shrinkage=0.03


Tree=76
num_leaves=8
num_cat=0
split_feature=48 48 46 30 37 8 7
split_gain=45.1524 29.6081 52.2763 12.8608 11.2592 7.74656 3.1377
threshold=0.62458712772584291 0.17544954695832807 -0.025555489376950454 0.11707470373631262 -0.073232692659131113 7.5116013959748571 1.5015979452517183
decision_type=2 2 2 2 2 2 2
left_child=1 3 -3 -1 5 -2 -6
right_child=4 2 -4 -5 6 -7 -8
leaf_value=-0.003534078596327581 -0.019801900112366846 -0.0042282583256315473 0.0058021547705712278 -0.0086309782290380152 0.00044385852691010522 0.013974806535738448 0.024702028617328779
leaf_weight=1457.1945774555206 9.410482272505762 1101.6384497433901 809.46586729586124 655.97994369268417 6.5747087299823752 10.987540125846861 70.589953288435936
leaf_count=4242 26 3830 3082 1833 49 36 645
internal_value=-0.0021889 -0.00268465 1.39993e-05 -0.00513003 0.0177524 -0.00131489 0.0228881
internal_weight=4121.84 4024.28 1911.1 2113.17 97.5627 20.398 77.1647
internal_count=13743 12987 6912 6075 756 62 694
is_linear=0
shrinkage=0.03


Tree=77
num_leaves=8
num_cat=0
split_feature=48 3 48 37 28 8 5
split_gain=43.197 34.2217 48.9006 27.2 14.0063 13.6172 5.04067
threshold=0.58245927002037345 0.011333159733268391 0.10581347705241391 -0.052913873461577214 0.10612451449426953 7.1848234297948421 1.037056951241822
decision_type=2 2 2 2 2 2 2
left_child=1 3 -3 -1 6 -6 -2
right_child=4 2 -4 -5 5 -7 -8
leaf_value=-0.018126007996119999 0.020961731514148561 -0.0059544695210955395 0.0037201928106956905 -0.0044941088616182005 -0.022251734712627404 0.014419012345592159 -0.0075587565242554323
leaf_weight=141.26966352760792 100.45145316421986 752.85147659480572 1244.7649237811565 1842.4027679860592 15.002782344818113 17.423109747469425 4.1375337764620772
leaf_count=452 894 2138 4248 5879 44 62 26
internal_value=-0.00212472 -0.00270063 6.42452e-05 -0.00548975 0.0142998 -0.00241909 0.0195721
internal_weight=4118.3 3981.29 1997.62 1983.67 137.015 32.4259 104.589
internal_count=13743 12717 6386 6331 1026 106 920
is_linear=0
shrinkage=0.03


Tree=78
num_leaves=8
num_cat=0
split_feature=48 26 26 46 21 22 48
split_gain=41.2633 40.5497 32.0699 25.7807 24.4248 15.0712 10.5442
threshold=0.38293794996026054 4.240999937057496 4.0019999742507943 -0.023478099598789878 0.087683343100353028 0.058372343464978799 0.34720879217891409
decision_type=2 2 2 2 2 2 2
left_child=2 4 6 -4 -2 -3 -1
right_child=1 5 3 -5 -6 -7 -8
leaf_value=-0.024034242878597886 0.014757622931634093 0.020240917742386386 -0.0054767209195452369 -0.00018242855141700933 0.0012421608670058362 -0.0094875071163726676 0.0027638086790105032
leaf_weight=84.838898479938507 288.77596665918827 14.621916159987448 1704.7399367541075 1619.4402910619974 210.38385765254498 178.61066035926342 13.97451891005039
leaf_count=222 1615 51 5019 4995 1267 523 51
internal_value=-0.00206277 0.00459808 -0.00341638 -0.00290367 0.0091188 -0.00697682 -0.0201159
internal_weight=4115.39 692.392 3422.99 3324.18 499.16 193.233 98.8134
internal_count=13743 3456 10287 10014 2882 574 273
is_linear=0
shrinkage=0.03


Tree=79
num_leaves=8
num_cat=0
split_feature=48 3 48 49 27 24 4
split_gain=40.8444 32.5852 47.1464 18.1395 9.49761 15.6425 4.98557
threshold=0.62458712772584291 0.011333159733268391 0.10581347705241391 0.50195713985053636 -0.014691867051098482 0.76555094027237514 -0.071935801843343194
decision_type=2 2 2 2 2 2 2
left_child=1 3 -3 -1 5 -2 -6
right_child=4 2 -4 -5 6 -7 -8
leaf_value=-0.0072250783377929536 -0.016545092476624022 -0.0057050076204996488 0.0037793880074249928 -0.0011776142017392768 0.008241940903655879 0.021792055164600681 0.029771828081422726
leaf_weight=1321.6850526928902 15.807573139667509 751.56877806782722 1258.5882112085819 684.59535845369101 17.575290530920029 18.4571752846241 43.073979698121548
leaf_count=4220 71 2138 4357 2272 171 109 405
internal_value=-0.00200267 -0.00246915 0.000223708 -0.00517222 0.0172261 0.00375505 0.0242345
internal_weight=4111.35 4016.44 2010.16 2006.28 94.914 34.2647 60.6493
internal_count=13743 12987 6495 6492 756 180 576
is_linear=0
shrinkage=0.03


Tree=80
num_leaves=8
num_cat=0
split_feature=48 3 48 37 37 24 48
split_gain=38.9254 30.661 44.3982 26.668 10.1314 6.90067 3.31549
threshold=0.62458712772584291 0.011333159733268391 0.10581347705241391 -0.052913873461577214 -0.073232692659131113 0.82966491578939661 0.68111457790463825
decision_type=2 2 2 2 2 2 2
left_child=1 3 -3 -1 5 -2 -6
right_child=4 2 -4 -5 6 -7 -8
leaf_value=-0.01721613192137874 -0.015983343882244504 -0.0055402406745469202 0.0036669528200834055 -0.0040194881994426637 0.013035125555707659 0.016128312808572302 0.028414482424602993
leaf_weight=148.19174588471651 11.409203931689264 750.77457152307034 1258.3286626562476 1857.9154260978103 34.19746045768261 8.8138398975133878 39.384544268250465
leaf_count=492 33 2138 4357 6000 297 29 397
internal_value=-0.00194302 -0.00239609 0.000216803 -0.00501797 0.016939 -0.00112113 0.0219994
internal_weight=4109.02 4015.21 2009.1 2006.11 93.805 20.223 73.582
internal_count=13743 12987 6495 6492 756 62 694
is_linear=0
shrinkage=0.03


Tree=81
num_leaves=8
num_cat=0
split_feature=48 26 26 38 46 22 12
split_gain=37.3209 40.7538 36.4862 34.4906 22.2879 14.1895 11.0141
threshold=0.35975149169250314 4.2235000133514413 4.0019999742507943 -0.018261770291484011 -0.023478099598789878 0.044019179065661565 2.4986427043982444
decision_type=2 2 2 2 2 2 2
left_child=2 3 6 -2 -4 -3 -1
right_child=1 5 4 -5 -6 -7 -8
leaf_value=-0.032296070548531501 0.0034003402448857362 0.021020887278002037 -0.0052003910139507082 0.019688706865145338 -0.00020354335545164003 -0.0088070249361706897 -0.010136473619551207
leaf_weight=45.38691720366478 401.33076263219118 13.248785167932509 1638.0023876875639 165.67491639405489 1587.8837187588215 210.62443867325783 44.306549340486526
leaf_count=113 2225 47 4801 943 4869 619 126
internal_value=-0.00188546 0.00395485 -0.00328464 0.00823852 -0.00274708 -0.0068049 -0.0219732
internal_weight=4106.46 790.879 3315.58 567.006 3225.89 223.873 89.6935
internal_count=13743 3834 9909 3168 9670 666 239
is_linear=0
shrinkage=0.03


Tree=82
num_leaves=8
num_cat=0
split_feature=48 20 49 48 28 6 5
split_gain=36.8548 26.3813 60.983 34.1656 12.3674 12.8066 4.8644
threshold=0.58245927002037345 1.2054716477229264 0.50545856414246138 0.2081197117780054 0.10612451449426953 0.40904663629036153 1.037056951241822
decision_type=2 2 2 2 2 2 2
left_child=1 3 -3 -1 6 -6 -2
right_child=4 2 -4 -5 5 -7 -8
leaf_value=-0.0042283923721084396 0.020140870068703489 0.041730341112667234 -0.0283046509594592 0.0015342173338488434 -0.017605006661478417 0.018559390037729342 -0.0079505213780258176
leaf_weight=2370.0201849341393 96.242933377623558 11.092888243496416 76.197375133633614 1512.7159541547298 18.889967858791351 13.111394144594668 4.0716902911663047
leaf_count=6875 894 44 247 5551 58 48 26
internal_value=-0.00183094 -0.00235595 -0.0185012 -0.00197978 0.0136106 -0.00212667 0.0187209
internal_weight=4102.34 3970.03 87.2903 3882.74 132.316 32.0014 100.315
internal_count=13743 12717 291 12426 1026 106 920
is_linear=0
shrinkage=0.03


Tree=83
num_leaves=8
num_cat=0
split_feature=48 38 48 2 27 7 4
split_gain=35.2247 29.7886 48.9157 18.6994 8.78357 8.07409 5.17108
threshold=0.62458712772584291 -0.018261770291484011 0.2081197117780054 0.0037422989381939013 -0.014691867051098482 2.8240406526590918 -0.071935801843343194
decision_type=2 2 2 2 2 2 2
left_child=1 3 -3 -1 5 -2 -6
right_child=4 2 -4 -5 6 -7 -8
leaf_value=-0.0094252468517820216 -0.0096852652151936218 -0.0030605826417414634 0.0057620190464835117 -0.002329328761384909 0.0070619237184210417 0.017966346629972908 0.029165455274573315
leaf_weight=662.36822118610144 17.506771042943001 1842.0930220931768 813.51046767085791 690.37649407982826 16.840326257050037 16.134664766490459 40.779208861291409
leaf_count=2221 97 5381 3013 2372 171 83 405
internal_value=-0.00177662 -0.00220296 -0.000349944 -0.00582369 0.0164336 0.00341977 0.0234105
internal_weight=4099.61 4008.35 2655.6 1352.74 91.261 33.6414 57.6195
internal_count=13743 12987 8394 4593 756 180 576
is_linear=0
shrinkage=0.03


Tree=84
num_leaves=8
num_cat=0
split_feature=48 38 48 11 28 6 29
split_gain=33.6178 31.4785 46.795 28.0691 11.7187 11.9144 4.99396
threshold=0.58245927002037345 -0.018261770291484011 0.2081197117780054 1.0950472169126055 0.10612451449426953 0.39045314661362324 0.29939949896846457
decision_type=2 2 2 2 2 2 2
left_child=1 3 -3 -1 6 -6 -2
right_child=4 2 -4 -5 5 -7 -8
leaf_value=-0.0099497607336230757 0.0086473806010544368 -0.0029698821130534191 0.0056898114730360308 -0.0011259787264010824 -0.01821903372608728 0.01639892911443672 0.023851203377098413
leaf_weight=726.71243836730719 39.178076647222042 1841.4709354490042 805.40302382409573 593.46305447071791 17.524926930665973 14.352044254541395 58.918390043079853
leaf_count=2404 337 5381 2967 1965 54 52 583
internal_value=-0.00172368 -0.00222142 -0.000326901 -0.00600222 0.0131579 -0.00214214 0.018223
internal_weight=4097.02 3967.05 2646.87 1320.18 129.973 31.877 98.0965
internal_count=13743 12717 8348 4369 1026 106 920
is_linear=0
shrinkage=0.03


Tree=85
num_leaves=8
num_cat=0
split_feature=48 26 26 21 38 11 45
split_gain=32.7529 35.343 29.1622 24.1404 20.8526 17.0544 14.0094
threshold=0.38293794996026054 4.240999937057496 4.0019999742507943 0.087683343100353028 -0.018261770291484011 2.8789767332640275 0.025176105545023145
decision_type=2 2 2 2 2 2 2
left_child=2 3 5 -2 -4 -1 -3
right_child=1 6 4 -5 -6 -7 -8
leaf_value=-0.026332869882895689 0.01422066292939542 0.0082140346460585212 -0.0063141729667386837 0.00068117305506384723 -0.00093555660507962273 0.00095484951679023215 -0.010885462383935967
leaf_weight=71.43394835293293 284.26272869110107 42.323125883936882 888.77082633972168 206.72964409738779 2424.6781912595034 27.019352331757545 148.899124532938
leaf_count=189 1615 136 2621 1267 7393 84 438
internal_value=-0.00167263 0.00431077 -0.00287524 0.00857625 -0.00238573 -0.0188248 -0.00653928
internal_weight=4094.12 682.215 3411.9 490.992 3313.45 98.4533 191.222
internal_count=13743 3456 10287 2882 10014 273 574
is_linear=0
shrinkage=0.03


Tree=86
num_leaves=7
num_cat=0
split_feature=48 12 48 38 15 24
split_gain=32.5323 25.3357 40.6787 20.2838 2.3802 5.34505
threshold=0.6935208622756911 2.9270808518292597 0.15216596202483421 -0.018261770291484011 -0.092022343375040352 0.75023992146692764
decision_type=2 2 2 2 2 2
left_child=1 3 -3 -1 5 -2
right_child=4 2 -4 -5 -6 -7
leaf_value=-0.0068168839306778899 -0.0054244591966663589 -0.0040305600271469599 0.0077135511350675777 -0.001558598201002121 0.029696583154529457 0.028554869983262995
leaf_weight=993.2657435759902 7.4156889617443067 506.7075926810503 551.37848555296659 1998.6085795909166 27.776253264397383 5.1850630789995193
leaf_count=3485 58 1465 2159 6256 285 35
internal_value=-0.00162408 -0.00190022 0.00207826 -0.00331268 0.0245026 0.00952646
internal_weight=4090.34 4049.96 1058.09 2991.87 40.377 12.6008
internal_count=13743 13365 3624 9741 378 93
is_linear=0
shrinkage=0.03


Tree=87
num_leaves=8
num_cat=0
split_feature=48 3 48 29 27 24 4
split_gain=31.2065 27.8772 38.3818 19.3825 8.24385 13.1019 5.22336
threshold=0.62458712772584291 0.011333159733268391 0.10581347705241391 0.16875519374030198 -0.014691867051098482 0.76555094027237514 -0.071935801843343194
decision_type=2 2 2 2 2 2 2
left_child=1 3 -3 -1 5 -2 -6
right_child=4 2 -4 -5 6 -7 -8
leaf_value=-0.021698771891629502 -0.015709593531352952 -0.0048415248173402205 0.0037373512891954981 -0.0039542020880921043 0.0062827508070157261 0.019885780726950138 0.028667352758644783
leaf_weight=55.611175388097763 15.217213526368139 747.02107684314251 1253.6142428070307 1943.5256259441376 16.37291219830513 17.969536282122135 39.024419642984867
leaf_count=194 71 2138 4357 6298 171 109 405
internal_value=-0.00157534 -0.00197208 0.000524942 -0.0044765 0.015821 0.00317263 0.0227623
internal_weight=4088.36 3999.77 2000.64 1999.14 88.5841 33.1867 55.3973
internal_count=13743 12987 6495 6492 756 180 576
is_linear=0
shrinkage=0.03


Tree=88
num_leaves=7
num_cat=0
split_feature=48 3 48 37 15 8
split_gain=30.2153 25.222 34.8826 19.4574 2.40184 4.72602
threshold=0.6935208622756911 0.010154766848131293 0.10581347705241391 -0.052913873461577214 -0.092022343375040352 7.3081783248177867
decision_type=2 2 2 2 2 2
left_child=1 3 -3 -1 5 -2
right_child=4 2 -4 -5 -6 -7
leaf_value=-0.014393679836436749 -0.004596074758998191 -0.0045430478174532498 0.0035541699382509867 -0.0033117837861895436 0.029285496464222467 0.02758747865850331
leaf_weight=154.04816360771656 7.5692282021045667 758.86224047839642 1288.0106123164296 1846.279921926558 26.831588510423899 4.8787116818130016
leaf_count=535 62 2176 4549 6105 285 31
internal_value=-0.00152839 -0.00179145 0.000543364 -0.00418623 0.023986 0.00905218
internal_weight=4086.48 4047.2 2046.87 2000.33 39.2795 12.4479
internal_count=13743 13365 6725 6640 378 93
is_linear=0
shrinkage=0.03


Tree=89
num_leaves=8
num_cat=0
split_feature=48 26 26 21 4 0 21
split_gain=29.7646 37.0992 29.2875 27.6018 22.6969 13.6277 10.9973
threshold=0.32420938849094172 4.2344999313354501 4.0019999742507943 0.07779554005809515 0.098252484084710504 -0.0009373723033632204 -0.059413640854018054
decision_type=2 2 2 2 2 2 2
left_child=2 3 6 -2 -4 -3 -1
right_child=1 5 4 -5 -6 -7 -8
leaf_value=-0.028309685318968113 0.011505588843809063 -0.013052376311460001 -0.003579946970546994 -0.00093964774024501464 0.003351025144485154 0.0002851632951583252 -0.0022319103954452453
leaf_weight=53.396722868084908 428.9352272041142 131.25377957522869 2552.8571172058582 251.64630020409822 506.30396741628647 138.25698557496071 21.993099734187126
leaf_count=133 2197 377 7535 1424 1583 430 64
internal_value=-0.00148268 0.00315678 -0.00289481 0.00689269 -0.0024265 -0.00620337 -0.0211503
internal_weight=4084.64 950.092 3134.55 680.582 3059.16 269.511 75.3898
internal_count=13743 4428 9315 3621 9118 807 197
is_linear=0
shrinkage=0.03


Tree=90
num_leaves=8
num_cat=0
split_feature=4 13 4 21 25 36 36
split_gain=21.4673 19.7429 22.6151 18.1908 12.9829 17.4671 9.89778
threshold=0.098252484084710504 10.91697730368799 0.39145227581215797 0.12186793358292501 0.80499593976081518 0.10573176058088175 0.029323439006933131
decision_type=2 2 2 2 2 2 2
left_child=4 2 -2 -3 5 -1 -6
right_child=1 3 -4 -5 6 -7 -8
leaf_value=-0.0039662188606291327 0.0034430813943896058 -0.0026391427873344408 0.024238084575591679 -0.036893851528230388 -0.0021885393625046827 0.0057459257894175208 0.0051893381622556385
leaf_weight=2561.2093152403831 561.8017559684813 68.032381325960159 49.936414860188961 16.0810302272439 334.30381156504154 175.30651193112135 314.16295082867146
leaf_count=8441 2016 205 249 44 1040 600 1148
internal_value=-0.00144009 0.00334333 0.00523848 -0.010067 -0.00242924 -0.00333482 0.00136773
internal_weight=4080.83 695.852 611.738 84.1134 3384.98 2736.52 648.467
internal_count=13743 2514 2265 249 11229 9041 2188
is_linear=0
shrinkage=0.03


Tree=91
num_leaves=8
num_cat=0
split_feature=48 38 48 11 26 0 8
split_gain=28.9471 28.0735 41.1386 24.1602 10.5773 7.93767 7.47945
threshold=0.58245927002037345 -0.018261770291484011 0.2081197117780054 1.0950472169126055 4.240999937057496 -0.019492180770636209 6.6608750255953675
decision_type=2 2 2 2 2 2 2
left_child=1 3 -3 -1 5 -2 -6
right_child=4 2 -4 -5 6 -7 -8
leaf_value=-0.0091051380840093434 0.0025924411223730614 -0.002545026433776769 0.0055877269158604191 -0.0008977573133329644 -0.014885437465885092 0.023983185016925462 0.010176976014077346
leaf_weight=723.21675012260675 23.504996746778488 1837.2061524242163 802.63416463881731 590.50606421381235 16.137703612446785 62.17334158718586 24.19093157351017
leaf_count=2404 227 5381 2967 1965 48 669 82
internal_value=-0.00139729 -0.00185432 -6.42553e-05 -0.00543437 0.0126302 0.0184789 0
internal_weight=4079.57 3953.56 2639.84 1313.72 126.007 85.6783 40.3286
internal_count=13743 12717 8348 4369 1026 896 130
is_linear=0
shrinkage=0.03


Tree=92
num_leaves=7
num_cat=0
split_feature=48 19 48 7 15 24
split_gain=28.2358 23.1925 46.5092 22.7966 2.34832 4.88468
threshold=0.6935208622756911 25.905210825008211 0.13491762548191613 1.2155517597312642 -0.092022343375040352 0.75023992146692764
decision_type=2 2 2 2 2 2
left_child=1 2 -1 -3 5 -2
right_child=4 3 -4 -5 -6 -7
leaf_value=-0.003431284840383967 -0.0054845344665670516 0.011946233790680542 0.0073049155961340878 -0.0038425415388292686 0.028958530556555437 0.027213456676933624
leaf_weight=802.40602293610573 7.2704099714755994 82.775998592376709 658.90040006488562 2494.3503680825233 25.978103954344988 5.0651816427707672
leaf_count=2328 58 283 2376 8378 285 35
internal_value=-0.00135588 -0.00160797 0.00140277 -0.00332073 0.0236056 0.0088189
internal_weight=4076.75 4038.43 1461.31 2577.13 38.3137 12.3356
internal_count=13743 13365 4704 8661 378 93
is_linear=0
shrinkage=0.03


Tree=93
num_leaves=7
num_cat=0
split_feature=48 13 26 26 46 25
split_gain=27.6841 36.7176 33.4552 31.4951 24.007 15.829
threshold=0.44528126155908754 9.7659866455854534 4.0019999742507943 4.240999937057496 -0.023478099598789878 0.5994241842610365
decision_type=2 2 2 2 2 2
left_child=2 3 5 -2 -4 -1
right_child=1 -3 4 -5 -6 -7
leaf_value=-0.026386401496497656 0.01274506373892962 -0.037098832375496923 -0.003983389159658267 -0.0051151569773514429 0.00097682976078940957 -0.004473397055318685
leaf_weight=71.582461386919022 300.50951280817389 15.214895635843275 1841.65123064816 123.11464574933052 1668.5044036060572 54.459555998444557
leaf_count=202 2109 50 5580 379 5252 171
internal_value=-0.00131455 0.00577732 -0.00217727 0.0075196 -0.00162213 -0.0172533
internal_weight=4075.04 438.839 3636.2 423.624 3510.16 126.042
internal_count=13743 2538 11205 2488 10832 373
is_linear=0
shrinkage=0.03


Tree=94
num_leaves=8
num_cat=0
split_feature=48 26 38 26 29 17 11
split_gain=26.7256 41.2325 41.0605 20.8071 16.4278 14.1236 12.6493
threshold=0.28924964913755119 4.2344999313354501 -0.018261770291484011 4.0019999742507943 0.77659582291513474 -0.045978531256086856 0.84289689150839786
decision_type=2 2 2 2 2 2 2
left_child=3 2 -2 6 -5 -3 -1
right_child=1 5 -4 4 -6 -7 -8
leaf_value=-0.035096731438556898 0.0011529858358475596 0.011461096750948217 0.015231938466900821 -0.0032637975129167053 0.0036147434936272798 -0.0084448060096363169 -0.0069881736408130288
leaf_weight=26.004189342260361 520.54268342629075 33.615417793393135 291.08461132273078 2516.6989707946777 353.07215264439583 295.05210739374161 35.831455230712891
leaf_count=60 2629 111 1468 7405 1101 868 101
internal_value=-0.00127713 0.00260999 0.00624577 -0.00279494 -0.00241037 -0.0063065 -0.0197731
internal_weight=4071.9 1140.29 811.627 2931.61 2869.77 328.668 61.8356
internal_count=13743 5076 4097 8667 8506 979 161
is_linear=0
shrinkage=0.03


Tree=95
num_leaves=8
num_cat=0
split_feature=48 3 48 37 6 6 9
split_gain=26.5949 23.4787 31.1313 18.2295 1.23867 3.17172 1.52825
threshold=0.6935208622756911 0.010154766848131293 0.10581347705241391 -0.030746131074303625 0.19078279620761548 0.16290533255279124 0.61110123754166235
decision_type=2 2 2 2 2 2 2
left_child=1 3 -3 -1 5 -2 -6
right_child=4 2 -4 -5 6 -7 -8
leaf_value=-0.010271298103386053 0.020587666017013218 -0.0040398503056401349 0.0036241433977453937 -0.0025087358579742214 0.0045676124094688941 -0.01029323592993983 0.029424083199064241
leaf_weight=326.81154442951083 4.522078111767768 755.76382453739643 1282.7465338408947 1665.0507931113243 4.9576323926448849 3.1448439136147499 24.817753784358501
leaf_count=1188 55 2176 4549 5452 40 29 254
internal_value=-0.00124022 -0.00148291 0.000774244 -0.00379891 0.0232538 0.00686023 0.0263055
internal_weight=4067.82 4030.37 2038.51 1991.86 37.4423 7.66692 29.7754
internal_count=13743 13365 6725 6640 378 84 294
is_linear=0
shrinkage=0.03


Tree=96
num_leaves=7
num_cat=0
split_feature=4 13 4 13 7 10
split_gain=19.6124 18.4027 16.6057 15.8027 13.2453 10.8742
threshold=0.11786685546611873 40.075212275511291 0.37714716063408332 10.894784833685778 1.5214580406923739 0.00086191200994240145
decision_type=2 2 2 2 2 2
left_child=3 2 -2 4 -1 -5
right_child=1 -3 -4 5 -6 -7
leaf_value=0.0035434568601301433 0.0029941621502863926 -0.024141301242095667 0.019143273862708799 1.7405767744835588e-05 -0.0024424888839073328 -0.027524458816211017
