tree
version=v4
num_class=1
num_tree_per_iteration=1
label_index=0
max_feature_idx=50
objective=binary sigmoid:1
feature_names=ret_1d ret_5d ret_10d ret_21d ret_63d vol_5d vol_21d atr_pct_14 bb_width volume_ratio_20d obv_slope_10d dist_ma20_pct dist_ma50_pct dist_ma200_pct autocorr_lag1 autocorr_lag5 trend_strength_10d mean_reversion_5d vix_level vix_percentile vix_ma20_ratio vix_ret_5d rank_ret_5d rank_ret_21d rank_vol_21d rank_volume_ratio macro_tnx_close macro_tnx_ret_21d macro_sp500_ret_63d macro_sp500_breadth_ratio macro_sp500_vol_21d macro_svix_ret_5d fred_yield_curve_10y2y fred_high_yield_oas fred_fed_funds_rate macro_gold_ret_5d macro_gold_ret_21d macro_oil_ret_5d macro_oil_ret_21d macro_em_ret_5d macro_smallcap_ret_5d macro_usd_ret_5d sector_rank sector_momentum_5d sector_momentum_21d leading_sector_momentum lagging_sector_momentum sector_dispersion news_sentiment_score days_to_next_earnings is_earnings_week
feature_infos=[-0.25514587226622704:0.23708027557556827] [-0.48522207271728174:0.57570837922166895] [-0.49581161075183905:0.72398677991604521] [-0.51056793629369357:1.3988427153098211] [-0.55799212737165182:4.964109330690941] [0.0055442573053379757:4.018689200661691] [0.015888105932593939:2.041006819041193] [0.1639416027471092:20.14983280273686] [0.1728671161541781:69.318544352504475] [0.170063501028624:8.505952766694131] [-0.42555823988747232:0.42060700045150679] [-42.204122914448469:52.326356777044282] [-47.794866325880321:103.28365148515914] [-27.583085638577366:40.762612975880955] [-0.54602918686672575:0.35424843075407308] [-0.45115449063157537:0.39032968291183728] [9.7780806644847286e-14:0.98891771924616245] [-0.52022259492497025:0.50326710362359062] [14:22.379999160766602] [0.4784688995215311:84.54106280193237] [0.84034039438939812:1.2399578376513707] [-0.19152047843589978:0.27159083384620419] [0.0019120458891013384:1] [0.0019120458891013384:1] [0.0019120458891013384:1] [0.0019193857965451055:1] [3.9860000610351562:4.2600002288818359] [-0.060330838111516183:0.031444953451553737] [-0.0021529955346438756:0.11096451831136767] [0.036468330134357005:0.8426103646833013] [0.05689566858464188:0.15052318782450846] [-0.10074078595196756:0.091246646076745819] none none none [-0.089644015076281836:0.081898316980708152] [-0.044576973118107488:0.18860192995478786] [-0.052819960051066484:0.077989101765074897] [-0.077393839388162355:0.14023514595456654] none [-0.046182864110299926:0.049195584869202502] none [0:1] [-0.048101674832129793:0.060485662913011939] [-0.054686577779488155:0.17992463416141202] [0.0047190805499472965:0.060485662913011939] [-0.048101674832129793:0.0024686872102530621] [0.020912702947043504:0.079291664261041617] none none none
tree_sizes=3246 3342 3455 3456 3474 3259 3451 3458 3242 2709 3255 3142 3476 3462 3262 3122 3344 3475 3470 3035 3476 3370 3265 3363 3475 2816 3156 3488 3462 3140 3356 3035 3360 2802 3027 3372 3371 3360 3345 3148 3268 3235 3474 3361 2857 2940 2924 2920 2630 2493 2296 2826 3342 1957 3159 2714 2390 3130 2602 2403 2296 1961 3018 2390 3124 2077 2254 3018 2296 1944 2516 3156 3131 2402 2700 1943 2994 2163 3487 3329 1431 1441 2399 2041 2819 3474 2815 3361 2297 3472 2595 2388 3046 3379 1926 2188 2375 3245 3482 3203 2604 3433 3153 2043 1536 2803 3236 2234 3467 3355 1429 3227 1430 2053 3367 1431 2191 2064 2476 2810 1748 2382 3049 2694 2089 3440 2573 3496 2822 2829 2166 3454 2269 3460 1965 1853 2380 2723 2948 3229 2384 3142 2911 1756 3355 2631 2718 3031 2277 2798 2936 1602 3026 2714 3042 1426 2284 2814 2705 2294 1715 1657 3034 2822 1440 2071 2700 2701 2161 2728 2601 2082 2509 2041 3249 2379 2834 2174 2064 2848 2259 1846 2590 3391 2923 1324 2621 2089 2811 2921 3282 2393 2187 2165 3477 2496 3039 2944 3471 2524

Tree=0
num_leaves=29
num_cat=0
split_feature=28 47 45 27 47 26 3 24 0 22 24 47 30 7 3 6 7 22 1 43 26 2 9 4 10 15 22 9
split_gain=321.473 190.13 123.194 121.375 91.6576 70.9803 47.1485 47.0107 30.7581 27.6195 24.7079 25.6605 24.3717 18.6096 14.3227 13.988 16.5164 12.1183 10.2035 14.0619 10.026 8.94359 8.78347 11.4595 5.22653 4.77849 4.31773 1.7765
threshold=0.066628821330653079 0.038760391546292246 0.036106539638641418 0.016611772075093349 0.046155613145329628 4.2165000438690194 -0.070750893685710498 0.48133923796546602 -0.00088837333087116047 0.51674688468385321 0.33971231401507662 0.052055438435938135 0.10535425277045531 2.1339580540825298 0.10140274441393841 0.5832309238684602 5.5705846078118162 0.53971341289202446 -0.0033500613300779651 -0.013034242002311623 4.2330000400543222 0.021306448635734707 1.04102082417925 0.28501737421354306 0.027299907181489242 0.12496763602946985 0.36746445133074007 0.94700793907784453
decision_type=2 2 2 2 2 2 2 2 2 2 2 2 2 2 2 2 2 2 2 2 2 2 2 2 2 2 2 2
left_child=1 15 5 4 9 10 20 -6 17 -3 11 -2 -8 -12 -10 18 -17 -7 19 -1 -5 -20 24 25 26 -24 -4 -26
right_child=2 3 22 6 7 8 12 -9 14 -11 13 -13 -14 -15 -16 16 -18 -19 21 -21 -22 -23 23 -25 27 -27 -28 -29
leaf_value=-0.080305512226725745 -0.070806895307868808 -0.061326025043565088 -0.12359129689555193 -0.062909843218981257 -0.066487098148640483 -0.084759621053346057 -0.049579482629984767 -0.09335290353820587 -0.11376386258209409 -0.028797304507960274 -0.090824651728310155 -0.039822432875194408 -0.028578389533254651 -0.068655171956476274 -0.071578377204431318 -0.11465698144252065 -0.016028002559767919 -0.042729043646204487 -0.019686722148973969 -0.0083831878719404992 -0.098644622782511043 -0.045458276798883507 -0.098231805927903523 -0.037501042002303697 -0.1247806311022539 -0.13717586251038064 -0.10181200949353808 -0.15371532419207062
leaf_weight=6.4934071004390708 132.61535270512104 134.86307054758072 51.697510376572609 44.454863995313644 313.43176580965519 48.450806826353073 240.25606271624565 339.40539421141148 163.33416321873665 126.37169203162193 124.37372061610222 132.61535270512104 334.41046567261219 392.60138314962387 23.725910559296608 7.7421392351388914 7.2426463812589645 25.224389120936394 107.14121715724468 209.78699862957001 33.71576763689518 53.195988938212395 63.935085296630859 6.2436606734991065 53.445735365152359 9.7401106506586057 61.937113881111145 13.736053481698034
leaf_count=26 531 540 207 178 1255 194 962 1359 654 506 498 531 1339 1572 95 31 29 101 429 840 135 213 256 25 214 39 248 55
internal_value=-0.0637178 -0.0509142 -0.0829477 -0.0587172 -0.0704723 -0.0752319 -0.0422655 -0.080486 -0.0977742 -0.0454981 -0.0676775 -0.0553019 -0.03731 -0.0740404 -0.10851 -0.0197969 -0.0666723 -0.0702142 -0.0179157 -0.0106319 -0.0785059 -0.0280399 -0.11363 -0.0988173 -0.11992 -0.104362 -0.1122 -0.132003
internal_weight=3262.19 1958.51 1303.68 1566.91 914.072 1042.94 652.837 652.837 260.735 261.235 782.206 265.231 574.667 516.975 187.06 391.602 14.9848 73.6752 376.618 216.28 78.1706 160.337 260.735 79.9189 180.816 73.6752 113.635 67.1818
internal_count=13062 7842 5220 6274 3660 4176 2614 2614 1044 1046 3132 1062 2301 2070 749 1568 60 295 1508 866 313 642 1044 320 724 295 455 269
is_linear=0
shrinkage=1


Tree=1
num_leaves=30
num_cat=0
split_feature=27 47 37 20 24 18 1 35 18 31 0 22 8 23 4 3 6 17 0 4 23 6 14 4 22 9 9 15 1
split_gain=258.12 179.702 218.892 118.81 50.1166 41.6494 39.2623 26.3296 21.6406 18.4087 21.5522 15.0968 17.7226 13.5887 12.7696 16.8909 12.6098 10.3429 9.53871 9.04835 8.93033 8.43185 7.51248 7.4729 6.62402 6.02152 4.411 3.87512 3.40026
threshold=-0.0044591637541260823 0.038760391546292246 -0.0076512782455780961 0.97943221151407711 0.55406657729134168 16.425000190734867 -0.067590609604708057 0.0026179583670175037 19.700000762939457 -0.0077857270515684909 -0.01039620967102982 0.86220083075097265 6.3185926163841879 0.95693867534046884 0.18390433912842824 0.035285448417993859 0.5832309238684602 -0.012257142247420914 -0.0076748671822652681 0.33184680943873429 0.7693786949737369 0.31760849368024507 -0.059900175432839112 -0.095701727285309526 0.81244001963326828 1.5359372837768921 1.2320141302583478 -0.017012963065820907 0.031652823587859653
decision_type=2 2 2 2 2 2 2 2 2 2 2 2 2 2 2 2 2 2 2 2 2 2 2 2 2 2 2 2 2
left_child=3 16 4 11 5 -3 21 -8 -6 10 23 20 26 -12 15 -11 17 25 -16 -18 28 -4 -19 -5 -22 -2 -13 -14 -1
right_child=1 2 6 9 8 -7 7 -9 -10 14 13 12 27 -15 18 -17 19 22 -20 -21 24 -23 -24 -25 -26 -27 -28 -29 -30
leaf_value=-0.054004003706107577 0.055908150968988629 -0.041212293465429484 0.01027000044076723 -0.0355317110743908 -0.048554846436434214 0.0024301547650608614 0.030165705373424185 0.013172969687484546 -0.013004975341756231 -0.0024819142956301371 -0.025076402638150044 0.042625805373852577 -0.06994970979951419 0.022368153216962942 -0.020142842407032183 -0.022818730568135843 -0.030775366193457568 0.025492857327682805 0.019194237796119784 0.04488948747922502 -0.037549530486124943 -0.032331423667801472 0.044793800180204978 0.01819712319819446 0.019889452354035317 0.012085770101344668 -0.0093158139621488875 -0.023092464416144959 -0.080070607206275499
leaf_weight=160.99234296381474 149.23980924487114 72.011862695217133 14.736971989274023 6.486930400133132 174.55606850981712 216.48011438548565 363.87689632177353 620.81763750314713 58.372732669115067 417.73748663067818 322.88639077544212 9.4714885205030424 8.97391277551651 14.973468244075773 17.977855011820793 134.57468494772911 9.7284753471612913 101.4813584536314 81.396798461675644 5.2456439882516852 38.894975736737251 45.448551863431931 116.97694702446461 46.929040029644966 4.9876607358455649 9.2498373538255674 5.983978107571601 11.470039218664169 19.438406497240067
leaf_count=646 597 289 59 26 700 867 1456 2485 234 1673 1294 38 36 60 72 539 39 406 326 21 156 182 468 188 20 37 24 46 78
internal_value=-4.03107e-06 0.0114673 0.0038768 -0.0172409 -0.0225522 -0.0085511 0.0170792 0.0194816 -0.039761 -0.0096719 -0.0182358 -0.0474059 -0.0165136 -0.0228992 -0.00450237 -0.00747844 0.0417026 0.0434866 0.0118982 -0.0028051 -0.0522326 -0.021821 0.0360077 0.0110473 -0.030612 0.0534737 0.0228674 -0.0461965 -0.0572657
internal_weight=3261.4 1958.22 1566.3 1303.18 521.421 288.492 1044.88 984.695 232.929 1042.96 391.276 260.213 35.8994 337.86 651.687 552.312 391.922 376.948 99.3747 14.9741 224.313 60.1855 218.458 53.416 43.8826 158.49 15.4555 20.444 180.431
internal_count=13062 7840 6272 5222 2090 1156 4182 3941 934 4178 1568 1044 144 1354 2610 2212 1568 1508 398 60 900 241 874 214 176 634 62 82 724
is_linear=0
shrinkage=0.05


Tree=2
num_leaves=31
num_cat=0
split_feature=28 47 45 37 30 26 24 2 0 28 5 22 3 23 3 6 11 24 9 22 7 25 6 8 9 3 7 24 0 11
split_gain=264.833 154.508 101.662 94.7924 83.8134 58.1794 55.5321 34.3296 26.7089 26.3607 23.7335 20.974 16.8782 13.1399 12.2778 11.8492 12.176 11.2853 11.2283 10.65 10.2703 8.12037 7.22874 7.22808 7.20497 6.16358 5.41046 7.34355 6.44337 3.02648
threshold=0.066628821330653079 0.038760391546292246 0.036106539638641418 -0.0076512782455780961 0.090682567460786276 4.2165000438690194 0.48899474736818976 -0.061533316299076248 -0.00088837333087116047 0.059545579774518471 0.30892320152778507 0.55885218639883383 0.035285448417993859 0.94928316593774509 0.20640023586745906 0.3839193339442914 -1.4600703349036415 0.13014365984630377 1.5179264650890396 0.53971341289202446 3.5995553852167803 0.84726302967665734 0.46483208776112556 2.2927960130135809 1.3270673036427341 0.044938490489958703 3.1769470053925439 0.79904287817850161 0.02323846234594237 4.8817886114198261
decision_type=2 2 2 2 2 2 2 2 2 2 2 2 2 2 2 2 2 2 2 2 2 2 2 2 2 2 2 2 2 2
left_child=1 15 5 6 11 10 17 -6 19 -8 12 -5 -2 -10 -12 16 23 -3 -18 -7 22 26 -17 -1 -23 -22 28 -28 -4 -26
right_child=2 3 21 4 7 8 9 -9 13 -11 14 -13 -14 -15 -16 20 18 -19 -20 -21 25 24 -24 -25 29 -27 27 -29 -30 -31
leaf_value=-0.00086380206495218284 0.0061904068978680896 0.021203418614953697 -0.054639781510148366 -0.041747561055173105 -0.012434278285501114 -0.01893252293273559 -0.019461681194695799 0.021613609067112169 -0.044214618334003197 -0.055883156577380133 -0.023275393309194002 -0.001372687781823095 -0.012486345624703113 0.012038643467234421 0.027817069657526141 0.014668530496018248 0.040122817470152117 -0.0024708215152846168 0.0042497972281969219 0.020477923967516926 0.047262963673555751 0.010009034957462656 -0.04367219230905639 0.059460371154206076 -0.043895923401646428 0.0063052412337912785 0.016639028265498238 -0.039973169395017771 0.00064662414334072703 -0.00150393169941802
leaf_weight=4.9977371990680686 439.49225783348083 67.665413364768028 176.05159685015678 72.812906861305237 80.3992690294981 48.351094350218773 200.29199768602848 834.30911639332771 175.75356055796146 66.440183147788048 165.01548567414284 57.600326150655746 165.70990169048309 10.479958251118658 11.739207834005354 11.497014850378038 191.20487479865551 187.0130313038826 25.247658282518387 25.228143826127052 25.733542561531067 10.946301504969595 8.2341167628765088 109.95538645982742 23.365403816103939 14.984621211886404 6.2086218893527976 32.050374627113342 5.2236613929271689 5.4761334657669059
leaf_count=20 1760 271 709 292 322 194 804 3338 707 267 661 231 664 42 47 46 765 749 101 101 103 44 33 440 94 60 25 129 21 22
internal_value=-7.51248e-06 0.0116057 -0.0174869 0.00456775 0.0132537 -0.0104852 -0.0128249 0.0186052 -0.0309384 -0.0287274 -0.00365215 -0.0240992 0.00105613 -0.040975 -0.0197165 0.0396455 0.0433826 0.00385795 0.0360003 -0.00525941 0.0187037 -0.0454473 -0.010369 0.0568097 -0.0235293 0.0328225 -0.0492723 -0.030469 -0.0530244 -0.0363346
internal_weight=3259.48 1958.39 1301.09 1566.53 1045.12 1041.77 521.411 914.708 259.813 266.732 781.957 130.413 605.202 186.234 176.755 391.855 331.406 254.678 216.453 73.5792 60.4493 259.322 19.7311 114.953 39.7878 40.7182 219.534 38.259 181.275 28.8415
internal_count=13062 7842 5220 6274 4183 4176 2091 3660 1044 1071 3132 523 2424 749 708 1568 1326 1020 866 295 242 1044 79 460 160 163 884 154 730 116
is_linear=0
shrinkage=0.05


Tree=3
num_leaves=31
num_cat=0
split_feature=28 40 20 40 20 26 6 3 18 7 18 5 3 0 12 27 12 22 8 1 3 28 1 23 8 23 15 18 11 9
split_gain=239.416 103.69 92.2462 85.4127 78.2286 52.8898 44.358 35.5736 28.8066 25.7113 22.9997 21.7342 19.5214 19.4545 17.7188 15.1005 14.4031 13.5328 16.2601 12.092 11.7835 11.4359 8.66683 8.05738 7.55643 7.5272 6.53054 6.21544 5.01311 4.11234
threshold=0.066628821330653079 -0.0087485219960863874 0.91925958987172529 -0.0041906405787763825 1.0485558221725646 4.1610000133514413 0.27382319660530735 0.031403606759071605 16.760000228881839 3.2323796205403839 20.560000419616703 0.40648767406865743 0.035285448417993859 -0.020312662603897799 3.5389528879146055 0.026482804817430931 21.213030282830115 0.86220083075097265 6.3185926163841879 -0.052072285486248919 -0.036207532413347718 0.013520581650793841 -0.017132537428887689 0.75789543086965139 9.5456566678105919 0.8880390907159551 -0.13023835607068909 16.245000839233402 1.2592131737341192 1.2320141302583478
decision_type=2 2 2 2 2 2 2 2 2 2 2 2 2 2 2 2 2 2 2 2 2 2 2 2 2 2 2 2 2 2
left_child=1 9 17 6 8 11 20 -6 -5 14 -8 12 -4 27 15 -1 -13 23 29 21 -3 -11 -21 28 -16 -15 -25 -7 -2 -19
right_child=2 3 5 4 7 13 10 -9 -10 19 -12 16 -14 25 24 -17 -18 18 -20 22 -22 -23 -24 26 -26 -27 -28 -29 -30 -31
leaf_value=0.039194150641826936 -0.045067835034003662 0.028305364867843907 0.0048381015933934984 0.012590579119618596 -0.030956750616684559 0.039685295259577508 -0.046882453548818766 0.0058602341320896549 0.032968132798529358 -0.049904684640520648 -0.012652967202883773 -0.03276948162355324 -0.013841646455600399 -0.036939246183556616 0.057758385060562037 0.016590770059442452 0.031097141873924546 0.042568495031696914 -0.042682876531545476 0.03932137100001433 -0.0041805478832528326 0.0058448462724498005 0.0039475141305439611 0.0097193959813340561 0.0097930736017090153 -0.0083278945975263693 -0.036969882963748105 -0.010912647499106306 -0.064384242952531409 -0.0077155881283254169
leaf_weight=174.2036474198103 108.78296226263046 32.954196780920029 496.44924259185791 522.89812913537025 127.27819234132767 10.987207472324371 113.57495221495628 133.38101346790791 261.33868461847305 13.214350327849386 88.410744413733482 82.80176717042923 193.54963585734367 209.49379196763039 96.18644092977047 133.72387428581715 8.995699077844618 9.4707248061895353 20.322133153676987 31.972238346934319 155.51509436964989 25.208614468574524 37.733713567256927 8.6827792525291425 9.7449446320533735 27.089290708303452 36.960040763020515 11.389046967029572 68.195844247937202 5.9692120850086203
leaf_count=698 440 132 1988 2092 511 44 458 535 1046 53 355 332 776 845 385 535 36 38 82 128 623 101 151 35 39 109 149 46 276 24
internal_value=-9.61574e-06 0.0110319 -0.0166448 0.00408001 0.0115369 -0.0099787 -0.0158412 -0.0121478 0.0194209 0.0300943 -0.0320607 -0.00347023 -0.000406914 -0.0295196 0.0357608 0.0294798 -0.0261893 -0.0433343 -0.0140944 0.00823098 0.0015927 -0.0139811 0.0205699 -0.047925 0.0535255 -0.0337331 -0.0279629 0.014353 -0.0528591 0.0235373
internal_weight=3256.48 1957.34 1299.14 1435.35 1044.9 1040.76 390.455 260.659 784.237 521.988 201.986 781.796 689.999 258.959 413.859 307.928 91.7975 258.384 35.7621 108.129 188.469 38.423 69.706 222.622 105.931 236.583 45.6428 22.3763 176.979 15.4399
internal_count=13062 7842 5220 5752 4184 4176 1568 1046 3138 2090 813 3132 2764 1044 1657 1233 368 1044 144 433 755 154 279 900 424 954 184 90 716 62
is_linear=0
shrinkage=0.05


Tree=4
num_leaves=31
num_cat=0
split_feature=27 47 30 21 35 40 3 25 31 0 2 10 0 22 8 11 4 6 25 10 3 43 12 9 14 1 2 9 1 10
split_gain=192.142 132.877 98.397 90.3683 55.6643 48.6338 38.4594 13.9179 13.2105 18.6092 14.1779 13.9879 15.0105 12.3663 14.8177 10.8847 8.89451 8.29581 7.12714 7.00706 6.38979 6.31106 6.23261 5.63506 5.25679 4.58717 3.89263 3.74717 3.18661 2.85799
threshold=-0.0044591637541260823 0.038760391546292246 0.090682567460786276 -0.049846505984804571 0.0026179583670175037 -0.0041906405787763825 -0.070750893685710498 0.82036579063930326 -0.0077857270515684909 -0.01039620967102982 -0.061533316299076248 0.092947302243403168 -0.007127610226464666 0.86220083075097265 6.3185926163841879 1.1063866484533518 0.16928719931362149 0.5832309238684602 0.20461021703824009 0.03823205533468247 0.06055643548392451 -0.013034242002311623 -7.0351635454060775 1.8185166361537204 0.086965919838587466 0.035628567192467646 -0.052327572087318058 1.2320141302583478 0.038306603245873073 0.022547084358551208
decision_type=2 2 2 2 2 2 2 2 2 2 2 2 2 2 2 2 2 2 2 2 2 2 2 2 2 2 2 2 2 2
left_child=3 15 7 13 6 -6 -4 22 9 18 -11 12 -10 20 27 17 -13 21 -5 -9 26 -2 -3 25 -22 -17 -1 -15 -25 -16
right_child=1 2 4 8 5 -7 -8 19 11 10 -12 16 -14 14 29 23 -18 -19 -20 -21 24 -23 -24 28 -26 -27 -28 -29 -30 -31
leaf_value=-0.017850505825350978 -0.0017975920964857111 0.0056654408848696557 -0.014466309527222174 -0.038915537693826024 -0.012867779476655867 0.0094218386369549628 0.029645822341164613 -0.021252534507592576 -0.015799117561695882 0.013251212538623856 -0.02308861800577609 -0.030749578497376664 0.0031806212472477655 0.040574574335052231 -0.014542582793578972 0.019763746091553323 0.018672979362066345 -0.0046445757714438591 0.017873044840645402 0.034968219029482731 -0.0337752567264928 0.043857640372701401 -0.048757162772646988 -0.036634283522076115 0.014714828251439747 0.048514289577285291 -0.051707636109200539 -0.0073886977102339607 0.014462127373632082 -0.055705778337757167
leaf_weight=10.835496649146078 7.4923437237739554 5.1693441569805136 57.160579040646553 5.2323054224252692 389.89870174229145 653.28559479117393 334.50321461260319 16.093247473239902 135.24807108938694 28.573822692036629 307.94087062776089 65.336684361100197 440.94635124504566 9.4879819452762586 8.1540243923664111 77.581250458955765 9.7365926355123502 9.224278122186659 48.113995924592018 7.1868080496788016 32.910286396741867 268.81486564874649 100.23741544783115 5.2465863078832609 5.9421825408935538 17.479403644800186 171.70986825227737 5.9659621119499198 4.9982107281684875 12.080981001257895
leaf_count=44 30 21 229 21 1567 2615 1339 65 542 115 1239 262 1767 38 33 311 39 37 193 29 133 1079 407 21 24 70 699 24 20 49
internal_value=-1.08083e-05 0.00989047 0.00335971 -0.0149165 0.00712783 0.00108178 0.0231748 -0.038347 -0.00833594 -0.0156087 -0.019958 -0.00395739 -0.00128542 -0.0414109 -0.01343 0.0359287 -0.0241128 0.041045 0.0115975 -0.00296526 -0.0458182 0.0425996 -0.046013 0.0217532 -0.0260505 0.0255523 -0.0498334 0.0224309 -0.0121916 -0.0408198
internal_weight=3252.59 1954.37 1563.53 1298.22 1434.85 1043.18 391.664 128.687 1041.13 389.861 336.515 651.268 576.194 257.087 35.6889 390.837 75.0733 285.531 53.3463 23.2801 221.398 276.307 105.407 105.305 38.8525 95.0607 182.545 15.4539 10.2448 20.235
internal_count=13062 7840 6272 5222 5750 4182 1568 522 4178 1568 1354 2610 2309 1044 144 1568 301 1146 214 94 900 1109 428 422 157 381 743 62 41 82
is_linear=0
shrinkage=0.05


Tree=5
num_leaves=29
num_cat=0
split_feature=28 47 45 27 47 18 3 24 22 0 24 47 7 11 7 24 26 15 9 43 4 7 10 9 23 9 17 17
split_gain=194.446 115.244 79.1481 72.695 57.8101 43.3373 35.7684 33.6009 24.7221 20.8014 18.9988 27.0896 22.3221 9.94577 9.10226 8.80446 8.32633 7.34974 8.47009 7.32961 8.04113 7.13079 5.85562 5.16101 3.96634 3.54853 1.87197 1.45633
threshold=0.066628821330653079 0.038760391546292246 0.036106539638641418 0.016611772075093349 0.046155613145329628 15.029999732971193 -0.070750893685710498 0.48133923796546602 0.51674688468385321 -0.0014166085736712732 0.34736782341780043 0.052055438435938135 2.1339580540825298 1.5810109151915686 1.7556611179782997 0.51961678497908481 4.2330000400543222 0.104086127033489 1.04102082417925 -0.013034242002311623 -0.043541026867663521 4.0085566637058996 0.029471781427315252 1.8185166361537204 0.66985707273832829 1.0515006087258161 0.0062127560597619045 0.02054417132352521
decision_type=2 2 2 2 2 2 2 2 2 2 2 2 2 2 2 2 2 2 2 2 2 2 2 2 2 2 2 2
left_child=1 13 5 4 8 14 16 -6 -3 -8 11 -7 -12 19 25 -16 -5 18 22 -1 -21 -20 -4 24 -15 -2 -19 -28
right_child=2 3 17 6 7 10 9 -9 -10 -11 12 -13 -14 23 15 -17 -18 26 21 20 -22 -23 -24 -25 -26 -27 27 -29
leaf_value=-0.0073859211274118547 -0.069230618593333265 -0.00031889718363614205 -0.034784951982419571 -0.00052801527645697369 -0.0014151860104262195 -0.0078072908421383154 0.029549057286100223 -0.02417632012121422 0.030345703894422007 0.010352952382548408 -0.026404580637295245 0.021668720725355292 -0.0044457138686706237 -0.0007732034817614173 -0.0076737388667593113 -0.039330175133218542 -0.033352383733678867 -0.076234447889965973 -0.025650302215166246 0.029525076172942401 0.046964019865495921 0.029917610616955026 -0.056548323626176157 -0.015427056343100402 0.02823878984528835 -0.026104713068148561 -0.019653990254295192 -0.055787354117031986
leaf_weight=7.9917963892221442 23.704760953783989 134.99268762767315 101.31471273303032 44.469819962978363 312.96129229664803 180.26524811983109 314.69978310167789 336.86790357530117 126.47525523602962 259.99433098733425 156.99733340740204 135.66784304380417 437.73572713136673 13.963355690240858 36.034487545490265 59.64463497698307 33.642018213868141 16.857096537947655 61.009660497307777 124.24380876123905 171.67910651862621 5.4512889236211768 53.645540669560432 8.9954019933938962 63.060311824083328 8.5709156990051252 6.3422413170337704 11.040517389774321
leaf_count=32 97 540 414 178 1255 724 1260 1359 506 1041 631 543 1756 56 147 243 135 69 248 500 691 22 220 36 253 35 26 45
internal_value=-1.28639e-05 0.0099399 -0.0150389 0.00386462 -0.0052535 -0.00887886 0.0165895 -0.0132411 0.014554 0.0209064 -0.005025 0.00486294 -0.0102854 0.0342241 -0.0360167 -0.0276622 -0.0149712 -0.0399127 -0.0362002 0.0385063 0.0397832 -0.0206425 -0.0426655 0.0187685 0.0229727 -0.0590573 -0.06207 -0.0446621
internal_weight=3248.32 1954.04 1294.28 1564.1 911.297 1038.62 652.806 649.829 261.468 574.694 910.666 315.933 594.733 389.934 127.955 95.6791 78.1118 255.661 221.421 303.915 295.923 66.4609 154.96 86.0191 77.0237 32.2757 34.2399 17.3828
internal_count=13062 7842 5220 6274 3660 4176 2614 2614 1046 2301 3654 1267 2387 1568 522 390 313 1044 904 1223 1191 270 634 345 309 132 140 71
is_linear=0
shrinkage=0.05


Tree=6
num_leaves=31
num_cat=0
split_feature=27 47 37 20 2 35 13 6 6 26 0 3 6 10 0 17 6 6 7 1 7 22 15 6 7 3 1 5 7 0
split_gain=157.486 109.098 135.386 75.9431 34.8826 26.6315 22.2776 20.1296 17.7963 17.2264 18.9448 18.0762 12.2833 11.7235 13.5564 11.2832 10.8496 9.8069 11.1367 10.3252 9.52919 9.30705 6.40102 6.35258 6.12639 5.38444 4.89516 4.83089 4.26565 3.10873
threshold=-0.0044591637541260823 0.038760391546292246 -0.0076512782455780961 0.97943221151407711 -0.072214230562749879 0.025074017354197235 10.10190891244793 0.29521686753319715 0.31060533465273982 4.1545000076293954 -0.01039620967102982 0.16357481887235395 0.24052115198417065 0.092947302243403168 0.0040176907531973725 0.038480503519358951 0.27523460708986291 0.3839193339442914 2.3404779154902813 -0.010912448402543197 3.5995553852167803 0.33971231401507662 -0.17729947851081349 0.46483208776112556 1.5007532199228184 0.044938490489958703 0.031652823587859653 0.5324917410123885 4.0487241274879695 0.02968115118212061
decision_type=2 2 2 2 2 2 2 2 2 2 2 2 2 2 2 2 2 2 2 2 2 2 2 2 2 2 2 2 2 2
left_child=3 17 5 15 12 7 -6 -3 -7 13 21 -12 -4 14 -5 24 29 18 19 -2 23 -11 -15 -19 -1 -22 -26 -20 -18 -17
right_child=1 2 4 9 6 8 -8 -9 -10 10 11 -13 -14 22 -16 16 28 20 27 -21 25 -23 -24 -25 26 -27 -28 -29 -30 -31
leaf_value=-0.067482693876714628 0.041909490367062027 0.0055063428966660314 0.033898142908628213 -0.007769498885342895 0.016952961170954083 -0.020777115219232832 -0.053165743792148369 -0.022476366427669654 -0.050239050417586799 -0.010389167501939696 -0.027577449748805979 0.037806003001072334 -0.023892310316285248 0.028310933106342324 0.0063553561720286244 -0.0015968593837301091 -0.039489950512394144 0.0095044294131444787 0.05139613903442497 0.019436468433495138 0.040830698187900943 0.037389738096243672 -0.023492771831320352 -0.045340099568394139 -0.036288324500291187 0.0027569580369619894 -0.0661831962460291 0.0027152602729900964 0.0035628894527872158 0.044129559604436291
leaf_weight=24.202873095870018 91.456819072365761 148.35044641792774 9.4924930632114393 382.02724482119083 948.30009046196938 183.97958405315876 10.485010221600531 111.72483353316784 72.454220429062843 19.899094089865685 209.82435800135136 10.219226479530333 75.74548065662384 5.471272572875022 304.03448601067066 6.8709114193916303 25.452412500977516 11.443743005394937 106.32549326121807 125.14795322716236 25.583255276083946 18.962081879377365 89.357394814491272 8.2286443412303907 167.76874600350857 14.958089798688887 16.496521800756454 5.6994263082742682 6.8880699872970572 6.4617003500461578
leaf_count=100 370 595 38 1532 3798 748 42 451 296 80 848 41 304 22 1220 28 104 46 429 504 103 76 359 33 690 60 68 23 28 26
internal_value=-1.85122e-05 0.00895482 0.00303869 -0.0135376 0.0133967 -0.0178739 0.0161264 -0.00653555 -0.0292837 -0.00752545 -0.0186822 -0.024361 -0.0170801 -0.00380087 -0.00150252 -0.0379902 -0.0148862 0.0326163 0.0360283 0.0290972 0.0136285 0.013152 -0.0201875 -0.0142778 -0.0429329 0.0273079 -0.0393345 0.0490096 -0.0303385 0.0217485
internal_weight=3243.31 1949.38 1560.53 1293.94 1044.02 516.509 958.785 260.075 256.434 1039.8 258.905 220.044 85.238 780.89 686.062 254.141 45.6731 388.843 328.63 216.605 60.2137 38.8612 94.8287 19.6724 208.468 40.5413 184.265 112.025 32.3405 13.3326
internal_count=13062 7840 6272 5222 4182 2090 3840 1046 1044 4178 1045 889 342 3133 2752 1044 186 1568 1326 874 242 156 381 79 858 163 758 452 132 54
is_linear=0
shrinkage=0.05


Tree=7
num_leaves=31
num_cat=0
split_feature=28 35 47 45 19 7 7 19 24 24 28 3 19 37 2 11 2 11 5 17 7 24 15 0 2 8 7 5 1 1
split_gain=161.409 73.5941 68.966 56.3562 45.1035 37.5675 33.3868 32.5341 33.676 31.4269 24.6268 23.8439 19.1343 16.3107 15.9759 12.8001 12.2081 10.7793 8.68294 8.5149 8.26847 7.87394 7.02762 5.5336 6.8498 5.89627 2.5022 1.82539 1.80861 1.44558
threshold=0.076344455756010135 0.013967943265584927 0.046155613145329628 0.036106539638641418 64.727681742836864 2.0269103796312291 3.319781113071222 14.366515837104075 0.32822904991099106 0.48133923796546602 0.059545579774518471 0.035285448417993859 28.286217399581194 1.0000000180025095e-35 0.0068201573546691329 14.047513111724212 -0.044549084699103854 9.2094236027055079 0.69690929943057867 -0.063052017321175477 1.7556611179782997 0.51961678497908481 0.104086127033489 0.022096367902700854 -0.059806768136636983 6.3185926163841879 4.9903023678414824 0.10108384350388173 0.0059110902648191379 0.020185433075487584
decision_type=2 2 2 2 2 2 2 2 2 2 2 2 2 2 2 2 2 2 2 2 2 2 2 2 2 2 2 2 2 2
left_child=1 6 4 7 5 -3 11 20 13 12 -11 16 -4 -9 -6 -10 -1 -13 19 -8 27 -22 23 24 -5 -25 -20 -2 -24 -30
right_child=3 2 9 22 14 -7 18 8 15 10 -12 17 -14 -15 -16 -17 -18 -19 26 -21 21 -23 28 25 -26 -27 -28 -29 29 -31
leaf_value=-0.0023016613216473246 -0.020187395132716612 -0.0096342618356923555 -0.023075946437757882 0.00068804016545127812 0.038129954347750933 0.014752164371021882 -0.021496961822711564 0.022336955654739768 -0.01439441291035945 -0.012495513411458332 -0.045790961451353404 0.051377413073976676 0.0070653683821168354 -0.0057936147492433018 0.011350336181150918 0.040903011114744453 0.026308460882053408 -0.010558960673761898 -0.015901174830784483 0.013036592029593293 -0.0059163724379002686 -0.035926853185672646 -0.072444685987741009 0.020400803517581015 -0.03787373870957042 -0.034448670212272769 -0.065153999346920247 -0.060363994406715873 -0.017323108722952323 -0.052715018918483673
leaf_weight=43.31617645919323 5.0599968731403377 265.13785718381405 62.226472318172455 11.948972120881079 174.23632420599461 387.15592277050018 23.637703374028206 128.21018497645855 426.7740057259798 337.16024196147919 66.103833198547363 123.15865491330624 313.23964411020279 84.755620941519737 84.164795756340027 9.7411795705556852 247.49584063887596 6.9775164127349845 6.7166890799999219 63.540288254618645 35.806017398834229 58.958078369498253 16.534059464931488 9.3127131611108798 189.44267846643925 8.3052469789981824 4.9755714386701584 26.613622024655342 6.2792782038450268 10.9035597294569
leaf_count=174 21 1062 251 49 706 1551 95 513 1716 1360 271 496 1255 342 339 39 996 28 27 255 147 243 69 38 783 34 20 111 26 45
internal_value=-1.98779e-05 0.00759574 0.00252509 -0.0163725 0.0118631 0.00483259 0.0240294 -0.00965989 -0.00510988 -0.00839012 -0.0180655 0.0301583 0.0020087 0.0111435 0.0295041 -0.0130583 0.0220366 0.0479632 -0.00205554 0.00347876 -0.0327695 -0.02482 -0.0368423 -0.0332214 -0.035569 -0.00564862 -0.0407364 -0.0549129 -0.0585837 -0.0417204
internal_weight=3237.89 2209.24 1689.43 1028.65 910.695 652.294 519.818 775.919 649.481 778.73 403.264 420.948 375.466 212.966 258.401 436.515 290.812 130.136 98.8703 87.178 126.438 94.7641 252.727 219.01 201.392 17.618 11.6923 31.6736 33.7169 17.1828
internal_count=13062 8886 6795 4176 3658 2613 2091 3132 2610 3137 1631 1694 1506 855 1045 1755 1170 524 397 350 522 390 1044 904 832 72 47 132 140 71
is_linear=0
shrinkage=0.05


Tree=8
num_leaves=29
num_cat=0
split_feature=27 47 30 20 7 31 45 7 6 26 25 22 8 44 6 7 11 4 22 23 15 10 15 12 11 15 10 10
split_gain=131.785 89.6968 67.5264 63.3151 46.8517 38.6731 31.836 14.7174 19.2601 18.9753 12.3253 10.4794 12.7493 9.63705 9.11695 14.677 9.37885 8.18552 8.02139 7.22772 6.97673 6.38797 5.82613 5.65764 5.08906 3.96557 3.4452 2.34781
threshold=-0.0044591637541260823 0.038760391546292246 0.090682567460786276 0.97943221151407711 3.2323796205403839 0.013248888293314944 0.03000488357909659 2.9392544886796617 0.27523460708986291 4.1545000076293954 0.82036579063930326 0.86220083075097265 6.3185926163841879 0.022188661184999074 0.6012439016039115 5.7485478554998606 -5.0311074558487547 0.33184680943873429 0.96555020768774324 0.75789543086965139 0.0034987194153371414 0.04202743255743209 -0.13023835607068909 -7.0351635454060775 1.2592131737341192 -0.017012963065820907 0.045311370411043821 -0.045865527034639413
decision_type=2 2 2 2 2 2 2 2 2 2 2 2 2 2 2 2 2 2 2 2 2 2 2 2 2 2 2 2
left_child=3 14 10 11 5 -4 -6 8 9 -5 23 19 26 17 16 -16 27 -9 -10 24 -18 -12 -21 -3 -1 -14 -13 -2
right_child=1 2 4 7 6 -7 -8 13 18 -11 21 12 25 -15 15 -17 20 -19 -20 22 -22 -23 -24 -25 -26 -27 -28 -29
leaf_value=-0.036105525314414445 0.067710951678179671 0.0094540011906616671 0.018028174698429413 -0.0014910411804068295 -0.033246223276033909 -0.0011206043156982161 0.00027391663871080747 -0.0014788388656582019 -0.02982626876425087 -0.020960415575921348 -0.01586764811898082 0.043049458557545807 -0.058864665376308301 0.063918326096486996 -0.055031275050666253 0.0435722586705308 0.035437436134214434 0.025798544645404011 0.017748158589208307 0.015118761628315864 0.020703293474319651 0.038935470582014818 -0.02895469739545244 -0.042137666883105641 -0.055281309465199151 -0.01280197893936854 -0.0025589292257395244 0.033110206578034727
leaf_weight=105.28840129077435 21.06968580186367 5.1016256213188163 691.13880491256714 482.14521424472332 106.02651260793209 424.99175138771534 208.56489209830761 208.50175984203815 134.55797664821148 168.41932454705238 16.378939360380176 8.6963092982768995 8.6400367170572281 5.4858284741640082 7.2302374690771085 5.9698720127344131 178.77261929214001 30.629740595817566 8.7061471343040449 8.5635692626237851 161.65277244150639 6.6562967598438254 36.076324716210365 97.740949735045433 65.654000163078308 11.173882260918617 6.6986092031002036 11.539595752954481
leaf_count=440 86 21 2773 1934 430 1708 839 839 542 683 67 35 36 22 29 24 726 123 35 35 656 27 149 407 276 46 27 47
internal_value=-2.50379e-05 0.00819646 0.00283392 -0.0124152 0.00593328 0.0107379 -0.0110771 -0.00694761 -0.0102505 -0.00656342 -0.032123 -0.0349172 -0.00913 0.0037487 0.0297325 -0.0101568 0.0311807 0.00208711 -0.0267975 -0.0390441 0.0285366 0.000721384 -0.0202442 -0.0394639 -0.0437781 -0.0349914 0.0239538 0.0569649
internal_weight=3232.07 1942.83 1556.6 1289.24 1430.72 1116.13 314.591 1038.45 793.829 650.565 125.878 250.791 35.2088 244.617 386.235 13.2001 373.035 239.132 143.264 215.582 340.425 23.0352 44.6399 102.843 170.942 19.8139 15.3949 32.6093
internal_count=13062 7840 6272 5222 5750 4481 1269 4178 3194 2617 522 1044 144 984 1568 53 1515 962 577 900 1382 94 184 428 716 82 62 133
is_linear=0
shrinkage=0.05


Tree=9
num_leaves=24
num_cat=0
split_feature=45 29 30 20 40 24 29 0 3 24 19 43 25 2 1 5 0 7 10 4 12 1 0
split_gain=99.322 77.8441 67.4897 64.1694 41.2295 36.5787 19.3275 16.892 13.6383 12.7691 20.7979 12.4041 11.3216 11.155 9.7503 8.00803 6.15705 6.10226 5.82221 5.36853 5.20945 4.74712 4.07528
threshold=0.0073190880649128829 0.54083124169496533 0.079025096757366659 0.98929798650760248 0.021723762646140846 0.47368372856274227 0.62128348813437184 -0.01039620967102982 0.1539687392975552 0.51961678497908481 51.077666295057604 0.0030261024896334203 0.82036579063930326 0.10624566740693638 -0.0033500613300779651 0.55132622947342214 -0.02091482731162821 2.4193702953406859 0.03823205533468247 -0.036287401857006796 -7.0351635454060775 -0.001458422710115659 -0.0095096383155888874
decision_type=2 2 2 2 2 2 2 2 2 2 2 2 2 2 2 2 2 2 2 2 2 2 2
left_child=11 2 12 9 5 -4 7 -5 -6 10 -3 17 20 -8 15 19 -11 -1 -14 -13 -2 -16 -23
right_child=1 3 4 6 8 -7 13 -9 -10 16 -12 14 18 -15 21 -17 -18 -19 -20 -21 -22 22 -24
leaf_value=0.009735460445233388 0.0090466836682591631 -0.031852439224948396 0.011916231990664418 0.013821116434866174 0.0231536019299209 -0.0057672942464412494 0.0017685508924318921 -0.021620353355456125 -0.026931497271772388 1.9161833015916664e-05 0.0022590721940349292 0.02797945362912457 -0.015906798231709707 -0.023396504056025159 -0.015708649558483865 -0.0085246946603340767 -0.040992384357508224 -0.054425984406721944 0.035499157990008877 0.048551319528646622 -0.040409098892710257 0.054920107086999494 0.016502455184643019
leaf_weight=8.8807150274515134 5.109569936990737 128.79342570900917 554.3086362183094 38.80965730547905 376.1323893815279 616.48313841223717 604.48207499086857 218.58333417773247 13.204215258359907 9.4073254466056806 67.551915124058723 55.662771254777908 15.846253395080568 46.489709824323654 8.860264524817465 7.882468730211257 171.10956664383411 4.973524644970893 7.1777203977107993 103.63133959472179 96.890504345297813 7.3940986692905417 58.705758258700371
leaf_count=36 21 542 2223 156 1516 2479 2426 889 53 39 271 228 65 187 36 32 714 20 29 425 407 30 238
internal_value=-2.39773e-05 -0.00260469 0.00446125 -0.0118695 0.00730267 0.00260369 -0.00465437 -0.0162243 0.0213775 -0.0291888 -0.0201392 0.0297954 -0.0307327 -5.40933e-05 0.0324347 0.039183 -0.0388393 -0.0150746 0.000721456 0.0416134 -0.0378193 0.0170011 0.0216289
internal_weight=3226.37 2970.38 1685.15 1285.23 1560.13 1170.79 908.365 257.393 389.337 376.862 196.345 255.991 125.024 650.972 242.137 167.177 180.517 13.8542 23.024 159.294 102 74.9601 66.0999
internal_count=13062 12017 6793 5224 6271 4702 3658 1045 1569 1566 813 1045 522 2613 989 685 753 56 94 653 428 304 268
is_linear=0
shrinkage=0.05


Tree=10
num_leaves=29
num_cat=0
split_feature=28 47 45 37 30 6 18 18 2 17 24 17 4 24 6 22 9 22 24 23 4 14 9 2 4 17 4 5
split_gain=123.771 70.7403 51.2294 48.7616 42.727 35.8348 25.4033 22.7565 22.5552 19.111 14.626 20.4666 13.6972 9.03609 8.20963 8.18127 11.272 6.81505 7.77256 7.33189 6.60379 6.57843 4.57993 4.21078 7.14699 3.97922 3.78036 3.76051
threshold=0.066628821330653079 0.038760391546292246 0.036106539638641418 -0.0076512782455780961 0.090682567460786276 0.27382319660530735 15.029999732971193 19.700000762939457 -0.061533316299076248 0.019372189326600401 0.34736782341780043 -0.035246732177326927 0.18390433912842824 0.13014365984630377 0.3839193339442914 0.17416283891196535 1.5549997183894095 0.86220083075097265 0.53492780378453231 0.94928316593774509 0.53809921985739562 -0.031524229331951502 0.83011644186132794 -0.059806768136636983 -0.12185657061909379 -0.0094362519086451085 0.13767667322714411 0.17160342509533141
decision_type=2 2 2 2 2 2 2 2 2 2 2 2 2 2 2 2 2 2 2 2 2 2 2 2 2 2 2 2
left_child=1 14 6 5 9 13 17 -7 -6 -5 11 -8 -12 -3 15 16 -1 19 -19 -2 22 -17 26 25 -25 -16 -4 -24
right_child=2 3 20 4 8 7 10 -9 -10 -11 12 -13 -14 -15 23 21 -18 18 -20 -21 -22 -23 27 24 -26 -27 -28 -29
leaf_value=0.058623967800386589 -0.036111649681071278 0.020188789668304122 -0.048593322517173965 -0.034565184565506064 -0.011939519928633896 -0.039002725180421069 0.049915750754135096 -0.0097532299762658203 0.015681390752280405 0.0039244725229282233 -0.01231612118589398 0.00084884278479429795 0.0078329547655623666 -0.0012598581375752331 0.0087396139526484031 0.02016856164073981 -0.016471351633224062 0.046581854951270769 -0.02111088881402683 0.020335105941929603 0.021246745933400611 0.036245569810019494 -0.037470167716968039 -0.035770613149970987 0.011993605642193143 0.057619945072646998 -0.019686840560816571 -0.0210283910603421
leaf_weight=41.045680463314056 100.93740229308605 67.686519235372543 68.890669763088226 71.213043749332428 80.179929435253143 110.72209466993809 21.936129212379456 168.16831555962563 831.53876708447933 57.560175940394402 492.44260750710964 293.47537942230701 100.69968894124031 170.57319277524948 10.783947676420214 164.50337809324265 5.1227222979068747 5.2349653095006969 12.247810289263724 5.3635759055614463 4.8528390377759925 112.81508661806583 65.710601255297661 9.1588252633810026 33.114730641245842 6.6329199969768515 16.57702648639679 91.283534377813339
leaf_count=170 428 271 293 290 322 458 88 678 3338 233 1983 1179 404 684 44 673 21 21 51 22 20 462 278 37 134 27 70 383
internal_value=-2.36147e-05 0.0079327 -0.0120915 0.0031874 0.00942386 -0.00934452 -0.00717269 -0.0214813 0.0132364 -0.0174245 -0.00425577 0.0044241 -0.00887951 0.00487144 0.0271512 0.0303011 0.050013 -0.0283367 0.000311815 -0.033054 -0.0324916 0.0268335 -0.0336705 0.00978024 0.000942174 0.0297442 -0.0433371 -0.0281354
internal_weight=3220.47 1940.82 1279.65 1557.64 1040.49 517.15 1032.34 278.89 911.719 128.773 908.554 315.412 593.142 238.26 383.177 323.487 46.1684 123.784 17.4828 106.301 247.315 277.318 242.462 59.6904 42.2736 17.4169 85.4677 156.994
internal_count=13062 7842 5220 6274 4183 2091 4176 1136 3660 523 3654 1267 2387 955 1568 1326 191 522 72 450 1044 1135 1024 242 171 71 363 661
is_linear=0
shrinkage=0.05


Tree=11
num_leaves=28
num_cat=0
split_feature=28 47 45 27 46 18 23 17 0 6 5 4 10 26 11 7 6 14 4 9 4 5 44 9 2 7 9
split_gain=112.036 64.3692 46.9404 45.4813 35.0243 23.1763 22.5418 21.9486 17.9484 15.2384 13.9094 16.7745 12.3276 9.01916 8.02935 7.84617 7.50354 7.44683 6.61692 7.55997 6.07518 4.77945 4.37773 5.66909 4.1705 3.88586 3.65916
threshold=0.066628821330653079 0.038760391546292246 0.036106539638641418 0.016611772075093349 -0.0070199341290111397 15.029999732971193 0.13492743749221631 0.017003002669574555 -0.0014166085736712732 0.27382319660530735 0.41072295753461413 0.20023997856794903 0.039186058422838545 4.2330000400543222 2.004222303782043 1.7556611179782997 0.46483208776112556 -0.090819349674584007 0.021548546355903347 0.87474649229715806 0.53809921985739562 0.55132622947342214 0.010672209686384717 1.04102082417925 0.0038493917345309176 2.3077180493111187 1.0515006087258161
decision_type=2 2 2 2 2 2 2 2 2 2 2 2 2 2 2 2 2 2 2 2 2 2 2 2 2 2 2
left_child=1 14 5 4 9 15 13 -6 -8 -3 12 -12 -7 -5 18 26 -17 25 19 -1 22 -20 -4 -24 -19 -16 -2
right_child=2 3 20 6 7 10 8 -9 -10 -11 11 -13 -14 -15 17 16 -18 24 21 -21 -22 -23 23 -25 -26 -27 -28
leaf_value=0.014267561839900687 -0.059390017458522681 -0.002799286469773953 0.012676218012690263 0.0026571512650111306 -0.0038027554724541501 0.0012966199346247599 0.024782023376812606 0.025109324483668274 0.0067648764901273974 -0.018193353724749051 -0.033507778167028039 0.015172714395972451 -0.013718382409097195 -0.029799205249831259 -0.033077727400623182 -0.012711136966510507 -0.050943712900274496 -0.018733414550900683 0.042502361597068626 0.034240373371735189 0.02030986910165368 0.0044647264039037468 -0.038541127305660172 -0.021075997865970114 0.026438809760764632 0.0061756724058740931 -0.016784800812851768
leaf_weight=105.6509126573801 22.274135112762455 324.65141436457634 4.663995921611785 52.346162408590317 125.67007225751877 639.92723922431469 311.66972617805004 135.31961226463318 251.23063220083714 320.02345031499863 73.126001879572868 22.43572998046875 172.65024398267269 34.759115621447563 10.613140478730203 77.527531817555428 14.895203322172163 4.9042803645133963 102.21802225708961 90.901094302535057 4.8685748875141135 9.5711059272289258 162.43582493066788 73.458928570151329 44.776448175311089 12.861667484045027 8.1792493313550931
leaf_count=435 97 1307 20 210 503 2573 1254 543 1010 1307 295 90 696 140 43 327 63 20 423 374 20 39 696 308 182 52 35
internal_value=-2.24154e-05 0.00755295 -0.0115198 0.00302901 -0.00420871 -0.00682028 0.0131121 0.0112073 0.0167758 -0.0104652 -0.0040416 -0.0219882 -0.00190045 -0.0104289 0.0259315 -0.0271179 -0.0194057 0.010736 0.0294742 0.0236564 -0.0311342 0.0393585 -0.0322758 -0.0332354 0.0215993 -0.0119932 -0.0490034
internal_weight=3213.61 1937.17 1276.44 1555.67 905.665 1031.02 650.006 260.99 562.9 644.675 908.139 95.5617 812.577 87.1053 381.497 122.876 92.4227 73.1555 308.341 196.552 245.427 111.789 240.559 235.895 49.6807 23.4748 30.4534
internal_count=13062 7842 5220 6274 3660 4176 2614 1046 2264 2614 3654 385 3269 350 1568 522 390 297 1271 809 1044 462 1024 1004 202 95 132
is_linear=0
shrinkage=0.05


Tree=12
num_leaves=31
num_cat=0
split_feature=28 47 35 45 3 47 24 26 0 17 2 5 3 12 12 2 22 11 14 15 17 25 12 23 25 0 20 1 25 14
split_gain=101.489 58.524 43.3108 42.9201 26.1301 23.8316 22.7832 21.8289 19.5537 19.0553 17.2154 17.1221 16.2693 11.634 11.3792 8.26904 8.12692 7.78219 7.76933 7.15209 6.77579 6.01794 5.76368 11.8656 5.21418 4.34038 3.1051 2.02569 1.64934 0.806558
threshold=0.066628821330653079 0.038760391546292246 0.013967943265584927 0.036106539638641418 -0.070750893685710498 0.046155613145329628 0.44688944565320915 4.2165000438690194 -0.00088837333087116047 0.017003002669574555 0.14943131440157961 0.40648767406865743 0.035285448417993859 11.582496293225832 9.3706852740064033 0.0022347577256379828 0.53971341289202446 -0.15621888407809503 -0.0109115210277965 0.104086127033489 0.037771827294559752 0.84726302967665734 2.6569729433604814 0.68899584624513766 0.91642735862985392 0.010602384006815397 1.0357830013114548 0.0059110902648191379 0.45821275653329402 -0.085214410507123875
decision_type=2 2 2 2 2 2 2 2 2 2 2 2 2 2 2 2 2 2 2 2 2 2 2 2 2 2 2 2 2 2
left_child=1 17 4 7 15 9 -7 11 16 -4 -6 12 -2 -10 -13 -3 -9 22 20 21 -19 25 23 -1 -23 -5 -20 -21 -29 -24
right_child=3 2 5 19 10 6 -8 8 13 -11 -12 14 -14 -15 -16 -17 -18 18 26 27 -22 24 29 -25 -26 -27 -28 28 -30 -31
leaf_value=0.030961623250878596 0.0051423950136723108 -0.0054032964453311324 -0.0021077795575505736 -0.034025228580097405 0.024669279308564326 0.002461685804770236 -0.014755625645916551 -0.0095820318287175976 -0.031871492422147062 0.019961854306432818 -0.041480863778792676 -0.032509270332224685 -0.011932822253392469 0.01516135520397096 0.0081254053513505568 -0.057897815610295202 0.025096331321582174 0.0033658191297842466 0.045977272727814551 -0.066136041841178675 0.037578920080662978 0.016206563562138662 0.030132892862118496 -0.023239459514209304 -0.023057558100821596 -0.014625017377946746 0.020404383126523488 -0.051694982877017848 -0.016782343916016754 0.063277507723494372
leaf_weight=181.41319751739502 495.80900201201439 48.944849327206612 210.54096686840057 138.48055095970631 322.17823868989944 347.85630322992802 426.37390197813511 47.085589453577995 164.27001465857029 180.80443975329399 9.2140220999717695 69.010620892047882 192.94309628009796 13.557081162929533 22.153679624199867 7.9889086335897437 25.007878258824348 95.484465837478638 22.751409858465195 15.695534303784369 16.214754208922386 13.995339140295981 6.2271351516246822 9.8811343610286695 18.305064886808395 40.458397880196571 32.255728304386139 7.6399412453174618 8.9159997552633268 15.576094850897787
leaf_count=753 1988 197 843 597 1302 1398 1739 194 693 726 37 279 776 56 89 32 101 391 94 69 66 58 26 41 76 173 132 33 38 65
internal_value=-2.34796e-05 0.00719144 0.00288086 -0.0109812 0.0173212 -0.00193654 -0.00702036 -0.00649677 -0.0193278 0.0081007 0.0226957 -0.00235923 0.000341426 -0.0281931 -0.0225994 -0.0137278 0.00255761 0.0247604 0.0164409 -0.0298233 0.00866609 -0.0261935 0.0311382 0.0280296 -0.00591899 -0.0297723 0.0317029 -0.0519445 -0.0352049 0.055767
internal_weight=3207.03 1933.71 1553.9 1273.33 388.326 1165.58 774.23 1029.84 249.921 391.345 331.392 779.916 688.752 177.827 91.1643 56.9338 72.0935 379.804 166.706 243.491 111.699 211.239 213.098 191.294 32.3004 178.939 55.0071 32.2515 16.5559 21.8032
internal_count=13062 7842 6274 5220 1568 4706 3137 4176 1044 1569 1339 3132 2764 749 368 229 295 1568 683 1044 457 904 885 794 134 770 226 140 71 91
is_linear=0
shrinkage=0.05


Tree=13
num_leaves=31
num_cat=0
split_feature=28 47 45 26 3 29 7 26 0 5 5 7 43 12 4 5 11 24 16 9 2 10 5 4 9 0 14 24 23 4
split_gain=91.9842 53.3239 39.4056 37.3716 42.5887 20.8099 22.3282 19.8366 17.8382 16.6968 15.9683 14.5757 14.2099 10.6367 9.34641 7.37336 7.3372 8.9017 8.63903 8.48676 8.99929 6.78509 5.57183 7.63777 7.19691 5.28263 4.06391 3.93575 3.27698 6.84665
threshold=0.066628821330653079 0.038760391546292246 0.036106539638641418 4.1760001182556161 -0.075437924802116779 0.58305772921895771 1.9336055603219131 4.2165000438690194 -0.00088837333087116047 0.1790289400583456 0.30892320152778507 2.2284239787068043 0.019392530157776425 11.582496293225832 0.1256839699807176 0.18148029783904571 -1.4600703349036415 0.71866002944990226 0.059627768868200891 1.5179264650890396 -0.02396951319928262 -0.030259535769191517 0.15692511258033279 0.28501737421354306 0.91733657774838684 -0.0043721306353474631 -0.062911527943009415 0.32440129520962918 0.37798986102869542 -0.018983606087082709
decision_type=2 2 2 2 2 2 2 2 2 2 2 2 2 2 2 2 2 2 2 2 2 2 2 2 2 2 2 2 2 2
left_child=1 16 7 5 15 6 -3 10 21 -6 11 -2 -7 -10 -12 -5 17 27 -19 20 -18 -9 28 26 -25 -21 -24 -1 29 -4
right_child=2 3 22 4 9 12 -8 8 13 -11 14 -13 -14 -15 -16 -17 19 18 -20 25 -22 -23 23 24 -26 -27 -28 -29 -30 -31
leaf_value=0.027260302071491823 -0.0043361874286982653 -0.013715473884150989 -0.041434670505063158 0.019563453748740675 0.029413963277908652 -0.013819871637151754 0.0092207056047867112 -0.02547651031035052 -0.030506865563144983 0.010761360790357249 -0.023172040424666165 0.011712103457612776 0.064027538911738777 0.014422759946551705 0.0016228651707951543 -0.030641452051795928 -0.02577936271230083 -0.037582275382677485 0.023100550530445345 -0.039567945576148927 0.023810751589156069 0.010657339926384797 -0.016690853456366516 -0.027042524040338335 0.044692508208898835 0.0062712796479051265 -0.034393501566676872 0.050907340848326689 -0.046425078908431644 0.0038660239389269727
leaf_weight=33.91315995156765 380.29211764037609 147.26112329959869 21.612662181258202 7.4672698825597754 171.14985221624374 379.36356683075428 371.74912442266941 15.778400123119352 163.11187973618507 408.60073456168175 120.98911489546299 223.82950167357922 4.959345117211341 13.589139997959135 54.496175408363342 61.636391088366508 8.6908328086137754 5.7815711349248877 43.598760709166527 7.8409972488880184 202.58812981843948 56.28778313100338 69.758590534329414 5.1946816295385343 7.0825636833906174 20.623461320996284 69.583525538444519 55.080945461988449 55.656399354338646 12.662438884377478
leaf_count=142 1526 591 94 30 691 1548 1500 65 693 1645 489 898 20 56 219 249 36 24 181 32 837 230 301 22 29 84 300 232 243 55
internal_value=-2.41122e-05 0.00684873 -0.010472 0.00273719 0.011884 -0.00383318 0.00268944 -0.00618322 -0.0184494 0.0163176 -0.00224415 0.00161104 -0.0126388 -0.0269617 -0.0154782 -0.0249434 0.0236618 0.0329118 0.0152915 0.0181876 0.0216355 0.00243725 -0.0286098 -0.0224082 0.0142131 -0.00710053 -0.0257488 0.0423547 -0.0386489 -0.0249221
internal_weight=3200.23 1930.31 1269.92 1552.19 648.854 903.333 519.01 1028.37 248.767 579.751 779.607 604.122 384.323 176.701 175.485 69.1037 378.118 138.374 49.3803 239.743 211.279 72.0662 241.551 151.619 12.2772 28.4645 139.342 88.9941 89.9315 34.2751
internal_count=13062 7842 5220 6274 2615 3659 2091 4176 1044 2336 3132 2424 1568 749 708 279 1568 579 205 989 873 295 1044 652 51 116 601 374 392 149
is_linear=0
shrinkage=0.05


Tree=14
num_leaves=29
num_cat=0
split_feature=28 47 45 27 47 24 3 22 26 0 0 5 4 3 17 2 22 43 17 7 7 16 5 4 9 5 25 3
split_gain=83.3344 48.4645 36.1342 35.3395 27.3296 22.629 22.3564 18.7377 18.0425 17.9115 16.2568 14.5856 15.8732 14.3109 10.4389 8.27706 7.15141 6.91958 7.2988 7.05046 6.24207 5.89012 5.19062 6.97813 6.57519 4.00099 2.98622 2.70477
threshold=0.066628821330653079 0.038760391546292246 0.036106539638641418 0.016611772075093349 0.046155613145329628 0.16363559775243039 -0.070750893685710498 0.63540728042607142 4.2165000438690194 -0.0014166085736712732 -0.00088837333087116047 0.41072295753461413 0.20023997856794903 0.035285448417993859 0.042891795235390669 0.0022347577256379828 0.53971341289202446 -0.0025716839564759448 -0.0032599157635250782 2.3167517919227101 2.4193702953406859 0.085314484330296717 0.15692511258033279 0.28501737421354306 0.91733657774838684 0.29263048200109254 0.87416026871401165 -0.010256523178117883
decision_type=2 2 2 2 2 2 2 2 2 2 2 2 2 2 2 2 2 2 2 2 2 2 2 2 2 2 2 2
left_child=1 17 8 4 7 -6 15 -3 11 -8 16 13 -13 -2 -12 -5 -10 20 21 -20 -1 -19 26 25 -25 -24 27 -4
right_child=2 3 22 6 5 -7 9 -9 10 -11 14 12 -14 -15 -16 -17 -18 18 19 -21 -22 -23 23 24 -26 -27 -28 -29
leaf_value=0.018781431306620106 0.0048102717341433395 -0.00030097083866219645 -0.02645184817000228 -0.00728153988706915 0.011717065208679767 -0.013487051471492935 0.022998510744124318 0.02744822319158452 -0.0091036455568079908 0.0051508544994102777 -0.03024860130758554 -0.033420871926489563 0.014543375820560138 -0.011179214694919913 0.0069332256673212472 -0.057397506326678498 0.023413171832029737 0.013710374792241367 0.0059155540721622379 0.027053805190603311 -0.045413648665736064 0.034838720833545972 -0.017718773500607965 -0.026052000213790817 0.042539931877181879 -0.035937729108833368 -0.004998092991245145 -0.047452792306249825
leaf_weight=7.0385998934507352 497.57267199456692 165.67762990295887 31.168930336833 69.24147541821003 105.71325843036175 536.84214970469475 311.76977191865444 94.796699211001396 47.009600892663002 258.21732446551323 154.69606710970402 65.854692101478577 22.431539088487625 193.51887749135494 20.861345082521439 8.493419408798216 25.061873197555542 45.081916674971581 87.250550761818886 73.32333143055439 6.1767732501029968 157.46662779152393 87.586538195610046 5.1614558100700361 7.1185307502746582 50.805940732359886 7.3071834146976462 50.452740862965584
leaf_count=29 1995 664 137 279 425 2189 1260 382 194 1041 662 268 90 779 87 34 101 189 359 302 25 664 381 22 29 220 31 224
internal_value=-2.41499e-05 0.00652108 -0.00998366 0.00260532 -0.00378224 -0.00932094 0.0115104 0.00984527 -0.00588494 0.014945 -0.0176162 -0.00213341 -0.0211518 0.000316001 -0.0257878 -0.0134802 0.00230088 0.0225936 0.023894 0.0157066 -0.0119552 0.0302511 -0.0274338 -0.0214382 0.0135424 -0.0246529 -0.0371852 -0.0399109
internal_weight=3193.7 1927.09 1266.61 1550.75 903.03 642.555 647.722 260.474 1027.01 569.987 247.629 779.378 88.2862 691.092 175.557 77.7349 72.0715 376.338 363.122 160.574 13.2154 202.549 239.601 150.672 12.28 138.392 88.9289 81.6217
internal_count=13062 7842 5220 6274 3660 2614 2614 1046 4176 2301 1044 3132 358 2774 749 313 295 1568 1514 661 54 853 1044 652 51 601 392 361
is_linear=0
shrinkage=0.05


Tree=15
num_leaves=28
num_cat=0
split_feature=28 47 35 21 7 47 7 31 30 3 24 1 7 4 7 12 8 6 7 25 22 2 17 9 7 12 8
split_gain=75.5033 44.0784 34.3754 33.391 24.1007 17.9965 22.7103 19.7832 16.4764 15.5921 12.2803 20.2158 18.8384 9.56737 10.9438 9.51781 7.8618 7.70105 13.1901 7.42608 7.08643 6.33742 6.26432 5.40742 4.98175 2.36731 1.14461
threshold=0.066628821330653079 0.038760391546292246 0.013967943265584927 -0.049846505984804571 3.2323796205403839 0.046155613145329628 1.7714899561966631 -0.010291246738110714 0.066290570193434359 0.035285448417993859 0.34736782341780043 -0.036444755534213967 1.9336055603219131 -0.025204267950752316 1.5007532199228184 -7.2135872295686898 14.221716598820004 0.6012439016039115 5.7485478554998606 0.82036579063930326 0.17416283891196535 -0.048880268579442054 0.037771827294559752 1.4287011177705009 3.1769470053925439 1.627557096097491 2.20397638755786
decision_type=2 2 2 2 2 2 2 2 2 2 2 2 2 2 2 2 2 2 2 2 2 2 2 2 2 2 2
left_child=1 17 4 13 9 6 -4 -7 15 -3 11 -10 -12 24 26 -5 -6 20 -19 -17 23 -22 -16 -1 25 -2 -15
right_child=3 2 5 8 16 7 -8 -9 10 -11 12 -13 -14 14 22 19 -18 18 -20 -21 21 -23 -24 -25 -26 -27 -28
leaf_value=0.045584712605387379 -0.060681398911658524 0.014438023141620302 -0.013452862873008937 0.028973175940897024 0.00098430365857000188 0.001687096497763397 0.014006279698969872 -0.014298138057150647 0.052220020376306131 0.039396014169366056 -0.028508823480219686 0.0013042421470408913 -0.0037006863058923626 -0.029243251951997812 -0.022346061734427731 -0.03256185566572381 -0.033706531443141917 -0.057042165032629294 0.036967842648571454 0.00091405990275338132 0.043478398292038978 0.017371618720525447 0 0.0038289799578420641 -0.0086896961337583241 -0.015647838389242451 -0.06548340091914287
leaf_weight=49.060059770941734 30.510607808828354 200.30982472002506 100.51473878324032 7.3588347285985938 73.848603874444962 389.12060333788395 290.15487495064735 382.77466487884521 19.90049521625042 92.277576267719269 89.5742367208004 294.9049696624279 501.29781843721867 6.3480116277933147 135.37936297059059 92.22208546102047 19.859277606010437 7.2266951948404294 5.8536052256822586 19.730851545929909 25.387648150324821 277.30529350042343 40.444281667470932 9.7188422679901105 7.4999462813138953 4.4831560850143424 13.421135127544401
leaf_count=210 136 813 403 31 298 1569 1166 1568 80 377 364 1187 2023 29 594 409 80 29 24 82 108 1156 171 41 33 20 61
internal_value=-2.50909e-05 0.00620923 0.00247771 -0.00952007 0.0153807 -0.0018149 0.00691229 -0.00624159 -0.00558291 0.0224338 -0.00326318 0.00469389 -0.00751178 -0.0263548 -0.0214368 -0.0229766 -0.00659312 0.0215789 -0.0149788 -0.0266619 0.0229533 0.0197137 -0.0172211 0.0389438 -0.0478637 -0.055646 -0.0560555
internal_weight=3186.49 1923.41 1548.86 1263.08 386.295 1162.56 390.67 771.895 1024.99 292.587 905.678 314.805 590.872 238.087 195.593 119.312 93.7079 374.552 13.0803 111.953 361.472 302.693 175.824 58.7789 42.4937 34.9938 19.7691
internal_count=13062 7842 6274 5220 1568 4706 1569 3137 4176 1190 3654 1267 2387 1044 855 522 378 1568 53 491 1515 1264 765 251 189 156 90
is_linear=0
shrinkage=0.05


Tree=16
num_leaves=30
num_cat=0
split_feature=28 47 35 20 7 13 47 30 3 24 1 7 4 7 12 6 7 11 7 0 8 8 9 12 7 3 25 12 8
split_gain=68.4327 40.1197 31.1189 30.6989 21.8797 16.85 17.5283 15.0362 14.2708 11.1157 18.3809 17.3323 8.96876 10.3376 8.71439 7.45456 10.0216 9.2234 8.29861 7.28236 7.13943 6.49182 5.81198 4.96694 4.67587 4.05842 3.45515 2.2254 1.09568
threshold=0.066628821330653079 0.038760391546292246 0.013967943265584927 0.91925958987172529 3.2323796205403839 9.6976096670933405 0.046155613145329628 0.066290570193434359 0.035285448417993859 0.34736782341780043 -0.036444755534213967 2.077518758529695 -0.025204267950752316 1.5007532199228184 -7.2135872295686898 0.3839193339442914 2.3404779154902813 2.9391901706544434 3.5995553852167803 0.0060225149278586949 14.221716598820004 6.9096439093634823 0.73537056722109317 -2.5018154826078987 3.1769470053925439 0.044938490489958703 0.46205521925291609 1.627557096097491 2.20397638755786
decision_type=2 2 2 2 2 2 2 2 2 2 2 2 2 2 2 2 2 2 2 2 2 2 2 2 2 2 2 2 2
left_child=1 15 4 12 8 6 -4 14 -3 10 -9 -11 24 28 -5 16 17 -1 21 -16 -6 -17 -15 -18 27 -20 -7 -2 -14
right_child=3 2 5 7 20 26 -8 9 -10 11 -12 -13 13 22 19 18 23 -19 25 -21 -22 -23 -24 -25 -26 -27 -28 -29 -30
leaf_value=0.020019139747723215 -0.058907374851109556 0.013742409840352172 0.0075851544834874551 0.027542455784996197 0.00093578023130644133 -0.02018815094755131 -0.0054756011646921064 0.049835389978739986 0.037675858561056985 -0.022877287695912622 0.0012391823767650212 -0.0024683995276781234 -0.028240564937193138 -0.032757264826370487 -0.034765353671384808 0.022698779888807887 0.048912402555902922 -0.019991652802836067 0.029272115323959513 -0.0074451075734750117 -0.03213213306024245 -0.038793604795463933 -0.011182238624355387 0.025902494049420285 -0.0083258927726602219 -0.0031880652774190048 -0.081189471224694013 -0.015071385558525783 -0.063848498382100813
leaf_weight=192.99576079845428 29.903566256165504 199.98568998277187 385.47939158976078 7.4047681391239157 73.845930382609367 4.9363978952169401 764.5989706069231 19.858922645449638 91.725922822952271 134.15819706022739 294.92096197605133 456.27622976899147 6.2819377630949047 41.217896416783333 72.817704916000366 5.1091489195823696 45.651536002755165 14.646867230534552 24.584354341030121 38.188273355364799 19.840168818831444 14.20297162234783 133.71241304278374 60.776418015360832 7.4804783165454856 14.736713156104086 6.6515955179929733 4.4607261270284644 13.110063955187796
leaf_count=814 136 813 1549 31 298 20 3110 80 377 546 1187 1841 29 182 324 21 196 60 103 167 80 58 583 256 33 60 27 20 61
internal_value=-2.53609e-05 0.00591416 0.00235731 -0.00907794 0.0146506 -0.00172593 -0.00109081 -0.00531038 0.0213881 -0.00310035 0.00446898 -0.00714499 -0.0252954 -0.0205347 -0.0219961 0.0206192 0.0236703 0.0170906 0.00406872 -0.0255617 -0.00627969 -0.0219626 -0.0164516 0.0361824 -0.0462917 0.0172054 -0.0592687 -0.0539456 -0.0545092
internal_weight=3179.56 1919.77 1547.06 1259.79 385.398 1161.67 1150.08 1023.63 291.712 905.214 314.78 590.434 236.167 194.322 118.411 372.704 314.071 207.643 58.6332 111.006 93.6861 19.3121 174.93 106.428 41.8448 39.3211 11.588 34.3643 19.392
internal_count=13062 7842 6274 5220 1568 4706 4659 4176 1190 3654 1267 2387 1044 855 522 1568 1326 874 242 491 378 79 765 452 189 163 47 156 90
is_linear=0
shrinkage=0.05


Tree=17
num_leaves=31
num_cat=0
split_feature=28 45 20 2 46 22 28 22 7 10 26 6 25 5 7 18 3 15 4 7 3 9 15 9 25 17 1 7 12 5
split_gain=62.0145 33.9421 28.2347 25.3871 22.5993 32.7694 19.8586 18.7163 15.727 14.2639 14.0913 13.6186 16.9216 13.3925 12.918 11.2688 9.7159 8.90585 8.41993 9.77675 8.18198 8.07671 6.71311 6.56561 6.04591 5.72606 5.07037 4.39704 2.09821 0.525309
threshold=0.066628821330653079 0.023623405796304845 0.91925958987172529 0.031519369090203329 -0.017767511904527741 0.20478487652286034 0.040966876295917339 0.43253628125389193 1.7714899561966631 -0.0078806970782147653 4.1610000133514413 0.35680419238075362 0.51681123578916299 0.30892320152778507 2.2284239787068043 20.445000648498539 0.027886905381978761 -0.12437551090526699 -0.025204267950752316 1.5007532199228184 0.044012532175560205 2.0949816509837542 0.069929066042714552 1.1448160148012929 0.91642735862985392 0.037771827294559752 0.02174554855148509 3.1769470053925439 1.627557096097491 0.099662072704655089
decision_type=2 2 2 2 2 2 2 2 2 2 2 2 2 2 2 2 2 2 2 2 2 2 2 2 2 2 2 2 2 2
left_child=1 3 18 11 6 9 16 -8 -7 -6 13 21 -13 14 -4 20 -3 -15 27 29 -5 -1 -17 26 -25 -21 -12 28 -2 -20
right_child=2 4 10 15 5 8 7 -9 -10 -11 23 12 -14 17 -16 22 -18 -19 19 25 -22 -23 -24 24 -26 -27 -28 -29 -30 -31
leaf_value=0.026830354955587062 -0.057240781543329872 -0.0042845873805820575 -0.0038281719769792735 -0.0070884325944757277 0.00086450784134660614 -0.0021764370421244864 -0.030825453750745614 -0.0033493245890008332 0.02458084456667587 -0.041447191349294595 -0.014682752748883083 -0.013652368901500837 0.0277794566846453 0.012373942014216975 0.011284055953164701 -0.0077578203014363363 0.0079994450494111583 -0.018665209769818874 -0.027888301547860289 -0.020664499946842274 0.024330514188324263 -0.023067407979745568 -0.045819691988341571 0.024357670801480005 -0.014326491462064883 0.00067849696826428429 -0.03391252822971428 -0.0079768740739510364 -0.014515683087839985 -0.05984437522045441
leaf_weight=353.49148410558701 29.280522286891937 354.17075100541115 379.74024850130081 34.121356993913651 45.855387479066849 70.702505081892014 108.41243451833725 144.68802556395531 237.58310785889626 33.859558388590813 160.34566703438759 54.932129815220833 43.009107336401939 26.418971583247185 223.79912585020065 72.160288825631142 293.14396457374096 148.33413042128086 5.2838467210531261 133.7982089817524 49.642383992671967 7.4694350063800803 13.093370869755743 17.482053250074387 21.200752198696136 40.312971651554108 44.958664253354073 7.4616339802741996 4.4387717545032492 13.723769903182982
leaf_count=1489 136 1430 1526 140 185 285 451 594 963 136 687 227 177 107 898 293 1184 601 25 594 204 31 53 72 88 171 197 33 20 65
internal_value=-2.7935e-05 0.00562988 -0.00865793 0.0151523 0.000977015 0.0110519 -0.00336628 -0.0152131 0.0184409 -0.0173366 -0.00505181 0.021243 0.00458801 -0.00175026 0.00177674 -0.00138291 0.00127442 -0.0139006 -0.0242823 -0.0196729 0.0115403 0.0257231 -0.0141248 -0.0155129 0.00320342 -0.0157186 -0.019062 -0.0448005 -0.0523406 -0.0530488
internal_weight=3172.91 1916.34 1256.58 627.92 1288.42 388.001 900.415 253.1 308.286 79.7149 1022.28 458.902 97.9412 778.292 603.539 169.017 647.315 174.753 234.3 193.119 83.7637 360.961 85.2537 243.987 38.6828 174.111 205.304 41.1809 33.7193 19.0076
internal_count=13062 7842 5220 2614 5228 1569 3659 1045 1248 321 4176 1924 404 3132 2424 690 2614 708 1044 855 344 1520 346 1044 160 765 884 189 156 90
is_linear=0
shrinkage=0.05


Tree=18
num_leaves=31
num_cat=0
split_feature=28 45 20 1 2 26 8 15 12 27 1 10 12 22 25 25 12 25 25 1 5 16 10 10 7 7 2 14 15 14
split_gain=56.1791 30.7805 25.958 23.5312 20.4031 21.8598 16.3718 15.3625 15.0364 12.9119 10.108 10.764 9.7666 9.2597 9.15956 8.00821 7.97399 10.1616 7.44674 7.4058 6.86915 6.27088 5.38832 5.17711 4.42152 4.22823 5.94332 3.43849 3.23217 3.08194
threshold=0.066628821330653079 0.023623405796304845 0.91925958987172529 -0.0024070596687240167 -0.0584171672350055 4.2400000095367441 9.1580276813452208 -0.01613117805746021 3.6920930617068515 0.017695336899200113 -0.069927403678397657 0.035534692752936768 0.56599705972854009 0.23157915943239346 0.52449616122840703 0.82036579063930326 2.7127671815094465 0.50528384763029688 0.034582164476598266 -0.0011454212633705137 0.1790289400583456 0.096704099608770008 0.04202743255743209 -0.022914444959006533 1.4257119372073832 1.9276036912896222 0.057852450068079507 -0.0022716297435555494 -0.13023835607068909 0.024103798795415975
decision_type=2 2 2 2 2 2 2 2 2 2 2 2 2 2 2 2 2 2 2 2 2 2 2 2 2 2 2 2 2 2
left_child=1 3 16 18 12 7 19 -6 -7 10 27 -12 13 -3 -8 24 25 28 -1 -5 -19 -20 -17 -14 -11 29 -27 -4 -18 -2
right_child=2 4 9 6 5 8 14 -9 -10 15 11 -13 23 -15 -16 22 17 20 21 -21 -22 -23 -24 -25 -26 26 -28 -29 -30 -31
leaf_value=-0.01654478576102068 -0.053104419938136471 -0.027689091886211461 -0.042731453158585737 -0.026599812169280809 0.0081990155162414008 0.0067217983226982693 -0.031201329856326978 -0.0041653685871391195 0.044638440411539457 0.0098206473233256823 0.001390519543078787 -0.011612225186085796 0.058711870108935117 0.0012794011507419279 0.0075777644411570274 -0.0097306570636001601 0.0024781849285679157 -0.029318024823436262 0.011371311895533085 0.01257985022093451 0.011076280439038619 0.028479494279005729 0.040874213512145902 -0.0037460454511850944 -0.029787123594535739 -0.018907483418529339 -0.054035322606017858 -0.0087910927510767133 -0.033801745588166156 -0.012493551566910116
leaf_weight=10.475080773234366 30.429427653551102 102.40873132646084 19.320763424038887 11.785993039608 430.50018092989922 55.915268018841743 42.866201296448708 599.96849143505096 49.444065392017365 6.9905397444963446 663.21259735524654 208.17675173282623 5.1784331053495407 37.063174188137054 22.538800939917564 15.932749420404436 6.6557461917400351 12.750923022627829 71.581293657422066 212.57086732983589 43.710544183850288 253.95900085568428 6.6111248135566703 6.6269537657499296 87.38476350903511 73.342774227261543 14.396878480911253 13.467048943042753 44.345894798636436 6.7494063526391974
leaf_count=44 142 420 79 49 1745 228 175 2432 204 32 2676 844 21 151 92 67 29 58 301 879 188 1074 27 27 396 332 65 55 199 31
internal_value=-3.24091e-05 0.00535633 -0.00825765 0.0144435 0.00092657 0.00323175 0.0039595 0.000998209 0.0248151 -0.00480762 -0.00276843 -0.00171988 -0.016256 -0.0200011 -0.0178497 -0.0203777 -0.0233103 -0.0130618 0.023431 0.0103906 0.00151539 0.0247793 0.00600292 0.0257061 -0.0267287 -0.0319133 -0.0252718 -0.0296118 -0.0290144 -0.0463833
internal_weight=3166.36 1912.88 1253.48 625.777 1287.11 1135.83 289.762 1030.47 105.359 1021.1 904.177 871.389 151.277 139.472 65.405 116.919 232.382 107.463 336.015 224.357 56.4615 325.54 22.5439 11.8054 94.3753 124.918 87.7397 32.7878 51.0016 37.1788
internal_count=13062 7842 5220 2614 5228 4609 1195 4177 432 4176 3654 3520 619 571 267 522 1044 474 1419 928 246 1375 94 48 428 570 397 134 228 173
is_linear=0
shrinkage=0.05


Tree=19
num_leaves=27
num_cat=0
split_feature=47 46 24 35 7 21 37 3 23 20 15 16 36 43 22 44 9 0 5 25 7 25 5 12 47 36
split_gain=43.0504 52.0274 41.6279 31.3221 24.6155 26.7127 19.917 23.2933 16.5575 15.7474 15.5239 11.4135 11.27 10.0298 9.0485 8.94106 8.99183 8.92921 8.34227 7.81803 7.48943 7.3733 7.08657 6.38934 4.53558 3.84426
threshold=0.041499422744531896 -0.013100208603051942 0.47751148326410414 0.011230861443735975 2.3167517919227101 0.053121150218351197 -0.0050201280062893696 0.046520538773168064 0.74258441206420389 0.97943221151407711 0.051546783190567019 0.059627768868200891 0.10907985880762973 -0.013034242002311623 0.17416283891196535 0.010672209686384717 1.04102082417925 -0.00033083575108509481 0.092314541675704673 0.73967407352724057 1.7948635121096039 0.31988409862690098 0.30078701339838271 2.5979519624792822 0.037734415314423293 0.1171422392466477
decision_type=2 2 2 2 2 2 2 2 2 2 2 2 2 2 2 2 2 2 2 2 2 2 2 2 2 2
left_child=4 2 3 17 5 8 9 -8 10 -4 -1 21 -5 -13 -7 -3 20 -2 -10 -18 -17 24 -15 -16 -6 -23
right_child=1 15 6 12 11 14 7 -9 18 -11 -12 13 -14 22 23 16 19 -19 -20 -21 -22 25 -24 -25 -26 -27
leaf_value=0.0070487054169830164 0.030581576265109368 0.02864021186826567 -0.025303421646239901 -0.0022975844708270216 0.04557688330053164 0.056543699992871982 -0.0091978526163865176 0.013403987426176101 -0.077157531458418971 -0.0074790434228029119 -0.020840881012314658 -0.042713083699257227 0.01210630311777397 0.030748982807752359 0.0082565572668156784 -0.044308169816030168 0.022588782020267723 0.01092176043664126 -0.020289663804597596 -0.015879466388997177 -0.022892768180850554 0.00095517921356343984 0.015763753458793266 0.032129519254115432 -0.00047487593504115646 -0.030883960128577571
leaf_weight=200.12248705327511 142.73107565939426 7.7839741110801688 197.20372694730759 492.71292236447334 9.1885998249053973 13.841329485177992 279.05560141801834 191.24659042060375 6.4247582852840415 337.3058962225914 65.354169264435768 4.911426067352294 186.2021166831255 163.94000487029552 102.42214593291283 55.965538412332535 14.42047233879566 100.9519055634737 71.389286383986473 91.183821246027946 177.22082650661469 17.921577394008636 163.47165532410145 38.688380733132362 10.763303518295286 18.321684882044792
leaf_count=809 584 35 820 1992 38 62 1137 779 26 1367 264 20 747 677 438 265 65 412 289 398 803 74 677 165 44 75
internal_value=-3.4143e-05 -0.00367977 -0.000465918 0.00719577 0.00930257 0.00192573 -0.00750585 0 -0.00584348 -0.0140995 0.000111731 0.0187207 0.00165753 0.0222365 0.0190973 -0.0214858 -0.0227331 0.0225354 -0.0259678 -0.010417 -0.0282211 -0.00200853 0.0233531 0.015017 0.0216581 -0.015403
internal_weight=3160.75 2273.98 1927.41 922.598 886.761 498.243 1004.81 470.302 343.291 534.51 265.477 388.518 678.915 332.323 154.952 346.575 338.791 243.683 77.814 105.604 233.186 56.1952 327.412 141.111 19.9519 36.2433
internal_count=13062 9404 7838 3735 3658 2053 4103 1916 1388 2187 1073 1605 2739 1374 665 1566 1531 996 315 463 1068 231 1354 603 82 149
is_linear=0
shrinkage=0.05


Tree=20
num_leaves=31
num_cat=0
split_feature=28 45 20 2 46 0 22 3 27 10 10 26 0 24 7 7 18 0 0 4 7 3 7 15 9 7 24 12 11 8
split_gain=47.3665 26.0858 21.8058 21.531 18.1647 35.7889 28.7122 17.4699 15.188 14.4314 12.9044 10.984 13.1631 12.7045 17.0432 13.0305 9.64314 8.73928 11.207 8.10856 9.01269 7.30117 6.65939 6.07273 5.14116 4.19602 3.92912 2.03628 1.93427 1.06581
threshold=0.066628821330653079 0.023623405796304845 0.91925958987172529 0.031519369090203329 -0.017767511904527741 -0.0018395152666201588 0.20478487652286034 0.032838767205801915 0.016395210181337942 0.084183206035905553 -0.0078806970782147653 4.1610000133514413 -0.020312662603897799 0.67272697303355977 2.1890493745211295 2.5746472095302426 20.445000648498539 -0.023848892804711183 -0.010004430219634002 -0.025204267950752316 1.5112687046321926 0.044012532175560205 1.6267851486779954 0.069929066042714552 0.73537056722109317 3.1769470053925439 0.91387551921935795 1.627557096097491 -2.5280846798771281 2.20397638755786
decision_type=2 2 2 2 2 2 2 2 2 2 2 2 2 2 2 2 2 2 2 2 2 2 2 2 2 2 2 2 2 2
left_child=1 3 19 17 5 8 10 -7 -3 -8 -6 13 26 14 -4 -15 21 28 -19 25 29 -5 -14 -18 -22 27 -13 -2 -1 -21
right_child=2 4 11 16 6 7 9 -9 -10 -11 -12 12 22 15 -16 -17 23 18 -20 20 24 -23 -24 -25 -26 -27 -28 -29 -30 -31
leaf_value=-0.031563812544189995 -0.054448948436808968 -0.0041976744390765522 -0.0030111515604235532 -0.0074993044698043222 0.00065215510795253967 -0.022287530971579067 0.012500749294064688 -0.0030601003934593099 0.015096747612904854 0.044479653264008712 -0.039614919442554866 0.034477532978226172 -0.0024292460516808011 -0.032318515750847064 0.016608338407275564 -0.0047336398577430073 -0.0076397386990706521 0.036245463542148026 0.016173702339498358 -0.023383155952450774 -0.028675893484466086 0.022239043739356028 -0.022526036380949011 -0.04391515843572473 -0.0081218017970827068 -0.0060740533979385539 -0.012256721552603333 -0.012518154209726818 0.0019882152105288038 -0.057397863803527051
leaf_weight=8.5088913440704328 28.112171098589897 167.58123007416725 366.48865558207035 34.034472659230232 45.761613517999649 231.44812126457691 266.64516155421734 242.38602833449841 256.90244182944298 40.221284508705139 33.83793418109417 16.233317822217945 56.133377552032471 53.878899395465851 157.29602415859699 199.8484064489603 72.051021739840508 88.104803651571274 350.04502303898335 5.9363980591297176 39.837378084659576 49.23575259745121 163.43591840565205 13.04622822999954 130.06159657239914 7.3547087758779517 5.3181809037923804 4.3543750047683707 7.1510795205831519 13.243812054395674
leaf_count=36 136 688 1474 140 185 945 1084 987 1039 164 136 68 242 218 632 808 293 377 1481 29 182 204 712 53 578 33 22 20 30 66
internal_value=-3.27164e-05 0.00492042 -0.00760589 0.0133155 0.000843863 -0.00305191 0.00989678 -0.0124896 0.00747582 0.0168394 -0.0166826 -0.00445556 -0.0137582 -0.00155024 0.0028916 -0.0107148 -0.00192169 0.0189715 0.0202945 -0.0215231 -0.0169943 0.0100802 -0.0174452 -0.0137047 -0.0131101 -0.041961 0.0226913 -0.0495167 -0.0167426 -0.0487983
internal_weight=3154.49 1906.96 1247.53 622.177 1284.78 898.318 386.466 473.834 424.484 306.866 79.5995 1018.63 241.121 777.512 523.785 253.727 168.367 453.81 438.15 228.9 189.079 83.2702 219.569 85.0972 169.899 39.8213 21.5515 32.4665 15.66 19.1802
internal_count=13062 7842 5220 2614 5228 3659 1569 1932 1727 1248 321 4176 1044 3132 2106 1026 690 1924 1858 1044 855 344 954 346 760 189 90 156 66 95
is_linear=0
shrinkage=0.05


Tree=21
num_leaves=30
num_cat=0
split_feature=28 47 26 7 23 21 30 0 0 16 26 0 17 16 17 24 24 23 43 2 15 1 15 7 5 23 10 14 10
split_gain=42.9341 26.1756 22.7224 26.0938 27.9981 20.056 13.1198 14.3009 11.191 11.0062 9.97141 11.944 11.8455 11.9697 6.84878 7.63062 6.65475 6.50436 5.98611 5.98315 6.91229 5.79987 5.9743 5.17105 5.09778 4.89273 2.546 2.41185 0.624694
threshold=0.066628821330653079 0.038760391546292246 4.1760001182556161 2.6679569127909315 0.56650769580155758 -0.049846505984804571 0.12958355865498264 0.0032615103534179763 -0.0010391923009640469 0.075785843382557297 4.1610000133514413 -0.020312662603897799 -0.073348283917672938 0.91153915297838817 0.037771827294559752 0.53492780378453231 0.74928206706079725 0.8880390907159551 -0.0025716839564759448 -0.061533316299076248 0.0034987194153371414 0.031652823587859653 -0.10288107481690847 2.4193702953406859 0.41072295753461413 0.61626850691926194 -0.06243957977160363 -0.037153619082480029 0.014234416761710023
decision_type=2 2 2 2 2 2 2 2 2 2 2 2 2 2 2 2 2 2 2 2 2 2 2 2 2 2 2 2 2
left_child=1 18 6 8 -5 14 7 -3 -4 -8 12 24 16 -14 21 27 -7 -13 23 26 -21 22 -2 -1 -12 -17 -20 -16 -23
right_child=5 2 3 4 -6 10 9 -9 -10 -11 11 17 13 -15 15 25 -18 -19 19 20 -22 28 -24 -25 -26 -27 -28 -29 -30
leaf_value=0.013324562936222646 -0.0051759561268624492 -0.0019436510328941885 0.02841177191002861 -0.017628003117260069 0.015228416784537286 0.00022932987360360117 -0.014126719504618744 -0.019168129158484426 0.010605501399204856 0.0076036337135224549 0.035855614830507768 -0.019785339027007937 -0.0013620527720087398 0.035773422722633834 0.0031947814845362391 -0.040441660557390693 -0.049731214512845831 0.0067294371089811796 0.05174628761499122 0.022817752734284449 0.0078832165284939259 -0.029656371354137498 -0.027333048104060349 -0.045595547744896998 -0.015749852844486042 -0.00050002226705037913 0.022538415902426556 0.05015833510746235 -0.065248800803050011
leaf_weight=6.852879196405409 41.34132607281208 314.45866203308105 142.23138317465782 146.32243502140045 114.74002400040627 9.846871346235277 70.296840697526932 195.40357418358326 239.19826491177082 316.4513867944479 15.740402132272722 193.1130011677742 727.70483060181141 21.363414525985718 5.0880004912614822 11.120092108845709 18.366391807794571 25.460811465978622 16.685758665204048 162.31394319236279 153.03283868730068 5.3674851506948462 127.51336517930031 6.1635028421878815 5.8767066895961753 21.648147836327553 19.369385570287704 6.0678078979253751 8.967279985547064
leaf_count=29 190 1284 584 594 466 40 285 807 971 1283 65 845 2930 86 22 50 76 109 75 700 654 25 597 25 25 93 85 25 42
internal_value=-3.59087e-05 0.00468317 0.00182207 0.00899377 -0.00316513 -0.00725544 -0.00331573 -0.00857928 0.0173153 0.0036147 -0.00424041 -0.0131249 -0.00147523 -0.000250002 -0.0206631 -0.00272731 -0.0327121 -0.0166574 0.0167151 0.0179624 0.0156339 -0.0248983 -0.0220001 -0.015481 0.0215293 -0.0149987 0.037222 0.0311752 -0.0550507
internal_weight=3148.11 1903.52 1539.1 642.492 261.062 1244.59 896.61 509.862 381.43 386.748 1017.47 240.191 777.282 749.068 227.114 43.924 28.2133 218.574 364.418 351.402 315.347 183.189 168.855 13.0164 21.6171 32.7682 36.0551 11.1558 14.3348
internal_count=13062 7842 6274 2615 1060 5220 3659 2091 1555 1568 4176 1044 3132 3016 1044 190 116 954 1568 1514 1354 854 787 54 90 143 160 47 67
is_linear=0
shrinkage=0.05


Tree=22
num_leaves=29
num_cat=0
split_feature=28 47 26 3 45 10 30 0 6 6 29 4 10 16 15 16 20 15 6 2 0 9 10 0 10 4 1 1
split_gain=38.9028 23.8161 20.5583 29.3226 18.9152 12.6763 11.8576 12.9688 10.9468 10.1777 16.4779 12.2889 10.685 9.94348 9.21714 8.3138 8.06932 7.37825 6.09538 6.047 5.55056 4.51235 6.71283 6.30295 3.8202 3.32371 3.15388 2.40507
threshold=0.066628821330653079 0.038760391546292246 4.1760001182556161 -0.066111519472801153 0.036106539638641418 -0.015605719131643546 0.12958355865498264 0.0032615103534179763 0.20742426319973054 0.27754907301864551 0.39770781042374137 0.13352240738405516 0.096581417688380508 0.075785843382557297 -0.17281731306017487 0.20143481151954953 0.98929798650760248 0.10848486582911535 0.6012439016039115 -0.061533316299076248 0.032652280116254574 1.04102082417925 0.029471781427315252 0.0026728195958384666 -0.045865527034639413 0.31220999993466814 0.0059110902648191379 0.020185433075487584
decision_type=2 2 2 2 2 2 2 2 2 2 2 2 2 2 2 2 2 2 2 2 2 2 2 2 2 2 2 2
left_child=1 18 6 8 9 -5 7 -3 -4 10 15 16 -12 -8 -13 -2 -11 21 19 24 -21 22 -6 -23 -1 -20 -19 -28
right_child=4 2 3 5 17 -7 13 -9 -10 11 12 14 -14 -15 -16 -17 -18 26 25 20 -22 23 -24 -25 -26 -27 27 -29
leaf_value=0.052120747660653825 -0.012456949486538903 -0.0018470702518420886 0.040549605769803841 0.026007564447195271 -0.013135172403741836 0.0083965083677781435 -0.013424643127159894 -0.018264676485078797 -0.024049495868874452 -0.025985827196610883 -0.00072944042153418856 -0.052988708024562993 -0.022056253952877504 0.0072262282383639166 0.010198510625218172 0.030448511403820669 -0.0082683142508926683 -0.061569403000417404 -0.034859543543679018 0.01639363728049836 -0.015668071389112935 -0.020273798106704252 -0.036853473671725999 0.011208321810152484 0.015756261740560856 0.013730352010163675 0.0015760500202101173 -0.038603908393184783
leaf_weight=18.705366343259811 13.222567304968832 314.40977995097637 6.1999507695436469 135.32691518962383 89.398693025112152 422.16468362510204 70.32603757083416 194.87874954938889 77.796145007014275 117.00143331289291 532.93125589191914 5.2142134159803382 65.100718513131142 316.38377505540848 78.787616595625877 57.394693434238434 146.78955675661564 13.230482608079912 8.084849536418913 303.84585927426815 13.204036816954611 31.60270568728447 46.233205556869507 29.93421995639801 14.058933213353155 4.8589652925729743 5.2930681854486457 9.50521571934223
leaf_count=86 53 1284 25 553 417 1720 285 807 317 501 2184 21 271 1283 317 231 598 65 33 1312 55 140 222 131 62 20 25 44
internal_value=-3.50757e-05 0.0044599 0.00173307 0.00856138 -0.00691641 0.0127193 -0.00315417 -0.00816253 -0.0188015 -0.00399575 -0.000375635 -0.0109202 -0.00309233 0.00343288 0.00564025 0.0222832 -0.0162141 -0.0200009 0.0159668 0.0172294 0.0149976 -0.0163869 -0.0214672 -0.00494524 0.0375939 -0.0165843 -0.0438112 -0.0247257
internal_weight=3141.88 1900.24 1537.49 641.488 1241.64 557.492 895.998 509.289 83.9961 1016.44 668.649 347.793 598.032 386.71 84.0018 70.6173 263.791 225.198 362.758 349.814 317.05 197.169 135.632 61.5369 32.7643 12.9438 28.0288 14.7983
internal_count=13062 7842 6274 2615 5220 2273 3659 2091 342 4176 2739 1437 2455 1568 338 284 1099 1044 1568 1515 1367 910 639 271 148 53 134 69
is_linear=0
shrinkage=0.05


Tree=23
num_leaves=30
num_cat=0
split_feature=27 6 45 37 20 20 7 45 6 2 13 16 6 7 44 4 7 22 3 10 22 3 5 6 0 4 7 8 8
split_gain=35.4347 27.2034 36.1129 23.1478 29.0184 17.3319 14.3875 14.2877 13.8343 11.1866 10.8844 10.3392 8.46487 8.23464 8.05652 7.60114 8.75026 7.23792 7.93416 7.00022 6.96916 6.10927 5.96267 5.37677 5.24259 5.06366 4.0841 1.32892 1.29642
threshold=-0.0044591637541260823 0.35680419238075362 0.023623405796304845 -0.0039836913854713876 0.96102471068304207 0.97943221151407711 2.9392544886796617 0.056766602213624957 0.27523460708986291 -0.06471298621739395 9.9542098163455339 0.27657645279171078 0.40194215494052538 4.0850019727908427 0.022188661184999074 -0.025204267950752316 1.5007532199228184 0.45933056416342505 -0.044518547990108785 0.014234416761710023 0.96555020768774324 -0.024432796370861865 0.37784657627511598 0.48886022767739395 0.0060225149278586949 0.17469385233327756 3.1769470053925439 3.4888445042997511 2.20397638755786
decision_type=2 2 2 2 2 2 2 2 2 2 2 2 2 2 2 2 2 2 2 2 2 2 2 2 2 2 2 2 2
left_child=5 2 17 4 25 15 8 10 11 22 -4 -7 -11 -6 19 26 28 21 -19 -8 -10 -2 -5 -18 -9 -3 27 -1 -17
right_child=1 3 7 9 13 6 14 24 20 12 -12 -13 -14 -15 -16 16 23 18 -20 -21 -22 -23 -24 -25 -26 -27 -28 -29 -30
leaf_value=-0.02656953482259691 0.01666721622410744 -0.041811159046769492 0.0044528842546579604 0.01355003509596964 -0.011911605170706975 0.0040494933028400728 0.011282671982395989 -0.024008138568436671 -0.024102277206480113 -0.0017425709513768169 -0.054324642107961743 -0.0089419544005496353 0.029146919911994626 0.0099731571021365543 0.061947391182440283 -0.021257219560399807 -0.0075908582965244749 0.032237747909898633 0.008969009244035429 -0.006885890574954103 0.020208880525291673 0.033657771370008104 -0.034049591208149592 -0.034823373299694579 0.00077222662507837457 -0.017573469988360062 -0.0039477022865216484 -0.054831089764185374 -0.057673023975447817
leaf_weight=10.137605458498003 111.53688296675682 77.80277855694294 883.46895395219326 9.3850305527448672 94.133334279060364 247.30869700014591 158.9866613894701 66.227534398436546 132.26575177907944 33.015839844942093 6.9400109797716132 397.65757963061333 64.144094422459602 77.299491107463837 5.477461412549018 5.7766460031271007 148.11625409126282 43.548256322741508 223.69275067746639 78.123561814427376 8.6447994112968427 110.37688183784485 17.354304388165474 20.038226634263992 30.619663581252098 33.861038893461227 7.2271181195974341 21.056882202625275 11.617871835827826
leaf_count=51 481 329 3589 38 395 1003 645 309 542 134 28 1614 260 321 22 29 675 186 940 317 35 479 71 90 139 141 33 105 61
internal_value=-3.67226e-05 0.00429513 0.00745107 -0.00713126 -0.0150117 -0.00655316 -0.00379309 0.00193524 -0.00708033 0.0108106 0.00392872 -0.00395416 0.0186886 -0.0020141 0.00682096 -0.0191319 -0.0147484 0.0185468 0.0128855 0.00527168 -0.0212253 0.0252536 -0.0172765 -0.0110523 -0.0161945 -0.0347269 -0.0392628 -0.0469125 -0.0476644
internal_weight=3135.84 1883.41 1476.41 406.996 283.097 1252.44 1028.46 987.256 785.877 123.899 890.409 644.966 97.1599 171.433 242.588 223.971 185.549 489.155 267.241 237.11 140.911 221.914 26.7393 168.154 96.8472 111.664 38.4216 31.1945 17.3945
internal_count=13062 7840 6151 1689 1186 5222 4178 4065 3194 503 3617 2617 394 716 984 1044 855 2086 1126 962 577 960 109 765 448 470 189 156 90
is_linear=0
shrinkage=0.05


Tree=24
num_leaves=31
num_cat=0
split_feature=27 6 45 37 20 20 12 15 37 11 15 22 3 10 16 22 15 12 25 0 16 15 5 8 12 0 2 8 16 22
split_gain=32.0874 24.637 32.8661 20.9657 26.4875 15.9617 13.3296 13.2528 19.217 10.6827 11.9393 10.2491 9.9884 8.6268 12.2178 9.45909 7.09014 6.95216 8.62628 6.84049 6.41719 6.02489 6.00547 5.70633 5.58875 5.14631 4.1117 5.39336 2.93805 0.934462
threshold=-0.0044591637541260823 0.35680419238075362 0.023623405796304845 -0.0039836913854713876 0.96102471068304207 0.97943221151407711 -0.5274776522266228 -0.0016425073476561798 -0.0076512782455780961 -1.3737641432845444 0.029821452442284398 0.28612374819601044 0.21687919402503389 0.03734454228419775 0.30630720944720652 0.72822941620330706 0.081483125344597743 2.7127671815094465 0.50528384763029688 0.0049810775313436683 0.82104274540551392 0.052772769370996384 0.1790289400583456 2.9304965964811598 0.98687018615459843 0.0048227349455545613 0.057852450068079507 3.969185635662603 0.82460248060638042 0.8392343025428014
decision_type=2 2 2 2 2 2 2 2 2 2 2 2 2 2 2 2 2 2 2 2 2 2 2 2 2 2 2 2 2 2
left_child=5 2 9 4 24 17 19 8 -4 23 -11 -9 13 15 -15 -7 25 26 28 -5 -8 -6 -20 -2 -3 -14 27 -1 -19 -28
right_child=1 3 7 6 21 12 20 11 -10 10 -12 -13 16 14 -16 -17 -18 18 22 -21 -22 -23 -24 -25 -26 -27 29 -29 -30 -31
leaf_value=-0.036259536931436381 0.0042770070749882112 -0.044484653707956685 -0.0048358290585837974 0.0017094172166909672 -0.0081392322917624889 -0.0043609910893231069 0.017546206163467606 -0.016583587898025959 0.015167669941524778 0.018806096681130369 -0.0022051892891518324 0.00014753694458483361 -0.023252443429123654 0.0045317657416322401 -0.019854695848166112 0.010167635518187411 0.075201957595174382 -0.028989650113561794 -0.024904082617358887 -0.039013138774884874 0.0610813679448233 0.012041472199114438 0.013543603007323738 0.030630595235848709 -0.021138938616048569 0.028446434242575376 -0.062364726409917665 -0.01267212651601189 0.004059219699448207 -0.026133846451294615
leaf_weight=42.352314069867134 24.469389379024506 55.85028350353241 193.89050072431564 38.128555670380592 119.08135817945004 624.75266660749912 63.22112825512886 121.49938739836216 311.39761039614677 202.23448766767979 100.42484207451344 359.73384742438793 6.1818941533565583 72.417602524161339 170.56245072185993 135.3612294793129 4.9748627543449393 41.300034791231155 12.166537195444105 12.99327616393566 9.3155636489391309 52.365316346287727 43.107182130217552 159.96840326488018 55.140144214034081 13.661857068538664 9.089531868696211 61.208093076944351 7.4194167107343665 5.7036208957433692
leaf_count=209 106 239 818 155 498 2537 257 500 1266 861 424 1481 25 295 697 549 20 194 58 53 38 218 188 695 231 55 45 290 34 26
internal_value=-3.86475e-05 0.00408776 0.0070937 -0.00679838 -0.0143082 -0.00624485 0.0102912 0.00183553 0.00748761 0.0177073 0.0118336 -0.00409192 -0.00360248 -0.00439305 -0.0125773 -0.0017572 0.0270891 -0.0183673 -0.00873978 -0.00909474 0.0239598 -0.00191232 0.0046997 0.0272031 -0.0332234 0.011758 -0.0266407 -0.0226208 -0.0238757 -0.0512515
internal_weight=3129.97 1879.71 1473.62 406.096 282.437 1250.26 123.659 986.521 505.288 487.097 302.659 481.233 1027.91 1003.09 242.98 760.114 24.8186 222.347 103.993 51.1218 72.5367 171.447 55.2737 184.438 110.99 19.8438 118.354 103.56 48.7195 14.7932
internal_count=13062 7840 6151 1689 1186 5222 503 4065 2084 2086 1285 1981 4178 4078 992 3086 100 1044 474 208 295 716 246 801 470 80 570 499 228 71
is_linear=0
shrinkage=0.05


Tree=25
num_leaves=25
num_cat=0
split_feature=27 8 13 35 47 12 4 20 18 7 8 18 15 4 35 4 7 0 9 0 16 27 15 16
split_gain=29.0549 21.3111 21.8443 19.5401 17.555 15.5666 14.7434 15.7677 12.1597 9.64763 13.5003 7.63988 7.22492 6.59689 6.35484 6.22086 7.48272 5.39762 5.18577 4.48387 4.01199 3.53615 2.67555 0.422955
threshold=-0.0044591637541260823 12.875816981862535 9.9542098163455339 0.0026179583670175037 0.046062624144851246 3.5389528879146055 0.49215717105130252 0.97943221151407711 16.245000839233402 2.9392544886796617 2.7531304079763141 18.630000114440922 -0.024462217287649225 0.12753296227237224 0.019995835870768145 -0.025204267950752316 1.5007532199228184 -0.0052551417376507491 0.95854601228979774 0.01646827213166514 0.025176935706947224 0.016611772075093349 -0.017012963065820907 0.62563743325658827
decision_type=2 2 2 2 2 2 2 2 2 2 2 2 2 2 2 2 2 2 2 2 2 2 2 2
left_child=6 2 3 5 -5 -2 7 15 12 10 -9 19 -3 -4 -11 20 -17 -8 -13 -10 -1 -14 -19 -24
right_child=1 8 13 4 -6 -7 17 9 11 14 -12 18 21 -15 -16 16 -18 22 -20 -21 -22 -23 23 -25
leaf_value=0.0050588485157896492 0.0090311044588485163 -0.028455645575580196 -0.06711152386535929 0.010439792283329093 -0.001734425357196632 0.02971383730815504 -0.0072830270002574478 0.0047361803837128701 -0.041984604659772287 -0.0034591563751874437 -0.010440992034544913 0.0088837176321701124 0.067776437993137803 -0.0032273364455124493 0.013190805450941749 -0.045815436884261825 -0.011347257052384962 0.017219421128737707 -0.022940444706634474 -0.006268354596717398 -0.043257167474580679 0.016018719673820164 0.079042594311684602 0.036615329617761393
leaf_weight=4.4871080219745627 332.25737263262272 5.1953356713056591 12.321972325444223 466.40371479094028 806.0128780156374 125.75418666005135 5.4260346889495876 193.90739028155804 45.341242596507072 111.41920921206474 587.64764322340488 23.42977549135685 4.7057388424873343 6.194050431251525 115.52721920609474 16.784830525517464 163.8803975880146 6.2116458714008393 25.817098751664162 11.748570561408995 32.898213610053062 10.895476296544073 4.9273516088724083 4.9392968118190765
leaf_count=22 1392 21 51 1961 3343 537 22 786 192 452 2395 96 20 26 469 90 754 25 107 50 167 44 20 20
internal_value=-3.83313e-05 0.00389218 0.00533369 0.00592628 0.0027288 0.0147731 -0.00594906 -0.00668328 -0.0157861 -0.00403143 -0.00666784 -0.0226269 0.0183962 -0.0472573 0.00501527 -0.0188511 -0.0148116 0.0341429 -0.00782474 -0.034955 -0.0373471 0.0350736 0.0480237 0.0635875
internal_weight=3124.13 1876.08 1748.94 1730.43 1272.42 458.012 1248.06 1226.55 127.133 1008.5 781.555 106.337 20.7966 18.516 226.946 218.051 180.665 21.5043 49.2469 57.0898 37.3853 15.6012 16.0783 9.86665
internal_count=13062 7840 7310 7233 5304 1929 5222 5135 530 4102 3181 445 85 77 921 1033 844 87 203 242 189 64 65 40
is_linear=0
shrinkage=0.05


Tree=26
num_leaves=28
num_cat=0
split_feature=28 47 8 13 24 3 45 4 16 10 3 2 38 5 3 0 10 3 17 0 18 4 17 4 44 5 14
split_gain=26.5584 16.9546 15.0239 18.3742 14.7816 15.2276 14.5871 13.3715 13.1915 12.662 12.223 11.6847 10.6075 9.21399 10.9858 9.01304 8.66485 13.2742 12.6263 5.15457 5.04332 4.96861 4.57831 4.23426 3.92376 3.89742 3.83632
threshold=0.066628821330653079 0.073850058736983429 9.7578034973304622 10.257717888669967 0.16363559775243039 0.031403606759071605 0.036106539638641418 -0.033071543983612013 0.85177731640033427 0.015216071842485168 0.14054024411662636 0.040792906388678191 1.0000000180025095e-35 0.41539792921251467 0.12816897521965184 -0.010983734921455711 0.035534692752936768 0.17555573815339823 0.042891795235390669 -0.019780919972684132 15.569999694824221 0.057932375967151055 0.075327935841205632 0.53809921985739562 0.010672209686384717 0.15692511258033279 -0.096350191510802957
decision_type=2 2 2 2 2 2 2 2 2 2 2 2 2 2 2 2 2 2 2 2 2 2 2 2 2 2 2
left_child=1 2 3 12 5 7 13 -3 -7 11 19 -4 -1 16 21 -11 18 -18 -2 -6 -16 -15 -12 24 -8 -26 -5
right_child=6 4 9 26 10 8 23 -9 -10 15 22 -13 -14 14 20 -17 17 -19 -20 -21 -22 -23 -24 -25 25 -27 -28
leaf_value=0.0141939391190831 -0.00022883846379456393 0.039396434813760046 -0.004287867353207425 -0.074385155718185769 0.0063788942704590236 0.06565087731874969 0.024510130781800022 -0.023185573700063494 -0.015173955201730935 0.011564644821124646 0.027116697850840438 0.029237864336406384 0.0048843787309514287 -0.03328367069178588 0.051365484250918483 -0.029254552654538232 -0.012890326780002221 0.046417969673874925 0.033510512864151708 -0.016219670469007165 -0.00080512106990076259 -0.0066044994454704971 -0.005206238240208251 0.025383586283431816 -0.028543237240905441 -0.014082570590741961 -0.013577938880128966
leaf_weight=530.4072932600975 661.71396236121655 11.355458423495291 116.93266102671623 6.6445914506912231 27.199815839529037 18.889393672347072 4.2761690020561209 26.543303042650223 6.2034843415021887 16.131787493824959 26.170503780245781 32.304971814155579 731.00897917151451 57.715149521827698 5.6018927097320583 66.493974238634109 208.58324480056763 8.8799460381269437 27.930415585637093 248.94785918295383 14.823049202561377 26.392211124300957 17.51362681388855 4.7159720659255973 76.785448759794235 133.84535901248455 5.0875272750854474
leaf_count=2278 2718 46 490 27 112 76 20 108 25 66 107 133 2984 246 23 274 872 36 113 1024 60 108 71 20 378 626 21
internal_value=-3.6664e-05 0.00368713 0.00607802 0.00821087 -0.00569063 0.0162459 -0.00574859 -0.00377509 0.0456619 -0.00559683 -0.0100638 0.00308236 0.00881102 -0.00319854 -0.0171871 -0.0211823 -0.00156388 -0.0102442 0.0011769 -0.0139607 0.0149998 -0.0251467 0.0142195 -0.0174044 -0.0184797 -0.0194878 -0.0515468
internal_weight=3119.1 1887.84 1505.01 1273.15 382.823 62.9916 1231.26 37.8988 25.0929 231.863 319.832 149.238 1261.42 1011.64 104.532 82.6258 907.108 217.463 689.644 276.148 20.4249 84.1074 43.6841 219.623 214.907 210.631 11.7321
internal_count=13062 7842 6273 5310 1569 255 5220 154 101 963 1314 623 5262 4176 437 340 3739 908 2831 1136 83 354 178 1044 1024 1004 48
is_linear=0
shrinkage=0.05


Tree=27
num_leaves=31
num_cat=0
split_feature=28 35 47 0 16 3 6 3 22 3 45 16 2 3 3 6 7 6 7 14 16 28 26 15 14 2 14 15 1 1
split_gain=24.0015 15.9558 18.4449 17.7338 17.2745 17.6638 15.5013 15.0904 18.1867 14.5935 13.3182 10.4372 10.4369 10.2824 8.75193 8.74841 17.9795 11.4587 10.0607 9.1636 9.10729 8.74783 8.56913 7.13915 5.55315 4.35068 7.32764 6.72814 3.15228 2.45064
threshold=0.066628821330653079 0.013967943265584927 0.046062624144851246 -0.0018395152666201588 0.71902049347427466 0.037342781515685618 0.15787206909507898 1.0000000180025095e-35 0.47464158296887254 0.051121233778810185 0.036106539638641418 0.021520314043842203 -0.056051182483615881 0.036682848020553452 -0.0039919804297388227 0.27754907301864551 2.1890493745211295 0.18078966113720982 2.0914814578773844 -0.24828296180945955 0.90234839495194186 0.053163462302067928 4.2400000095367441 0.10848486582911535 -0.031524229331951502 -0.059806768136636983 -0.079850189904180677 0.07993109131315386 0.0059110902648191379 0.020185433075487584
decision_type=2 2 2 2 2 2 2 2 2 2 2 2 2 2 2 2 2 2 2 2 2 2 2 2 2 2 2 2 2 2
left_child=1 7 4 6 5 -3 -4 12 11 -10 15 -9 22 -5 -14 16 17 -2 24 -18 -20 -6 -1 25 -17 26 -12 -27 -25 -30
right_child=10 2 3 13 21 -7 -8 8 9 -11 23 -13 14 -15 -16 18 19 -19 20 -21 -22 -23 -24 28 -26 27 -28 -29 29 -31
leaf_value=-0.0019433288451472495 0.0032243094663418101 0.010448004570874794 0.036917669523345402 -0.016123749633550764 0.0080081140218296997 -0.012844612259629738 0.0016849054186333983 -0.00067357897832365145 -0.0074263401863942247 0.0229838029894949 0.057736242704587007 0.043087970903467658 0.010789963665426708 -0.0022929382875969814 -0.030122531891012622 -0.060146541321818417 0.0668114555286205 -0.012027785846338353 -0.0087032103505191426 0.011419558420896793 0.04091930145994413 0.036673508420987884 -0.043568587782906731 -0.058757145430136985 -0.0035632449921448334 -0.017307894777784074 -0.017801587623462862 0.024191707346634634 0.0048733414148031708 -0.035914158612742747
leaf_weight=34.31722055375576 238.71679635345936 266.29609045386314 33.642631277441978 269.73655633628368 45.052522644400597 115.94451266527176 321.35252159833908 15.913285613059996 72.986946359276772 83.466221109032631 4.7248572707176208 84.265203267335892 172.44061563909054 269.49898774921894 13.124858185648916 13.622962072491648 6.9296207278966895 251.78395421802998 316.12560440599918 168.53813065588474 8.5155026912689191 68.559754803776741 18.660629823803902 12.42447851598263 6.6275910586118689 170.81886887550354 6.3895301818847638 9.4038398414850217 5.1196985542774192 9.1917948722839338
leaf_count=141 981 1126 136 1109 192 478 1313 69 307 353 21 364 724 1102 56 60 28 1045 1313 685 35 295 77 65 29 815 29 45 25 44
internal_value=-3.3733e-05 0.00350804 0.000756195 -0.0035281 0.0084842 0.00335456 0.00513226 0.011206 0.0195994 0.00880835 -0.00546953 0.0361491 0.00211119 -0.00923769 0.00772352 -0.00303798 0.000304857 -0.00460327 -0.00948951 0.0140017 -0.00726457 0.025519 -0.0172333 -0.0166526 -0.0429024 -0.0130924 0.0160129 -0.0149934 -0.0405607 -0.0216312
internal_weight=3114.19 1885.26 1390.08 894.231 495.853 382.241 354.995 495.175 256.632 156.453 1228.93 100.178 238.543 539.236 185.565 1010.86 665.969 490.501 344.892 175.468 324.641 113.612 52.9779 218.073 20.2506 191.337 11.1144 180.223 26.736 14.3115
internal_count=13062 7842 5751 3660 2091 1604 1449 2091 1093 660 5220 433 998 2211 780 4176 2739 2026 1437 713 1348 487 218 1044 89 910 50 860 134 69
is_linear=0
shrinkage=0.05


Tree=28
num_leaves=31
num_cat=0
split_feature=27 8 13 35 9 3 7 19 19 10 35 0 0 5 17 2 24 0 0 24 19 17 9 25 0 14 7 24 14 2
split_gain=22.2539 18.4014 18.4977 15.2447 16.898 16.243 12.3239 10.8652 10.763 10.6956 12.1043 10.5149 9.38864 12.9009 9.02884 8.88195 8.65473 7.22818 10.839 9.46752 7.05657 6.8446 4.59167 4.56032 4.15815 4.05674 3.52729 2.85559 2.52643 1.45033
threshold=-0.0044591637541260823 12.875816981862535 9.9542098163455339 0.0026179583670175037 1.0231296884140118 0.035285448417993859 3.0008214233164208 29.638361127885911 26.523870417732315 0.013886299360728776 0.019995835870768145 -0.016459981913510089 -0.007127610226464666 0.096006449631474269 -0.014597278409824997 -0.072214230562749879 0.52727229438180856 0.013357389834433056 0.019549197427571566 0.79138736877577787 64.727681742836864 -0.0013965290503467618 0.95854601228979774 0.73583161080761861 0.01646827213166514 -0.023846267727995592 4.0085566637058996 0.091866112832685018 -0.052676033468541723 0.11352787661008507
decision_type=2 2 2 2 2 2 2 2 2 2 2 2 2 2 2 2 2 2 2 2 2 2 2 2 2 2 2 2 2 2
left_child=6 2 3 5 -5 -2 8 25 11 17 21 14 15 -14 -1 -10 -13 19 -19 -8 24 -11 -22 -12 -9 29 -27 -4 -29 -3
right_child=1 7 27 4 -6 -7 9 20 12 10 23 16 13 -15 -16 -17 -18 18 -20 -21 22 -23 -24 -25 -26 26 -28 28 -30 -31
leaf_value=-0.0075651337319143086 0.0068602273879061273 0.014673604293518239 -0.075470128276181409 -0.0022867381054465009 0.0094570041857228344 0.027446818823676972 0.024228444783723352 -0.040133831661106206 0.035610466923565523 0.012196270314737311 0.00044587358178473769 -0.0096474597263423167 -0.023003820921887404 0.0044715327323424552 0.055328683502160726 -0.020527309756673787 -0.024056843539182693 0.056620191164788759 0.011600483153439462 -0.0066794863581338395 0.0085224923596556937 -0.030758218739841012 -0.02144397649583538 0.03831168863210261 -0.005677107163138408 0.02293162177617307 -0.030205202108454871 -0.042251412159206858 0.00093868712794831005 0.05647329229975865
leaf_weight=12.276997506618502 316.40069286525249 5.3162413388490695 4.7730057537555721 752.58862547576427 514.70023812353611 137.72438988089561 35.45637084543705 44.903065800666809 6.6690918654203406 10.618985936045645 23.138627126812935 303.43144044280052 47.918462589383125 335.68056744337082 9.1646828949451429 90.868540316820145 161.5157386213541 17.651717513799667 51.483579412102699 76.11018867790699 23.407309278845787 49.12843169271946 25.741495922207832 11.357286930084227 11.704111143946646 5.1007324308156949 5.3628676980733871 8.9351181238889694 4.7345204204320881 4.9046647846698761
leaf_count=51 1333 22 20 3161 2143 596 146 192 27 45 94 1339 193 1354 38 367 708 73 215 315 96 211 107 46 50 21 22 37 20 20
internal_value=-3.13163e-05 0.00341812 0.00476123 0.00530866 0.00248265 0.0131612 -0.00521527 -0.0149166 -0.0078699 0.00410285 -0.00945958 -0.01311 -0.00254606 0.000975475 0.0203619 -0.0163157 -0.0147047 0.0112169 0.0238097 0.00322676 -0.0214023 -0.0229665 -0.00718727 0.0137816 -0.0333186 0.0174708 -0.00412541 -0.0437224 -0.0279073 0.0384227
internal_weight=3108.77 1866.3 1739.86 1721.41 1267.29 454.125 1242.47 126.44 967.526 274.945 94.2433 486.389 481.137 383.599 21.4417 97.5376 464.947 180.702 69.1353 111.567 105.756 59.7474 49.1488 34.4959 56.6072 20.6845 10.4636 18.4426 13.6696 10.2209
internal_count=13062 7840 7310 7233 5304 1929 5222 530 4077 1145 396 2136 1941 1547 89 394 2047 749 288 461 445 256 203 140 242 85 43 77 57 42
is_linear=0
shrinkage=0.05


Tree=29
num_leaves=28
num_cat=0
split_feature=27 6 45 47 27 4 20 7 23 11 18 30 4 7 24 12 12 36 7 12 5 35 17 0 36 7 10
