tree
version=v4
num_class=1
num_tree_per_iteration=1
label_index=0
max_feature_idx=47
objective=binary sigmoid:1
feature_names=ret_1d ret_5d ret_10d ret_21d ret_63d vol_5d vol_21d atr_pct_14 bb_width volume_ratio_20d obv_slope_10d dist_ma20_pct dist_ma50_pct dist_ma200_pct autocorr_lag1 autocorr_lag5 trend_strength_10d mean_reversion_5d vix_level vix_percentile vix_ma20_ratio vix_ret_5d rank_ret_5d rank_ret_21d rank_vol_21d rank_volume_ratio macro_tnx_close macro_tnx_ret_21d macro_sp500_ret_63d macro_sp500_breadth_ratio macro_sp500_vol_21d macro_svix_ret_5d fred_yield_curve_10y2y fred_high_yield_oas fred_fed_funds_rate macro_gold_ret_5d macro_gold_ret_21d macro_oil_ret_5d macro_oil_ret_21d macro_em_ret_5d macro_smallcap_ret_5d macro_usd_ret_5d sector_rank sector_momentum_5d sector_momentum_21d leading_sector_momentum lagging_sector_momentum sector_dispersion
feature_infos=[-0.19679953235908143:0.31832011230022761] [-0.46720457444288715:0.55821646360070731] [-0.49109210118416835:0.69313935643573632] [-0.51425149578772145:1.3020269272941065] [-0.56443296575904833:4.5834798134049901] [0.0059484506831673336:4.0845114863728762] [0.015977444747356927:2.0399484470642015] [0.16880220311200536:19.561042684975479] [0.16129934640347376:68.142708416624714] [0.19368567364120048:11.109583536030796] [-0.41288654876581449:0.42067346088788909] [-42.360794162978607:51.463322400610458] [-47.183682007432793:93.006523547698734] [-27.429414330899927:38.751101235586823] [-0.54135290158962379:0.36380251072874736] [-0.44710989442344456:0.38334825675128137] [3.6904348405284043e-09:0.98690869531534242] [-0.48603554792132753:0.49181902969757541] [14.079999923706055:23.430000305175781] [0.4784688995215311:87.378640776699029] [0.85299729424632742:1.3133640416423635] [-0.26419122720584093:0.3009009215415272] [0.0019120458891013384:1] [0.0019120458891013384:1] [0.0019120458891013384:1] [0.0019193857965451055:1] [3.996999979019165:4.249000072479248] [-0.041946297985740122:0.043259479342043994] [-0.0020229132275417783:0.11671225062460433] [0.15708812260536398:0.8869731800766284] [0.059067036012996912:0.15317552374761473] [-0.12828953766426343:0.15244597934052817] none none none [-0.10893323185833348:0.097633822168018636] [-0.051683743526417136:0.24410433091589101] [-0.06894310296067474:0.10192146652642964] [-0.089837981860244276:0.13690559827232196] none [-0.032705562726421555:0.045360003295255469] none [0:1] [-0.076530200912763857:0.073218486155716356] [-0.075144831042069704:0.14851062855821984] [0.00089708696551715761:0.073218486155716356] [-0.076530200912763857:0.0043981157305275076] [0.023965050969824153:0.13485238617654083]
tree_sizes=3435 3226 3447 2928 3361 3456 2914 3108 3460 3455 3131 3337 3461 3342 3429 3228 3422 3332 3449 3469 3446 3467 3033 3456 2837 3253 3346 3217 2612 3240 2784 3223 3442 2898 3350 3329 3463 3259 3102 3139 3231 2815 2845 2591 2600 2935 2700 1841 2793 3153 2929 3468 2916 2811 2832 2794 2284 2269 3132 3138 1733 1647 3449 2706 3155 1756 3139 1629 2592 2936 2934 3359 3134 2174 1650 3355 2458 3440 2045 2281 2172 1944 3357 2267 3467 3346 3243 3251 2047 3048 2688 3448 1634 2398 2928 2998 2901 1959 2607 2161 3453 2481 2309 2386 2925 2611 2071 3030 2811 2078 1739 1857 3481 3134 3449 1810 3073 2598 2272 2932 2719 2075 1943 3224 3116 1753 2841 2277 1291 3250 3492 1434 2812 1642 2395 3038 1533 2390 1758 1971 2182 2736 1951 1532 1754 3474 3362 3037 1417 1970 2069 1534 2834 1966 1440 3453 2582 1754 2270 1966 1927 1969 2392 1657 3247 2062 2669 1329 2071 2471 2389 2709 2927 2592 3149 2930 3034 2071 1933 2453 1948 2921 3376 3025 2276 2618 3470 2551 2350 2340 1737 2377 2487 3025 1844 2813 3148 2495 1960 2780

Tree=0
num_leaves=31
num_cat=0
split_feature=31 28 37 27 40 0 7 8 12 24 20 4 20 22 3 25 1 20 7 7 16 16 24 5 4 9 16 8 15 8
split_gain=356.854 145.435 105.619 114.369 75.9689 34.0336 26.9217 26.8118 26.4683 22.9085 20.3004 19.1604 20.2465 29.6608 19.988 16.7394 16.3903 16.2831 22.6781 16.2783 13.7841 12.9248 11.9201 11.7075 8.50993 6.47825 5.72428 5.20807 4.51701 2.04943
threshold=-0.037113328274618267 0.031406637422331414 -0.035786824137375321 -0.037582708797382895 0.02045447623527508 -0.010539756385011905 2.5637855844497643 7.0196804228391718 0.62133119273913573 0.85645919869892984 1.0108255560270709 0.015126869846340258 1.1931749718519615 0.70334901064445476 -0.055579202567055307 0.60903034106009168 0.055182408690550473 1.1931749718519615 3.8243330017379509 1.5372028716795556 0.57791585201193996 0.8439270223497316 0.17511886185651601 0.31592679312605804 0.34686603125624943 0.7819127420710793 0.31028041477524199 11.162468771386521 0.1072908627158194 10.754963555163927
decision_type=2 2 2 2 2 2 2 2 2 2 2 2 2 2 2 2 2 2 2 2 2 2 2 2 2 2 2 2 2 2
left_child=9 5 15 8 -5 7 19 28 -4 11 -8 12 14 -14 -1 21 27 23 26 -7 -18 -3 -17 -11 -9 -20 -19 -13 -2 -25
right_child=1 2 3 4 -6 6 10 24 -10 17 -12 16 13 -15 -16 22 20 18 25 -21 -22 -23 -24 29 -26 -27 -28 -29 -30 -31
leaf_value=-0.051698591269852316 0.046476890345192721 -0.064790757633918214 -0.049097787585698174 -0.017407849964021446 0.0064712349860905549 -0.013726628115855007 0.028786885649225668 -0.0043636122792111778 -0.026189192508870987 0.02310884782619816 -0.026699235523589122 0.051883377566412148 0.042243233902568553 -0.009560725736249432 0.016416370688091587 0.0039773506921788543 0.053617282136047717 -0.001256037841563932 -0.014396174235339683 0.017652565015121753 -0.018910783051760683 -0.016712176619482804 -0.041084933349875001 -0.030334291478426697 0.052449898563805039 0.044015910550110525 -0.060592147514946876 0.0049940328931861446 -0.00045888390225794478 -0.07597143301917092
leaf_weight=14.499812453985212 95.498764783143997 142.99815040826797 222.49712213873863 913.73818136751652 522.74323864281178 52.749317720532417 18.499760717153549 57.499256283044815 299.7461229711771 5.4999288618564632 105.74863220751286 190.49753603339195 140.49818274378777 33.999560236930847 34.249557003378868 16.999780118465424 9.2498803585767764 6.9999094605445844 4.9999353289604178 180.49766537547112 17.249776884913445 16.249789819121361 84.998900592327118 6.2499191612005216 6.4999159276485434 36.749524667859077 7.749899759888649 6.9999094605445853 5.9999223947525016 7.2499062269926071
leaf_count=58 382 572 890 3655 2091 211 74 230 1199 22 423 762 562 136 137 68 37 28 20 722 69 65 340 25 26 147 31 28 24 29
internal_value=-0.00719593 -0.0144147 -0.020004 -0.016006 -0.00871118 0.00927981 0.00054093 0.027967 -0.0360202 0.0306243 -0.0181765 0.034926 0.0242441 0.0321652 -0.00443127 -0.0498123 0.0453629 0.00485867 0.0182884 0.0105372 0.00751461 -0.060006 -0.0334904 -0.0341045 0.0023123 0.0368987 -0.033526 0.0503164 0.0438439 -0.0582409
internal_weight=3265.71 2742.96 2219.97 1958.72 1436.48 522.993 357.495 165.498 522.243 522.743 124.248 447.244 223.247 174.498 48.7494 261.247 223.997 75.499 56.4993 233.247 26.4997 159.248 101.999 18.9998 63.9992 41.7495 14.7498 197.497 101.499 13.4998
internal_count=13063 10972 8880 7835 5746 2092 1430 662 2089 2091 497 1789 893 698 195 1045 896 302 226 933 106 637 408 76 256 167 59 790 406 54
is_linear=0
shrinkage=1


Tree=1
num_leaves=29
num_cat=0
split_feature=31 37 27 38 29 0 23 24 8 4 1 18 6 1 18 25 5 16 16 9 24 23 0 24 24 9 8 8
split_gain=322.314 131.4 153.941 98.6745 56.2933 26.6353 25.4049 21.0007 20.7056 18.4635 18.4104 28.0111 17.343 16.8975 16.0412 15.1554 12.548 11.8825 11.6773 11.6301 10.7945 12.5841 8.5164 7.40982 6.95831 6.32376 6.09005 5.44271
threshold=-0.037113328274618267 -0.035786824137375321 -0.037582708797382895 -0.017976485426242302 0.35999762852294037 -0.010125589891937238 0.50813352087499919 0.89473674571254858 14.527700955643411 0.015126869846340258 -0.013037499876817533 21.239999771118168 0.21951232472267371 0.055182408690550473 21.239999771118168 0.60903034106009168 0.18398272966440676 0.57791585201193996 0.8439270223497316 0.7819127420710793 0.17511886185651601 0.45837270975729477 -0.0078970452918734266 0.91004776451799607 0.03444979231225688 0.87016305694498419 11.018311014430408 4.3037434684605724
decision_type=2 2 2 2 2 2 2 2 2 2 2 2 2 2 2 2 2 2 2 2 2 2 2 2 2 2 2 2
left_child=7 15 6 5 -5 -4 8 9 -3 10 11 -1 -8 27 26 18 -12 -15 24 -16 21 -17 -22 -21 -2 -20 -9 -11
right_child=1 2 3 4 -6 -7 12 14 -10 13 16 -13 -14 17 19 20 -18 -19 25 23 22 -23 -24 -25 -26 -27 -28 -29
leaf_value=-0.0058132638781931822 0.0018669681402259707 -0.041700621490096658 0.049780924190229413 0.013892684762370641 -0.0079588258919651208 0.018414396339622149 0.0008512299737121735 0.00028543998014272514 0.017587412045579103 0.065421432753914641 -0.012514673594368367 0.052241659798269252 -0.025962835134366966 0.052909909502077239 -0.029876739106655309 -0.034881472491719315 0.024895047319913377 -0.011973097016313099 -0.029438590451799914 -0.015304575441752486 -0.0044835834192540691 0.046963098877174494 -0.041328386477063127 0.045059621725141441 -0.056880088775430875 0.033198253768442217 -0.063900006625328354 0.046836136484646518
leaf_weight=25.241426482796669 4.9947562813758841 249.87967179715633 87.467172876000404 392.22299037873745 1175.1571421921253 304.48246605694294 94.979081556200981 5.998413532972334 14.991179138422011 80.196063116192818 32.493585705757141 108.20194731652737 162.21464410424232 10.242998123168947 7.7481609880924216 7.4999704957008388 66.982468456029892 17.997965693473816 11.249214783310892 5.4970375150442115 21.490929543972015 9.4999626278877241 63.473210513591766 28.237206757068634 137.85527336597443 4.9996510148048392 7.9910837411880493 125.67205058038235
leaf_count=101 20 1000 350 1569 4701 1218 380 24 60 321 130 433 649 41 31 30 268 72 45 22 86 38 254 113 552 20 32 503
internal_value=0 -0.00685893 -0.00329926 0.00313026 -0.00248212 0.0255357 -0.0273989 0.0359539 -0.0382727 0.0394053 0.0291579 0.0412616 -0.0160764 0.0494119 0.00662425 -0.0405327 0.0126226 0.0123936 -0.0502398 0.0222826 -0.024997 0.0106456 -0.0322276 0.0349218 -0.0547925 -0.00906852 -0.037862 0.0543815
internal_weight=3264.96 2742.46 2481.39 1959.33 1567.38 391.95 522.065 522.5 264.871 467.029 232.919 133.443 257.194 234.109 55.4719 261.063 99.4761 28.241 159.099 41.4824 101.964 16.9999 84.9641 33.7342 142.85 16.2489 13.9895 205.868
internal_count=13063 10972 9927 7838 6270 1568 2089 2091 1060 1869 932 534 1029 937 222 1045 398 113 637 166 408 68 340 135 572 65 56 824
is_linear=0
shrinkage=0.05


Tree=2
num_leaves=31
num_cat=0
split_feature=31 37 37 45 38 6 1 25 3 24 4 1 26 25 7 2 8 5 16 24 23 0 4 11 6 24 2 9 8 3
split_gain=291.487 118.978 95.531 88.4472 60.7509 60.3905 27.6758 22.351 19.8294 19.2597 15.709 16.9154 28.4916 13.7514 13.6719 13.5659 13.9276 12.0692 10.6117 9.78191 11.4902 7.70884 7.62352 11.1575 6.4019 6.33077 6.17541 5.81883 4.18354 1.01882
threshold=-0.037113328274618267 -0.035786824137375321 0.00091361855991400908 0.024485553935474583 -0.012392322420056777 0.28466321883661866 0.019620385491751852 0.36215118854274331 0.016977846704241319 0.85645919869892984 0.015126869846340258 -0.013037499876817533 4.2084999084472665 0.60903034106009168 5.5150149136015658 0.077646122052319674 7.6393244310690358 0.30206353456814816 0.8439270223497316 0.17511886185651601 0.45837270975729477 -0.0078970452918734266 0.028762604826795157 5.7972464999441033 0.81326621509856201 0.03444979231225688 -0.045683252633376463 0.85838422818708482 4.3037434684605724 -0.17026593345032834
decision_type=2 2 2 2 2 2 2 2 2 2 2 2 2 2 2 2 2 2 2 2 2 2 2 2 2 2 2 2 2 2
left_child=9 13 3 5 8 -3 -6 -5 -4 10 11 12 -1 18 22 28 -17 -13 25 20 -15 -21 26 -24 29 -2 -11 -20 -12 -16
right_child=1 2 4 7 6 -7 -8 -9 -10 14 15 17 -14 19 24 16 -18 -19 27 21 -22 -23 23 -25 -26 -27 -28 -29 -30 -31
leaf_value=0.058683485024931918 0.0017890992706763816 0.006358452792488656 -0.047585611106452187 0.0086140111553255783 -0.012615567750195464 -0.025244299519689407 0.0048017979481264688 0.030254317521830207 -0.019698045594690374 -0.00010523233596544332 0.061582326753572419 0.0016071533974557637 0.0091743572612935642 -0.033349597864612807 0.02954397142136482 -0.039224007966721826 0.037559988819010924 0.040867524035546464 -0.029392897649988994 -0.0042697774905122565 0.044865227248945649 -0.039344543986954389 0.037314260427330749 -0.029198674837297198 0.00097451883997417557 -0.054202301268389014 -0.047703530833189282 0.029546160484472835 0.044813754761831241 0.070288935712645925
leaf_weight=79.075603395700455 4.9950540065765372 417.16710565984249 132.26343475282192 187.92732517421246 709.9719563126564 235.69292242825031 334.64475107192993 334.60518656671047 128.4249678850174 15.475645557045938 80.973179921507835 70.973521560430527 46.690593644976616 7.4982096254825619 4.9919293969869623 7.9909118413925198 16.232801273465157 26.232781156897545 10.744278103113176 21.488843262195587 9.4938398301601392 63.392300814390182 17.97978059947491 8.4832255542278272 6.733774557709693 137.49052441120148 11.487657517194746 5.4993941187858573 118.22474472224712 10.234704151749611
leaf_count=317 20 1669 530 752 2841 943 1339 1339 514 62 325 284 187 30 20 32 65 105 43 86 38 254 72 34 27 552 46 22 474 41
internal_value=1.27022e-06 -0.00652002 -0.00313446 0.0071997 -0.0124423 -0.00506416 -0.00703185 0.0225123 -0.033994 0.0342189 0.0381674 0.0284868 0.0405601 -0.0385931 0.0105793 0.0476363 0.0114814 0.0125614 -0.0478556 -0.0237876 0.0101376 -0.0306762 -0.00314407 0.0155234 0.0428667 -0.0522058 -0.0215439 -0.0085925 0.0519286 0.0598831
internal_weight=3263.08 2741.3 2480.7 1175.39 1305.31 652.86 1044.62 522.533 260.688 521.781 446.394 222.972 125.766 260.602 75.3867 223.422 24.2237 97.2063 158.729 101.873 16.992 84.8811 53.4263 26.463 21.9604 142.486 26.9633 16.2437 199.198 15.2266
internal_count=13063 10972 9927 4703 5224 2612 4180 2091 1044 2091 1789 893 504 1045 302 896 97 389 637 408 68 340 214 106 88 572 108 65 799 61
is_linear=0
shrinkage=0.05


Tree=3
num_leaves=26
num_cat=0
split_feature=31 28 37 27 21 0 8 5 12 3 7 23 26 11 11 0 6 10 9 23 0 23 22 15 26
split_gain=264.028 110.165 78.148 86.5075 67.3519 27.6923 23.1801 22.7673 21.6305 18.0343 15.5953 15.2551 34.3779 20.3561 15.4559 13.0574 11.1268 10.8038 8.64812 7.52341 5.51254 5.31769 4.96024 4.21199 3.73305
threshold=-0.037113328274618267 0.031406637422331414 -0.035786824137375321 -0.037582708797382895 0.028531929086100395 -0.010539756385011905 7.0196804228391718 0.25614459379917448 0.62133119273913573 0.18875246257358994 1.5372028716795556 0.22487967297422037 4.2084999084472665 -2.8548971434556667 -2.2846329546747328 0.0097201575720281003 0.13558161420715523 0.10954207708645806 0.9356504445489795 0.16363559775243039 0.0056162342460326512 0.55789433199270355 0.89090899101118659 0.1072908627158194 4.2084999084472665
decision_type=2 2 2 2 2 2 2 2 2 2 2 2 2 2 2 2 2 2 2 2 2 2 2 2 2
left_child=9 5 16 8 -5 6 23 10 -4 11 -7 12 13 -1 24 -9 21 -16 -18 -14 -11 -3 -8 -2 -13
right_child=1 2 3 4 -6 7 22 15 -10 20 -12 14 19 -15 17 -17 18 -19 -20 -21 -22 -23 -24 -25 -26
leaf_value=0.058472643077286057 0.04862840796038867 -0.018169517931870549 -0.036907254780569741 0.010551027386381154 -0.011178770094531621 -0.0076304882186430285 0.0015482481165739095 0.0028577777265907899 -0.016180322236266649 0.0079144300540031666 0.023313596059529047 0.066502779709478599 -0.019831186955472604 -0.017294817400441639 0.036856058907325295 -0.029103265615210167 -0.048846506422118408 0.0047433641303146444 -0.029313069689446598 0.019428278418047566 -0.046536214917209356 0.038998295162033958 0.040401700822765285 0.0038208882358771903 0.038272875593624515
leaf_weight=48.015330538153648 95.253151074051857 9.2250417172908765 221.78005093336105 653.00956049561501 783.04502232372761 52.245166584849358 55.225867822766304 78.965310320258141 299.39870417118073 9.4737177938222903 173.93048629164696 56.443603619933128 42.410590529441833 10.227101817727087 278.35292002558708 52.225486099720001 123.40941292047501 29.654281750321388 121.51925337314606 15.961721852421759 7.481491655111312 5.7343480139970771 8.7367096394300443 5.9934052228927603 22.673022657632828
leaf_count=193 382 37 890 2613 3133 209 221 316 1199 38 696 227 170 41 1118 209 497 119 488 64 30 23 35 24 91
internal_value=3.6673e-06 -0.00620069 -0.0110695 -0.00763542 -0.00129375 0.0144282 0.0313027 0.00654765 -0.0250637 0.0326076 0.0161416 0.0343207 0.0181571 0.0450165 0.0391175 -0.00995162 -0.0367841 0.0338059 -0.0393341 -0.00886518 -0.0170871 0.00450168 0.00747247 0.0460882 0.0590538
internal_weight=3260.39 2739.7 2217.12 1957.23 1436.05 522.576 165.209 357.366 521.179 520.694 226.176 503.739 116.615 58.2424 387.124 131.191 259.888 308.007 244.929 58.3723 16.9552 14.9594 63.9626 101.247 79.1166
internal_count=13063 10972 8880 7835 5746 2092 662 1430 2089 2091 905 2023 468 234 1555 525 1045 1237 985 234 68 60 256 406 318
is_linear=0
shrinkage=0.05


Tree=4
num_leaves=30
num_cat=0
split_feature=31 29 36 38 38 6 0 4 4 3 11 18 3 18 2 2 12 46 24 0 2 10 1 3 11 11 22 0 25
split_gain=239.043 98.5976 95.8294 65.9647 61.2762 54.3739 20.1001 17.2347 17.1527 24.1559 20.8928 28.749 21.45 15.9482 17.594 16.3024 15.5076 14.618 44.0592 25.202 10.0478 11.295 9.16856 8.37509 6.28749 5.08057 5.05348 4.55043 3.56248
threshold=-0.037113328274618267 0.41153846153846158 0.097501248232706464 1.0000000180025095e-35 -0.017976485426242302 0.28466321883661866 -0.032974336861798917 -0.075024284826099616 -0.0013801438429869952 0.18875246257358994 1.0565673891529535 21.239999771118168 -0.055579202567055307 20.305000305175785 -0.017247653718103006 -0.00051604577462795989 0.62133119273913573 -0.01703649208476948 0.36267884222324792 0.0098716324914188084 0.054263987278472911 0.035324295483691426 -0.028479082873541967 0.014203279289590202 2.2640989505625186 2.1399109121264339 0.31674578580690543 0.0056162342460326512 0.20076775431861807
decision_type=2 2 2 2 2 2 2 2 2 2 2 2 2 2 2 2 2 2 2 2 2 2 2 2 2 2 2 2 2
left_child=8 3 4 17 16 -6 26 -8 10 20 11 12 -1 14 -4 -15 -3 19 -19 -2 28 -22 -13 25 -25 -12 -5 -11 -10
right_child=1 2 13 6 5 -7 7 -9 9 27 23 22 -14 15 -16 -17 -18 18 -20 -21 21 -23 -24 24 -26 -27 -28 -29 -30
leaf_value=-0.045814061298211917 0.03295375460184817 -0.043101637887240148 -0.015841639318261009 0.040262714088497999 -1.8239079834422821e-05 -0.026799643730601438 -0.033412952915816925 -0.0060649589444189585 0.060976102796983025 0.0053304022556164695 -0.059703432761049106 0.048692201462750807 0.024156192565261744 0.032787004205293707 0.0072903868184164061 -0.0046226902296441245 -0.025386281285297713 -0.016475200834572306 0.026068460670402433 -0.016111378861119935 0.049379370912588011 0.0010689471934205413 0.023234651160989172 0.047570178637096103 -0.0091797287225872728 -0.006882606327400273 0.0021637863708411976 -0.044505850943379194 0.043455984154053148
leaf_weight=19.716843739151955 232.22782243788242 225.98115287721157 115.94013796746731 23.206580340862274 462.83043956756592 320.39053715765476 71.879340171813965 281.85384202003479 47.347084879875183 9.2226610034704226 9.4835611730813998 83.817686915397644 22.231581434607506 87.667799830436707 275.62715023756027 42.70673343539238 292.99740855395794 94.467384099960327 166.89035855233669 28.73216737806797 20.139828011393547 28.907237783074379 68.179749429225922 6.2365424185991314 13.976489856839178 8.9870986193418485 14.224635839462278 7.4773516207933417 173.72059974074364
leaf_count=79 931 911 464 93 1852 1283 288 1129 191 37 38 338 89 351 1103 171 1178 378 668 115 81 116 274 25 56 36 57 30 701
internal_value=5.71406e-06 -0.00589588 -0.0126095 0.0075042 -0.0198614 -0.0110002 -0.00800186 -0.0117148 0.03107 0.0392916 0.0207872 0.027466 -0.00891619 0.00547729 0.000405524 0.0205528 -0.0331778 0.0191194 0.0106679 0.0274916 0.0429025 0.0215965 0.0375322 -0.0124202 0.0095113 -0.0359331 0.0263475 -0.0179548 0.0474886
internal_weight=3257.07 2737.62 1824.14 913.482 1302.2 783.221 391.164 353.733 519.444 286.815 232.63 193.946 41.9484 521.942 391.567 130.375 518.979 522.318 261.358 260.96 270.115 49.0471 151.997 38.6837 20.213 18.4707 37.4312 16.7 221.068
internal_count=13063 10972 7313 3659 5224 3135 1567 1417 2091 1156 935 780 168 2089 1567 522 2089 2092 1046 1046 1089 197 612 155 81 74 150 67 892
is_linear=0
shrinkage=0.05


Tree=5
num_leaves=31
num_cat=0
split_feature=18 28 38 26 2 24 7 7 23 27 23 15 2 0 16 24 26 0 12 24 22 7 12 15 29 18 15 8 12 4
split_gain=217.408 124.887 107.049 44.178 43.6301 30.1642 27.517 19.5749 17.9641 15.796 15.5875 14.2985 13.7659 13.2997 13.1676 12.2919 16.1351 12.2575 12.2089 10.3536 8.88231 16.1547 11.5442 8.14909 7.89487 7.68626 7.53486 6.98651 6.79471 4.8701
threshold=20.305000305175785 0.031406637422331414 -0.017976485426242302 4.1705000400543222 0.014949703472747621 0.29760701230009606 2.8738695703257622 1.339576178522071 0.38181761573005729 0.0086953205749202862 0.57703310549951292 -0.095700266862140462 -0.0096409397668060868 -0.018209402809018595 0.55545660578550604 0.13014365984630377 4.2084999084472665 -0.0060018405017845632 -3.7263652747550333 0.205740899467411 0.45071720035457102 2.6910519065784575 0.1292886274249152 -0.079240939625491461 0.33303297363427914 15.545000076293947 -0.030336763639473404 5.3105620272727174 1.3808750989377445 -0.22954625720149155
decision_type=2 2 2 2 2 2 2 2 2 2 2 2 2 2 2 2 2 2 2 2 2 2 2 2 2 2 2 2 2 2
left_child=1 6 10 5 9 -4 7 17 25 23 27 -5 29 -9 20 24 -17 -1 -14 -12 21 -6 -22 -2 -16 -8 -10 -3 -25 -11
right_child=4 2 3 11 14 -7 8 13 26 12 19 -13 18 -15 15 16 -18 -19 -20 -21 22 -23 -24 28 -26 -27 -28 -29 -30 -31
leaf_value=0.047116987783795174 0.04514966517613403 -0.033701204623127125 0.0025338297817762692 -0.011001860762719395 -0.052820816522744646 -0.01408968322748962 0.0071654406138477031 0.052676015368573449 0.035383478839301541 0.010790599506559806 0.0039029611099912279 0.018907718780809796 -0.026815172470921196 0.021764226092023393 0.052561878343990259 -0.026525067580909497 0.017175276154923595 -0.031190910457248828 0.034587005341372622 -0.025915768196433171 -0.0078749858906453692 0.023478166409242832 0.038331571876413992 0.016189381030192792 -0.0038182939500580743 -0.035549637200051915 0.00093913898220790773 -0.051244320697039492 0.039078461931659987 0.056529626669640481
leaf_weight=5.2273074984550503 47.082029953598976 208.77583722770214 387.22319574654102 48.219382181763649 9.7124827206134814 917.24897795915604 13.203547254204748 39.172151818871498 22.179572075605392 6.9285899549722663 33.859575137495995 212.78219616413116 9.1989354491233808 321.82728619873524 12.958248853683473 61.865572065114975 30.836877539753914 24.714619234204292 40.084654211997986 185.91783262789249 16.465836316347122 18.655709803104401 64.047083958983421 146.23175589740276 10.676840811967848 43.113678276538849 51.587708562612534 88.987769842147827 42.729873925447464 131.3634987026453
leaf_count=21 189 844 1550 193 39 3674 53 158 89 28 136 852 37 1292 52 248 124 99 162 749 66 75 258 587 43 173 207 360 172 533
internal_value=6.98935e-06 -0.00644558 -0.011923 -0.00539333 0.0258814 -0.00915312 0.0154239 0.0220404 -0.00443904 0.0353232 -0.0316159 0.013342 0.0462442 0.0252685 0.00802247 -0.00363584 -0.0119069 -0.0162773 0.0227213 -0.0213023 0.0204444 -0.00338332 0.0288398 0.0264651 0.0277688 -0.0254976 0.0116971 -0.0391147 0.0215701 0.0543679
internal_weight=3252.88 2604.04 2083.01 1565.47 648.838 1304.47 521.026 390.941 130.085 423.619 517.541 261.002 187.576 360.999 225.219 116.338 92.7024 29.9419 49.2836 219.777 108.881 28.3682 80.5129 236.044 23.6351 56.3172 73.7673 297.764 188.962 138.292
internal_count=13063 10450 8358 6269 2613 5224 2092 1570 522 1708 2089 1045 760 1450 905 467 372 120 199 885 438 114 324 948 95 226 296 1204 759 561
is_linear=0
shrinkage=0.05


Tree=6
num_leaves=26
num_cat=0
split_feature=31 29 36 37 38 6 1 1 26 1 3 23 18 7 6 23 26 2 1 7 10 2 2 23 22
split_gain=198.528 81.8351 77.5655 60.081 50.3476 47.6077 46.1431 20.2136 20.1348 16.8437 14.6931 14.2521 13.1051 26.0428 15.4436 12.458 27.8168 16.9515 12.7586 10.4817 10.3175 8.73159 6.96551 6.09167 3.52528
threshold=-0.037113328274618267 0.41153846153846158 0.097501248232706464 0.00091361855991400908 -0.017976485426242302 0.28466321883661866 0.019620385491751852 0.0035068207539205739 4.1340000629425058 0.062135642069949051 0.21841975201013936 0.57703310549951292 20.305000305175785 2.2544565389407638 0.14031072949330486 0.22487967297422037 4.2084999084472665 -0.018524012196038678 -0.022111544739661936 2.1010149120308221 0.10954207708645806 0.016428688253477198 0.025226056555671155 0.15980784305106852 0.96746408503842407
decision_type=2 2 2 2 2 2 2 2 2 2 2 2 2 2 2 2 2 2 2 2 2 2 2 2 2
left_child=10 3 4 7 11 -6 19 21 -9 -8 15 -3 14 -14 -4 16 17 -1 22 -5 -20 -2 -17 -18 -12
right_child=1 2 12 6 5 -7 9 8 -10 -11 24 -13 13 -15 -16 18 23 -19 20 -21 -22 -23 -24 -25 -26
leaf_value=0.052886157411169601 0.031430057984738434 -0.037337871341725191 0.029758883265147768 -0.030238208152010074 0.00024761853299184376 -0.024803489944496892 0.0078278581596776444 -0.0060936667566953845 0.021880171105522119 0.053928833034706018 0 -0.020279324625798754 -0.008740295786760055 0.036589666392460848 -0.0031185391716276926 0.051612487392529542 -0.019544273507340441 -0.013144585752030744 0.031044685364126298 -0.010231465589060011 -0.0016135064561193565 0.0059359486938576084 0.0033697573393718715 0.015258520838761912 -0.053975798820842469
leaf_weight=45.804171711206436 225.281653881073 296.48677046597004 38.728157863020897 124.25022649765015 462.78319092094898 319.86672255396843 100.15842373669147 128.28669714927673 126.93515431880951 23.975540935993195 5.9761815369129163 219.3732371032238 52.115721762180328 77.996994599699974 352.73286996781826 105.97848798334599 41.272711589932442 11.685758844017981 248.73778772354126 142.67265012860298 26.350382998585701 40.649420514702797 8.4407006204128248 16.884308204054832 4.9736423343420029
leaf_count=187 905 1204 155 498 1852 1283 401 514 510 96 24 885 209 313 1412 432 166 47 1007 572 106 163 34 68 20
internal_value=1.05102e-05 -0.0053627 -0.0114876 0.00685179 -0.0180263 -0.0100029 -0.00794163 0.0179558 0.00783076 0.0171317 0.0284217 -0.0301465 0.00478471 0.0184668 0.0001889 0.0296795 0.0150046 0.0393836 0.0339741 -0.0196412 0.0279038 0.0275887 0.048157 -0.00926858 -0.0268117
internal_weight=3248.4 2732.29 1820.08 912.21 1298.51 782.65 391.057 521.153 255.222 124.134 516.104 515.86 521.574 130.113 391.461 505.154 115.647 57.4899 389.507 266.923 275.088 265.931 114.419 58.157 10.9498
internal_count=13063 10972 7313 3659 5224 3135 1567 2092 1024 497 2091 2089 2089 522 1567 2047 468 234 1579 1070 1113 1068 466 234 44
is_linear=0
shrinkage=0.05


Tree=7
num_leaves=28
num_cat=0
split_feature=31 28 37 26 36 0 5 8 8 4 11 22 19 23 2 4 0 24 3 4 3 8 0 8 4 23 15
split_gain=179.9 74.7631 54.1834 42.3699 35.5057 22.5252 19.409 19.0729 17.2564 15.7825 21.1079 18.1206 17.1295 19.4173 15.8008 14.8451 14.1982 9.53452 18.2357 7.99419 7.71805 12.8747 6.08975 4.83871 6.62558 4.09618 4.0713
threshold=-0.037113328274618267 0.031406637422331414 -0.035786824137375321 4.0019999742507943 0.049804591433252894 -0.010539756385011905 0.30036193138150419 7.0196804228391718 9.0527026097930783 0.015126869846340258 6.5881361277107002 0.92918653802480533 79.076485910490177 0.15980784305106852 -0.014367262764825863 0.31039888918278463 0.0090582733778953404 0.17894661655787789 -0.010582960208985302 0.34686603125624943 0.21841975201013936 7.4461469279369039 -0.017338861049840733 4.3037434684605724 0.033608057865699328 0.39330087983414291 0.1072908627158194
decision_type=2 2 2 2 2 2 2 2 2 2 2 2 2 2 2 2 2 2 2 2 2 2 2 2 2 2 2
left_child=9 5 17 15 -5 7 8 26 -7 11 23 12 13 -1 -14 -4 -8 18 -3 -9 21 -12 -19 25 -25 -11 -2
right_child=1 2 3 4 -6 6 16 19 -10 10 20 -13 14 -15 -16 -17 -18 22 -20 -21 -22 -23 -24 24 -26 -27 -28
leaf_value=-0.043358083366280942 0.043215017788364132 -0.048163938056406674 -0.037627125664952049 -0.015337173373727293 0.00010566259848511831 0.01623621392790562 0.0023448545844710501 -0.00062757137537153783 -0.027904216077860033 0.024692867415377524 -0.037737530980387096 -0.051808185289877774 0.038724876180697365 0.017625722482235043 0.008901990134534089 0.039529202064634707 -0.035457015809826659 -0.0055403231420504857 0.01512583325887012 0.054281353140868509 -0.035532224933530414 0.035665916701533774 -0.037682323988711595 0.0021821333597475934 0.038962614136446978 0.057521235783240456 0
leaf_weight=19.122854501008987 94.292893499135971 17.639707401394844 123.02544541656971 519.6267402023077 1303.3629519790411 233.44995264708996 57.662811011075974 57.366295590996742 23.466997876763344 14.350160136818884 7.4728372395038631 7.9789739102125159 119.81599673628807 36.098801851272583 72.187491491436958 5.7138425707817069 42.189780473709106 16.750368788838387 28.221371233463287 6.4675928652286521 9.6884427815675718 19.383563876152039 193.82712014019489 13.974652618169783 128.83543963730335 65.207887142896652 5.959845393896102
leaf_count=77 382 72 499 2088 5225 936 231 230 94 59 30 32 490 145 291 23 169 68 114 26 39 78 791 57 525 268 24
internal_value=1.20141e-05 -0.00510018 -0.00912067 -0.00626992 -0.00429943 0.0119199 0.0048216 0.0272006 0.0120924 0.0271154 0.0358438 0.0181352 0.0206124 -0.00379916 0.0276425 -0.0338859 -0.0137708 -0.0306894 -0.00961916 0.00561006 0.00046532 0.0144403 -0.0351875 0.0416076 0.0354384 0.052042 0.0407074
internal_weight=3243.14 2729.02 2208.17 1951.73 1822.99 520.856 356.77 164.087 256.917 514.117 258.913 255.204 247.225 55.2217 192.003 128.739 99.8526 256.439 45.8611 63.8339 36.5448 26.8564 210.577 222.368 142.81 79.558 100.253
internal_count=13063 10972 8880 7835 7313 2092 1430 662 1030 2091 1056 1035 1003 222 781 522 400 1045 186 256 147 108 859 909 582 327 406
is_linear=0
shrinkage=0.05


Tree=8
num_leaves=31
num_cat=0
split_feature=18 27 46 9 2 20 2 24 24 21 4 18 20 10 27 11 3 18 8 20 22 10 15 24 12 0 12 4 14 4
split_gain=164.674 96.6639 51.2742 44.2037 36.6531 28.3872 29.4248 26.4356 22.0524 21.8402 21.3423 16.8341 14.0153 12.6099 11.8544 12.6346 13.2523 11.8461 10.784 14.0036 12.6913 8.28015 7.44 7.24966 6.7433 6.98838 5.89283 4.85432 4.82134 4.27599
threshold=20.305000305175785 -0.013067437519941048 -0.028246422472042006 0.95873993591401274 0.014949703472747621 1.0850305472295056 -0.0096409397668060868 0.17129110715515414 0.64593269012402665 -0.037135267240114463 0.28406789994826792 17.340000152587894 0.98326296860373164 -0.10462720436139787 0.0086953205749202862 -2.8548971434556667 -0.079992078858178176 15.414999961853029 3.3292558856366732 1.2499177982456644 0.86794246280301535 0.13051149752510208 -0.079240939625491461 0.86028695340029171 0.24548116226403127 0.0052309472559699021 1.3808750989377445 0.45589284679336844 -0.1249138897821291 0.017886389888111698
decision_type=2 2 2 2 2 2 2 2 2 2 2 2 2 2 2 2 2 2 2 2 2 2 2 2 2 2 2 2 2 2
left_child=1 3 8 13 14 9 -7 12 11 -4 -9 -3 -5 29 22 23 -17 -15 24 20 -20 -21 28 -16 -6 -26 -24 -10 -2 -1
right_child=4 2 5 7 18 6 -8 10 27 -11 -12 -13 -14 17 15 16 -18 -19 19 21 -22 -23 26 -25 25 -27 -28 -29 -30 -31
leaf_value=-0.065718155280476906 0.0069073339926754339 -0.023043855786771077 0.00065847148143554008 -0.018369695621658771 -0.0094334117535071187 -0.031716421854186543 0.00359872619187595 -0.015574929293277176 -0.040414380706954384 0.015619771701981755 0.023605190827584083 0.0085425950205972826 0.029583960498722556 -0.015356831966604055 0.062030810056859412 -0.036817992064047692 0.032988573234519605 -0.030904579159127851 -0.018957145739406194 0.02597526749530818 0.016510823156669577 -0.013827338873078715 0.014004749793849384 0.023051003295708097 0.0074751813480766864 0.072724571138979607 0.035371520642673793 0.0082764158457036049 0.049209582176677605 -0.032170704461188464
leaf_weight=25.935154721140862 8.9288476556539518 82.509370520710945 391.79324288666248 18.785249680280685 5.4858544319868114 88.326718389987946 172.54849919676781 347.78463900089264 86.449689000844955 648.85813765227795 37.620333150029182 84.152291133999825 66.667734399437904 214.65643392503262 70.170284986495972 6.4620191156864157 90.78190541267395 302.08595661818981 84.353016212582588 65.674585282802582 34.780204564332962 15.397082254290579 145.72158838808537 16.812488824129105 6.6622156202793148 11.85440820455551 42.361378759145737 4.9303920418024054 37.853330820798874 21.516082569956779
leaf_count=105 36 337 1569 76 22 354 691 1400 351 2614 151 337 267 865 292 26 373 1226 339 267 140 62 587 69 27 48 172 20 153 87
internal_value=1.22294e-05 -0.00560238 0.0022579 -0.0174415 0.0226389 0.00629984 -0.00841458 -0.00609765 -0.0180554 0.00999785 -0.0116863 -0.0071093 0.0188939 -0.0268723 0.0313561 0.040941 0.0279714 -0.0244978 0.00625556 0.00235021 -0.00850963 0.0182787 0.0236749 0.054901 0.0372333 0.0510902 0.0190052 -0.037672 0.0415539 -0.0515877
internal_weight=3237.92 2594.62 1559.57 1035.05 643.299 1301.53 260.875 470.858 258.042 1040.65 385.405 166.662 85.453 564.194 419.092 184.227 97.2439 516.742 224.207 200.205 119.133 81.0717 234.865 86.9828 24.0025 18.5166 188.083 91.3801 46.7822 47.4512
internal_count=13063 10450 6273 4177 2613 5228 1045 1894 1045 4183 1551 674 343 2283 1708 760 399 2091 905 808 479 329 948 361 97 75 759 371 189 192
is_linear=0
shrinkage=0.05


Tree=9
num_leaves=31
num_cat=0
split_feature=20 29 38 6 19 26 1 2 0 4 7 14 23 16 45 11 3 5 24 26 9 10 29 1 19 15 24 25 9 11
split_gain=149.419 61.1502 80.3409 48.685 34.381 33.5658 51.9156 33.4003 21.7193 20.5713 15.6 15.1799 12.9683 11.0997 10.9849 11.7807 12.1159 10.7434 9.9588 13.4422 9.42064 9.20394 8.58959 6.98451 9.79 6.80622 6.75293 6.27353 5.40491 4.56135
threshold=1.1370018289446031 0.35999762852294037 -0.023387043098395618 0.33050734100910412 52.057830308146897 4.1340000629425058 0.016487668119992447 0.014949703472747621 0.0098716324914188084 0.0064227456839871565 2.1010149120308221 -0.027045427625977465 0.57703310549951292 0.50873403586165511 0.024485553935474583 -2.8548971434556667 -0.079992078858178176 0.19379629925612021 0.13014365984630377 4.2084999084472665 0.76430718742161885 0.023564845641839856 0.33303297363427914 0.027869027370895024 79.076485910490177 -0.079240939625491461 0.86028695340029171 0.43900044293518387 0.90236065068914506 6.5881361277107002
decision_type=2 2 2 2 2 2 2 2 2 2 2 2 2 2 2 2 2 2 2 2 2 2 2 2 2 2 2 2 2 2
left_child=1 5 12 9 -5 6 10 14 20 -4 -1 -8 27 23 15 26 -17 -10 22 -20 -7 -14 -15 24 -9 -16 -2 -3 -27 -25
right_child=7 2 3 4 -6 8 11 13 17 -11 -12 -13 21 18 25 16 -18 -19 19 -21 -22 -23 -24 29 -26 28 -28 -29 -30 -31
leaf_value=-0.033989934701944058 0.059757033446581745 -0.042041894481202768 -0.0060052248592782805 -0.0041956463428122134 -0.033485555217971516 0.0030328772423120522 0.040694225535590579 -0.048947804554793604 0.034917795324834848 0.0074304767833316826 -0.0022026546724404623 0.0013999118733905433 -0.0067707313758330213 0.049932393907560796 0.039712190747842935 -0.035181887544677382 0.031527570335209497 -0.034150585827372369 -0.023934247984130824 0.014878557825338807 0.031966084092726749 -0.027446229854533957 -0.0082305813739711846 0.04352354951536936 0.014503186467776874 0.0036150673350764102 0.022039411862237335 -0.026617346186045346 0.023122644951978754 -0.0045145492932286884
leaf_weight=90.836952090263367 69.259462028741837 123.96429432928562 498.58857609331608 205.86860159039497 195.60834856331348 33.50969734787941 60.64941580593586 5.7427397668361655 6.4811411798000362 661.52264839410782 67.442016124725342 41.44439409673214 111.36990784108639 13.119025990366938 46.581099569797516 6.4706627130508414 90.29814325273037 22.214561924338341 66.502691730856895 32.337955370545387 196.84568507969379 106.31753864884377 10.855337664484976 29.524654597043991 60.406103685498238 49.024936094880104 16.752412155270576 168.64292675256729 138.73126330971718 5.4648617506027213
leaf_count=365 292 512 1999 827 788 135 243 23 26 2656 271 166 453 53 189 26 373 89 267 131 796 432 44 120 245 198 69 692 561 22
internal_value=1.34556e-05 -0.00533343 -0.00918008 -0.00354141 -0.0185265 0.0099887 -0.0026747 0.0216088 0.0226973 0.00165162 -0.0205758 0.0249597 -0.0263849 0.00596885 0.0299597 0.0392333 0.0267015 -0.0177321 -0.00409631 -0.0111638 0.0278101 -0.0169707 0.0241216 0.0181606 0.00827329 0.0225691 0.052806 -0.03329 0.0181017 0.0359648
internal_weight=3232.38 2591.31 2071.88 1561.59 401.477 519.424 260.373 641.071 259.051 1160.11 158.279 102.094 510.295 223.953 417.118 182.781 96.7688 28.6957 122.815 98.8406 230.355 217.687 23.9744 101.138 66.1488 234.337 86.0119 292.607 187.756 34.9895
internal_count=13063 10450 8359 6270 1615 2091 1045 2613 1046 4655 636 409 2089 905 1708 760 399 115 495 398 931 885 97 410 268 948 361 1204 759 142
is_linear=0
shrinkage=0.05


Tree=10
num_leaves=28
num_cat=0
split_feature=31 28 20 36 24 0 9 17 5 8 4 2 22 8 18 23 2 0 5 5 4 10 23 5 10 5 24
split_gain=137.136 57.1947 42.2183 54.9057 29.2098 19.4066 18.4966 17.5001 16.9555 16.676 15.3769 16.9143 16.0051 15.0225 13.306 18.2086 12.6068 12.323 11.9699 8.88291 7.44979 7.06036 7.19474 5.4523 4.79943 3.62569 3.15845
threshold=-0.037113328274618267 0.031406637422331414 0.88103593060945451 0.097501248232706464 0.44306169095184728 -0.010539756385011905 1.1431174258311523 0.014715135510934342 0.30036193138150419 7.0196804228391718 0.015126869846340258 0.060333495081234985 0.92918653802480533 9.0527026097930783 21.239999771118168 0.53110004908317043 -0.014367262764825863 0.0090582733778953404 0.12655516525632873 0.42530118480558249 0.34686603125624943 0.013052944255198045 0.70717676534581664 0.88832081900180315 0.02166659674845792 0.2447718770887152 0.86794246280301535
decision_type=2 2 2 2 2 2 2 2 2 2 2 2 2 2 2 2 2 2 2 2 2 2 2 2 2 2 2
left_child=10 5 6 4 -4 9 7 -3 13 24 12 23 14 -7 15 -1 -16 -10 -5 -8 -11 26 -23 25 -2 -12 -13
right_child=1 2 3 18 -6 8 19 -9 17 20 11 21 -14 -15 16 -17 -18 -19 -20 -21 -22 22 -24 -25 -26 -27 -28
leaf_value=-0.019638052359164288 0.029683185956863894 -0.0070910181451528864 -0.0076831329174853113 -0.013399242573318476 -0.022158372593656186 0.014570027804489079 0.040073077403763632 0.016136854151545556 0.0015302687990262312 -0.0014629621249340747 0.033473102671750722 0.057469564594921946 -0.050722238017078237 -0.026613837419028188 0.033649676546746131 0.047374919330070875 0.0068766524536628265 -0.033708356418383371 0.009452080818714818 -0.018391692333537015 0.051672385547192924 -0.054406866457470116 0.0049115967326712438 -0.01045582908643105 0.055547212400727679 0.048467970391731036 0.0066605155714727351
leaf_weight=42.93215037882328 71.572547107934952 198.24512523412704 628.48173266649246 68.610350698232651 789.58294014632702 232.9800977408886 50.500577092170715 135.64441755414009 57.598250910639763 57.261426463723183 110.13555258512497 7.3046772330999357 7.9759467691183081 23.462304815649986 117.25105105340481 12.16810694336891 71.825679406523705 42.138773530721664 321.71777215600014 6.7202980816364279 6.4276375323534003 4.9509892463684073 34.927693709731102 4.8869975954294196 27.694741576910019 87.618019133806229 5.6933465301990509
leaf_count=173 293 795 2541 275 3204 936 203 544 231 230 458 30 32 94 490 49 291 169 1291 27 26 20 141 20 113 364 23
internal_value=1.43512e-05 -0.00444087 -0.00796538 -0.0111871 -0.0157565 0.0104689 0.00690866 0.00235051 0.00388767 0.0247119 0.0238443 0.0325053 0.0149543 0.0106939 0.0173181 -0.00416939 0.0235952 -0.0134952 0.00539861 0.0329229 0.00453816 0.00704451 -0.00348133 0.0390572 0.0374309 0.0403524 0.0376373
internal_weight=3226.31 2718.64 2199.5 1808.39 1418.06 519.136 391.11 333.89 356.179 162.956 507.67 255.517 252.153 256.442 244.177 55.1003 189.077 99.737 390.328 57.2209 63.6891 52.8767 39.8787 202.641 99.2673 197.754 12.998
internal_count=13063 10972 8880 7311 5745 2092 1569 1339 1430 662 2091 1056 1035 1030 1003 222 781 400 1566 230 256 214 161 842 406 822 53
is_linear=0
shrinkage=0.05


Tree=11
num_leaves=30
num_cat=0
split_feature=31 37 27 38 6 23 8 0 6 4 11 25 17 18 23 9 5 14 7 6 8 6 10 2 10 11 8 8 5
split_gain=124.449 54.017 63.056 44.2797 26.0733 16.5883 18.5915 16.5157 14.1756 14.0808 17.2771 11.6697 11.1883 15.2159 24.1677 10.672 8.84302 6.92964 7.38105 6.14976 5.95118 10.0555 5.13795 5.29258 4.93928 4.57191 4.47155 4.27839 4.20962
threshold=-0.037113328274618267 -0.035786824137375321 -0.037582708797382895 -0.017976485426242302 0.2753338413343342 0.50813352087499919 14.527700955643411 -0.010125589891937238 0.21951232472267371 0.015126869846340258 6.5881361277107002 0.58213310202273749 -0.011706446785348155 21.239999771118168 0.16363559775243039 1.3098947671719587 0.18398272966440676 -0.06575197421592506 1.7323618437969193 0.12576713255452857 7.0196804228391718 0.44586436577501593 0.074448103012583408 0.037092432461002384 -0.014896920893828379 5.054145167095208 5.1198611271338264 5.4528586494619997 0.88832081900180315
decision_type=2 2 2 2 2 2 2 2 2 2 2 2 2 2 2 2 2 2 2 2 2 2 2 2 2 2 2 2 2
left_child=9 11 5 7 -5 6 -3 -4 -7 12 22 19 13 14 -1 16 -14 27 -19 -2 -12 -22 28 -24 -17 -21 -15 -13 -11
right_child=1 2 3 4 -6 8 -8 -9 -10 10 20 17 15 26 -16 24 -18 18 -20 25 21 -23 23 -25 -26 -27 -28 -29 -30
leaf_value=-0.050793201152218775 0.013106246402034158 -0.029760732003069036 0.036634836779769309 0.0037354912957571029 -0.0094059561152562629 0.0069044572412980581 0.026472251276932441 0.011681432943097095 -0.01741013715292548 0.040216667039424954 -0.040784436122531367 0.012164967168239558 -0.030823776572479474 0.04259377157114469 0.035153727953607036 0.056825691269053173 0.0042133940634219921 0.01141369527702296 -0.031627140064363062 -0.041803395293947533 0.02900527004584412 -0.030138799324854994 0.03813965990004306 -0.0094642267381488225 0.010665518971317973 -0.017216051048285701 0.021870516048637944 -0.021763647665960416 -0.0032133228608417896
leaf_weight=15.310378000140192 5.663057640194892 243.96778981387615 85.087431982159615 926.98759879171848 634.98600015044212 94.323262110352516 14.791672974824904 302.46650767326355 160.34459346532822 190.45884357392788 6.4723405092954627 30.557982236146927 25.551462307572365 51.450279742479324 15.397440835833548 9.335810452699663 54.810372203588486 11.526195004582403 52.037819057703018 114.4632935076952 20.028380990028385 9.9110633432865125 9.6264255493879336 12.014419510960577 15.347156390547751 25.9129858314991 64.046062454581261 12.139306649565695 5.3815297037363043
leaf_count=62 23 1000 350 3716 2554 380 60 1218 649 798 26 125 103 218 62 38 222 47 214 479 81 40 40 49 62 107 268 50 22
internal_value=1.75201e-05 -0.0042225 -0.00195827 0.00214719 -0.00160628 -0.0175307 -0.0264375 0.017253 -0.00839322 0.0227818 0.0311024 -0.0262111 0.0142639 0.0231625 -0.00779067 0.0017297 -0.00710733 -0.0133461 -0.0236891 -0.0353835 -0.000632626 0.00892348 0.0364171 0.0122397 0.0298521 -0.0374539 0.0314314 0.00212696 0.0389876
internal_weight=3220.4 2715.26 2462.95 1949.53 1561.97 513.427 258.759 387.554 254.668 505.142 253.893 252.301 251.249 146.204 30.7078 105.045 80.3618 106.261 63.564 146.039 36.4118 29.9394 217.481 21.6408 24.683 140.376 115.496 42.6973 195.84
internal_count=13063 10972 9927 7838 6270 2089 1060 1568 1029 2091 1056 1045 1035 610 124 425 325 436 261 609 147 121 909 89 100 586 486 175 820
is_linear=0
shrinkage=0.05


Tree=12
num_leaves=31
num_cat=0
split_feature=20 27 29 12 37 2 24 45 23 10 12 16 21 25 6 0 16 24 26 27 11 3 6 29 22 17 12 24 12 24
split_gain=114.293 69.5138 36.1362 29.5104 29.2058 28.5429 24.1149 26.3338 20.9391 16.8735 14.2571 11.9387 11.1488 10.1536 9.67142 9.35946 9.30149 9.31089 11.6047 8.61506 10.9003 10.736 8.23531 7.07538 7.06515 12.636 9.05253 6.51197 7.79255 6.44607
threshold=1.1370018289446031 -0.013067437519941048 0.35999762852294037 -5.9840438721827924 -0.014398100690195257 0.014949703472747621 0.29760701230009606 0.029875054279419725 0.44306169095184728 0.018495714863816282 9.9305369257027447 0.81826553091667653 -0.037135267240114463 0.63977004281706784 0.34149687918804955 -0.01469602482399396 0.55545660578550604 0.13014365984630377 4.2084999084472665 0.0086953205749202862 -2.8548971434556667 -0.079992078858178176 0.41023741182916479 0.33303297363427914 0.45071720035457102 -0.0020950564089913799 0.1292886274249152 0.1014354995860897 1.0225282184804441 0.86028695340029171
decision_type=2 2 2 2 2 2 2 2 2 2 2 2 2 2 2 2 2 2 2 2 2 2 2 2 2 2 2 2 2 2
left_child=1 6 11 14 -5 19 7 9 -9 -1 15 12 -3 -12 -4 -8 24 23 -19 27 29 -22 -13 -18 25 -7 -26 -2 -29 -21
right_child=5 2 3 4 -6 16 10 8 -10 -11 13 22 -14 -15 -16 -17 17 18 -20 20 21 -23 -24 -25 26 -27 -28 28 -30 -31
leaf_value=0.00030815635230938476 0.048435923226761518 -0.0019214318066328032 -0.011764914571044784 -0.023350344162956019 0.0035532862909935952 0.010423464156104392 -0.0074072047594332105 -0.038637500742158416 -0.0012246426817821815 0.035807760606707165 -0.015541311299553984 0.041978500768831604 0.017721517771425607 0.016528298263932772 -0.038375913146268065 -0.02505263798967626 0.046017853504410448 -0.024796893130060425 0.01244797923298274 0.055323261413965721 -0.035069572367490413 0.02772275773604331 -0.012795794841989699 -0.007442681289048402 -0.0096747044176419272 -0.069550102231362654 0.031265587899283916 0.01194060270869172 0.034073815335939311 0.018459060205470803
leaf_weight=106.84960965812206 18.381808519363403 106.34389951825142 78.64990721642971 112.40736435353756 911.30502015352249 22.895485877990726 89.679805427789688 66.079311564564705 85.325604096055031 47.948410868644714 57.764034271240234 54.124519988894463 220.22452817857265 41.507969349622726 62.290915310382843 532.20737920701504 12.753330618143083 61.706181734800339 30.428839772939682 67.027191936969757 6.4554428011178961 88.64704655110836 7.2235727459192267 10.559664830565451 16.411137968301773 5.2202591001987448 62.659313321113586 160.93288637697697 53.46354615688324 16.492231518030167
leaf_count=428 75 426 317 467 3667 93 364 274 346 192 234 218 896 168 253 2171 52 248 124 292 26 373 29 43 66 21 258 653 220 69
internal_value=1.81479e-05 -0.00465587 0.00201836 -0.00238265 0.000574385 0.0190223 -0.0147391 -0.00295091 -0.0177323 0.0114954 -0.0197264 0.0152166 0.0113234 -0.00205128 -0.0237488 -0.0225321 0.00454547 -0.0052541 -0.012441 0.0268145 0.0351582 0.0230879 0.035347 0.022287 0.0150976 -0.00613228 0.0226912 0.0202676 0.0176157 0.0484075
internal_weight=3213.97 2579.93 1552.57 1164.65 1023.71 634.034 1027.36 306.203 151.405 154.798 721.159 387.917 326.568 99.272 140.941 621.887 222.634 115.448 92.135 411.4 178.622 95.1025 61.3481 23.313 107.186 28.1157 79.0705 232.778 214.396 83.5194
internal_count=13063 10450 6273 4704 4134 2613 4177 1240 620 620 2937 1569 1322 402 570 2535 905 467 372 1708 760 399 247 95 438 114 324 948 873 361
is_linear=0
shrinkage=0.05


Tree=13
num_leaves=30
num_cat=0
split_feature=31 29 37 31 38 26 7 0 0 12 4 3 11 18 23 4 5 16 9 7 3 24 10 16 0 11 11 12 0
split_gain=104.506 47.9603 31.0782 28.583 29.9106 22.5847 28.7957 18.6107 16.3338 14.3344 13.0424 16.5942 14.4679 13.9122 14.0502 10.1942 9.4305 8.81971 8.86634 8.697 7.07049 7.02475 6.5398 8.05085 6.50913 5.38951 5.00101 4.20752 3.7636
threshold=-0.037113328274618267 0.35999762852294037 -0.035786824137375321 0.091064400368794055 -0.017976485426242302 4.1340000629425058 1.7039650447231875 0.0098716324914188084 -0.002814082274202667 0.62133119273913573 -0.0013801438429869952 0.18875246257358994 1.0565673891529535 21.239999771118168 0.15980784305106852 0.11379030655520977 0.19379629925612021 0.8439270223497316 1.0915744970776042 2.8514193725764594 0.014203279289590202 0.73014329355398788 0.074448103012583408 0.6720718618616065 -0.028303715712659067 2.2640989505625186 2.1399109121264339 6.907711055324838 0.0056162342460326512
decision_type=2 2 2 2 2 2 2 2 2 2 2 2 2 2 2 2 2 2 2 2 2 2 2 2 2 2 2 2 2
left_child=10 5 17 4 -4 6 15 19 -8 -5 12 22 13 14 -1 -2 -9 18 -3 -7 26 -19 27 -24 -15 -22 -14 -12 -13
right_child=1 2 3 9 -6 7 8 16 -10 -11 11 28 20 24 -16 -17 -18 21 -20 -21 25 -23 23 -25 -26 -27 -28 -29 -30
leaf_value=-0.038483412863153488 -0.039001620742872278 -0.033667335276991998 0.012726673485563 -0.034402140839224549 -0.0058502979960702427 0.028769675703604065 -0.0019448718743562687 0.031632756174930041 0.021300658803821919 -0.010265184375158727 0.029902751012689938 0.0023394931023975013 -0.060841735162905919 0.043592555649266465 0.018567494704687576 0.015084311033638484 -0.033229968735580394 0.019835534838812098 -0.011651651835630538 0.0029299916598192837 0.040485406992063974 -0.037799132883829786 0.030545604377359488 -0.018499730908687725 0.018578835039210345 -0.012318733432330775 -0.0081100332482447659 0.046365155243086709 -0.04324959286969729
leaf_weight=18.88555683195591 52.751765727996826 157.85647271573544 258.88658311963081 109.7637197971344 1300.1670800596476 187.94574473798275 209.97421656548977 6.4433084428310421 116.64201958477497 143.02508217096329 167.03497056663036 9.1629810035228747 9.4471268802881259 35.428010776638985 22.572035104036331 9.6962956488132459 22.214328706264496 18.301354199647907 67.389955714344978 40.169979989528656 6.1328056007623699 6.2676648199558249 18.597029536962509 13.597905725240706 109.48144993185997 13.896950393915175 8.9490378648042661 59.404410898685455 7.4214025735855094
leaf_count=77 213 666 1045 460 5224 768 847 26 469 584 709 37 38 151 91 39 89 75 278 163 25 26 77 55 461 56 36 248 30
internal_value=1.89572e-05 -0.00385993 -0.0075852 -0.00529482 -0.00275614 0.00801755 0.000398588 0.0194961 0.00638105 -0.0208597 0.0209984 0.0283054 0.0119444 0.0177086 -0.00759795 -0.0304195 -0.0179029 -0.0240894 -0.0271833 0.0242739 -0.0156254 0.00403384 0.0314246 0.00974684 0.0249854 0.00476767 -0.0371882 0.0344284 -0.0190764
internal_weight=3207.51 2707.5 2061.66 1811.84 1559.05 645.838 389.064 256.773 326.616 252.789 500.012 275.219 224.793 186.367 41.4576 62.4481 28.6576 249.815 225.246 228.116 38.4259 24.569 258.634 32.1949 144.909 20.0298 18.3962 226.439 16.5844
internal_count=13063 10972 8358 7313 6269 2614 1568 1046 1316 1044 2091 1156 935 780 168 252 115 1045 944 931 155 101 1089 132 612 81 74 957 67
is_linear=0
shrinkage=0.05


Tree=14
num_leaves=31
num_cat=0
split_feature=31 29 36 38 2 26 7 22 0 24 7 18 13 22 4 22 4 4 1 24 21 5 25 16 9 8 5 0 24 0
split_gain=94.872 43.3877 31.9353 33.8194 23.4424 20.4914 26.0636 18.826 16.8619 12.6835 13.3143 12.5788 10.9301 10.7888 9.76923 11.2347 9.51557 9.27825 9.14745 9.14806 8.8634 8.59596 8.53273 6.54194 5.36631 3.94696 2.59984 2.4543 1.56705 1.20793
threshold=-0.037113328274618267 0.35999762852294037 0.097501248232706464 -0.023387043098395618 -0.13223724681006127 4.1340000629425058 1.7039650447231875 0.88708123630982483 0.0098716324914188084 0.86028695340029171 3.9840746895374326 21.239999771118168 9.6770984478596329 0.029664183204764733 0.015126869846340258 0.92918653802480533 0.38658817176239529 0.11379030655520977 0.055182408690550473 0.26698497468920107 0.29529647795430336 0.19379629925612021 0.02497600767754319 0.30484984451723968 0.7819127420710793 4.3037434684605724 0.3987140351489748 -0.0058439887240146178 0.9062200098166342 -0.011237433983020175
decision_type=2 2 2 2 2 2 2 2 2 2 2 2 2 2 2 2 2 2 2 2 2 2 2 2 2 2 2 2 2 2
left_child=9 5 3 12 -5 6 17 -8 22 14 23 29 -3 27 15 20 -15 -2 25 -20 -1 -10 -7 28 -13 -16 -25 -4 -11 -12
right_child=1 2 13 4 -6 8 7 -9 21 10 11 24 -14 16 18 -17 -18 -19 19 -21 -22 -23 -24 26 -26 -27 -28 -29 -30 -31
leaf_value=0.011049127499299758 -0.037189738973985711 -0.022347394193382338 -0.010468706832931787 -0.058398502713317119 -0.0045980133428203734 -0.03520221856060525 0.0012553340612205812 0.036085015510486679 0.030348158579547729 -0.01768294651812766 -0.0089743565610919587 -0.016565670116212943 0.041666367288878119 0.0033520841623836655 0.044217060283666926 -0.048088098449799027 0.038656671642797472 0.014392804313303496 -0.049336287004661916 0.018545438732488592 0.0341235995555789 -0.031624704086613491 0.024689100493641675 -0.022541406416605552 0.036113284994777971 0.028284909477821554 -0.073577410900940804 -0.053646493342942816 0.018780222042556551 -0.044535306006353553
leaf_weight=150.55523465573788 52.608055636286736 494.41030442714691 6.4741716980934134 19.689472526311874 1018.8800049871206 5.1990576088428488 282.53322429955006 44.054951608181 6.4230850785970715 4.8549271225929278 5.3773402869701385 4.9042364656925193 5.821246311068534 486.02450084686279 73.91433160007 5.732719510793685 18.925237521529198 9.7019415199756605 5.4345537424087551 20.619635999202728 58.116819232702255 22.225246727466583 222.13724476099014 6.1429532021284086 32.771771252155304 111.69762851297855 6.5874683409929276 8.4319566935300809 4.9186967015266418 5.6318524777889234
leaf_count=621 213 2065 26 80 4100 21 1139 177 26 20 22 20 24 1953 320 23 76 39 22 85 253 89 910 25 137 473 27 34 20 23
internal_value=1.77896e-05 -0.0036743 -0.00722014 -0.0108388 -0.00567798 0.00763098 0.000377275 0.00606474 0.0185872 0.0200683 0.000451057 0.0151799 -0.0215108 0.00348187 0.0233256 0.015636 0.00475895 -0.0289787 0.0309811 0.00290116 0.0176315 -0.0170065 0.0231494 -0.0304908 0.0288758 0.0348591 -0.0527499 -0.0370446 0.000243379 -0.0297759
internal_weight=3200.8 2703.54 2058.66 1538.8 1038.57 644.883 388.898 326.588 255.985 497.26 71.1892 48.6852 500.232 519.856 426.071 214.405 504.95 62.31 211.666 26.0542 208.672 28.6483 227.336 22.504 37.676 185.612 12.7304 14.9061 9.77362 11.0092
internal_count=13063 10972 8358 6269 4180 2614 1568 1316 1046 2091 294 202 2089 2089 1797 897 2029 252 900 107 874 115 931 92 157 793 52 60 40 45
is_linear=0
shrinkage=0.05


Tree=15
num_leaves=29
num_cat=0
split_feature=31 37 35 24 40 0 4 24 7 4 25 22 16 1 21 0 24 3 0 7 0 16 4 8 9 5 36 25
split_gain=85.9963 37.6921 30.6644 22.6449 30.3097 23.9528 12.4814 11.6809 11.221 10.3844 10.1659 9.44421 9.41184 8.86112 7.76264 6.68246 6.18358 8.80284 8.60273 5.49727 5.10474 4.87798 4.85399 4.82698 4.72952 4.58295 2.58591 0.489187
threshold=-0.037113328274618267 -0.035786824137375321 -0.027192975355031065 0.11578866398540692 0.02045447623527508 0.010678943251759204 0.31039888918278463 0.89473674571254858 5.5150149136015658 0.021805786570201446 0.58213310202273749 0.91770327392071971 0.8439270223497316 0.062135642069949051 0.29529647795430336 -0.028303715712659067 0.17129110715515414 -0.010582960208985302 -0.0078970452918734266 1.285038701306038 0.0013193852195092144 0.57791585201193996 -1.0000000180025095e-35 18.132321466889035 0.85838422818708482 0.30662647056759129 0.067822409047601298 0.52065369850878496
decision_type=2 2 2 2 2 2 2 2 2 2 2 2 2 2 2 2 2 2 2 2 2 2 2 2 2 2 2 2
left_child=7 10 6 5 -5 -4 20 9 15 11 12 14 19 25 -1 22 17 -12 -18 -2 -3 -15 -9 27 -14 -11 -17 -10
right_child=1 2 3 4 -6 -7 -8 8 23 13 16 -13 24 21 -16 26 18 -19 -20 -21 -22 -23 -24 -25 -26 -27 -28 -29
leaf_value=0.010364453896689448 0.011008515255038751 -0.038889296040744634 0.0078500398609693441 -0.0069148792380875667 0.0055287963578299626 0.054455537214541508 0.041397955761383665 -0.025139459528153621 0.026425407462683931 0.028005692935700988 -0.032587694527425014 -0.036835877605838015 -0.014308658991301806 0.028763327990894968 0.031277224713763506 -0.0084982663753164264 0.011200232542643664 0.038048211351735195 -0.024618446173218188 -0.037498509481549182 -0.017412288569462305 -0.017345688603534627 0.034964365874522924 -0.0013635226548436949 0.039310826971533507 0.046248540018589579 -0.046703361812610089 0.060406632373671776
leaf_weight=160.97407925128937 5.550083026289939 63.995825201272964 237.51550924777985 1262.4478471875191 797.42405048012733 30.354684337973595 5.6906393170356742 4.8298805356025696 5.5111503452062625 134.73263750970364 5.5495752394199398 7.705614671111106 10.331017494201658 8.2357956022024172 61.986125275492668 7.3006176650524148 21.573278829455376 12.665099948644636 65.159651309251785 121.05112119019032 55.167932644486427 14.135619252920149 6.9212707430124265 8.4809303730726224 5.434211701154708 53.259097531437874 15.160496473312378 5.3803033530712128
leaf_count=666 23 269 958 5086 3239 122 23 20 23 579 23 31 43 35 272 30 89 51 273 521 230 57 29 35 22 229 62 23
internal_value=1.47669e-05 -0.00349675 -0.00161443 -0.000312389 -0.00209487 0.0133328 -0.0256541 0.0191613 -0.00275431 0.0218355 -0.0220618 0.0143661 -0.0307521 0.0298955 0.0163145 -0.0198763 -0.0100467 0.015691 -0.0156261 -0.0352632 -0.0292156 0 0.00983458 0.0267296 0.00511789 0.0334178 -0.0353901 0.0473006
internal_weight=3194.52 2699.91 2452.6 2327.74 2059.87 267.87 124.854 494.614 53.5846 441.029 247.314 230.666 142.366 210.363 222.96 34.2123 104.948 18.2147 86.7329 126.601 119.164 22.3714 11.7512 19.3724 15.7652 187.992 22.4611 10.8915
internal_count=13063 10972 9927 9405 8325 1080 522 2091 222 1869 1045 969 609 900 938 141 436 74 362 544 499 92 49 81 65 808 92 46
is_linear=0
shrinkage=0.05


Tree=16
num_leaves=31
num_cat=0
split_feature=18 28 38 2 4 40 22 24 24 18 7 5 4 1 10 8 5 18 25 4 6 9 24 7 12 7 8 18 5 0
split_gain=80.9192 48.6492 42.0916 25.1663 18.7315 16.9965 34.9505 24.8906 15.7456 16.9646 15.1951 15.6235 12.2414 10.2987 9.53098 9.4335 10.7866 12.9627 8.83749 11.7506 14.647 7.17998 5.6373 12.5828 5.43465 3.99362 3.58854 3.29421 3.14551 2.39549
threshold=20.305000305175785 0.031406637422331414 -0.01647966887235541 0.014949703472747621 -0.18340120477836899 0.02045447623527508 0.47368372856274227 0.11578866398540692 0.48899474736818976 18.260000228881839 1.339576178522071 0.30036193138150419 0.54143253458318086 -0.0076632622796117883 -0.011281297066211596 3.3292558856366732 0.30206353456814816 21.239999771118168 0.4466853683744279 0.11064002454175879 0.49119258795849485 1.7021698907774436 0.1014354995860897 1.7635379536146767 2.4405759078649738 1.7323618437969193 7.5780912557379594 21.239999771118168 0.2489573000723336 0.0023806666912009819
decision_type=2 2 2 2 2 2 2 2 2 2 2 2 2 2 2 2 2 2 2 2 2 2 2 2 2 2 2 2 2 2
left_child=1 4 8 18 14 7 -7 -4 9 -3 13 -12 -10 -6 28 24 21 -18 19 20 -2 -17 29 -24 25 -5 -16 -21 -1 -20
right_child=3 2 5 15 10 6 -8 -9 12 -11 11 -13 -14 -15 26 16 17 -19 22 27 -22 -23 23 -25 -26 -27 -28 -29 -30 -31
leaf_value=-0.015880044854178786 0.013631007951762284 -0.016016975551434543 0.015400743747011298 -0.024431523590279527 0.029657128140858715 -0.009504147113737307 0.020409011962010809 -0.008753041047905431 -0.027630695477461331 0.01279704601614233 0.020439940796487571 0.00027087637043890863 0.029735607627874201 -0.037559348335714907 0.033883999917605351 -0.0154974995204271 -0.009545388623533678 0.027692589711092088 0.033483589074784867 0.021885464657597543 -0.03911408514036796 0.036519405589307823 -0.024937677388031505 0.029553685769437506 0.052808253479027345 0.031416452649282188 -0.019624280742832956 0.057577505889040329 -0.069273021302677665 0.069443914531228099
leaf_weight=4.9439629316329983 122.16730530560017 243.15825238823891 119.61183173954487 5.1860667020082492 6.5640173554420498 184.05515477061272 205.625672519207 918.05126678943634 309.6282924413681 63.597933992743492 318.36745591461658 138.05475869774818 8.7197876721620542 23.067021235823631 4.8827235102653486 98.255622014403343 41.039810359477997 51.673437520861626 14.42069733142853 14.499030083417894 13.729693576693533 6.1196146607398978 10.348364219069479 200.84822794795036 12.667134597897528 5.5999471247196198 5.665038600564003 16.097219452261925 10.517451941967009 11.902332186698912
leaf_count=20 517 1020 480 21 27 741 828 3698 1300 255 1301 565 36 93 20 403 165 215 62 59 56 25 44 849 53 23 23 71 43 50
internal_value=1.68533e-05 -0.00391322 -0.00735427 0.0161428 0.00985689 -0.00260704 0.00627938 -0.00595186 -0.0181645 -0.0100047 0.012095 0.0143642 -0.0259555 -0.0220239 -0.0306824 0.00251473 -0.00108958 0.0112298 0.0235451 0.0145163 0.00801885 -0.0120826 0.0297656 0.0267552 0.0318139 0.00434514 0.00550181 0.0420499 -0.0545056 0.051873
internal_weight=3189.07 2564.51 2052.45 624.555 512.062 1427.34 389.681 1037.66 625.104 306.756 486.053 456.422 318.348 29.631 26.0092 220.542 197.088 92.7132 404.013 166.493 135.897 104.375 237.52 211.197 23.4531 10.786 10.5478 30.5962 15.4614 26.323
internal_count=13063 10450 8358 2613 2092 5747 1569 4178 2611 1275 1986 1866 1336 120 106 905 808 380 1708 703 573 428 1005 893 97 44 43 130 63 112
is_linear=0
shrinkage=0.05


Tree=17
num_leaves=30
num_cat=0
split_feature=18 28 38 2 23 7 26 1 13 9 15 7 5 14 4 25 6 10 7 4 4 6 5 2 18 6 6 31 10
split_gain=73.484 43.9492 38.2435 22.9148 17.1792 18.0235 16.5845 17.824 13.7075 11.9924 11.563 11.5282 11.4798 13.4957 8.29399 12.5924 13.218 8.16243 7.73656 7.26471 12.5081 9.06361 6.4759 6.28735 6.16467 5.59004 5.03278 4.06225 4.48111
threshold=20.305000305175785 0.031406637422331414 -0.01647966887235541 0.014949703472747621 0.53110004908317043 3.1860000292483686 4.1705000400543222 0.044342110660344401 9.6770984478596329 1.1393300253818601 -0.095700266862140462 1.2665120839346089 0.22100709724125175 0.059308528880052079 0.11064002454175879 0.45052783109404998 0.49119258795849485 0.019389795360979536 1.4657835978691007 0.045352947348015551 0.069608278844164428 0.16453697434580103 0.25331052578124191 0.10914528268492964 15.545000076293947 0.37498402588756663 0.27953402926258092 -0.081371350364952619 0.0014021637145411306
decision_type=2 2 2 2 2 2 2 2 2 2 2 2 2 2 2 2 2 2 2 2 2 2 2 2 2 2 2 2 2
left_child=1 4 8 14 5 11 7 -4 9 -3 -8 -1 18 -14 15 16 -2 22 -6 21 -21 -19 26 -24 -7 -17 -5 -16 -29
right_child=3 2 6 17 12 24 10 -9 -10 -11 -12 -13 13 -15 27 25 -18 19 -20 20 -22 -23 23 -25 -26 -27 -28 28 -30
leaf_value=-0.030492022981445932 0.012841247969689435 -0.021869987125742396 -0.0073961660606703273 0.0082529461809925566 -0.0061840318535507435 0.0039841915843093854 -0.012953498920122271 0.011007550115295117 0.046588006565473586 -0.0049133151192997434 0.013979392454798237 0.0098475354603856386 0.015002458621192039 -0.031440206730877322 0.059102185256722374 0.032064218972713242 -0.037176954371306317 0.02572950770427973 0.034496104172706619 0.049589117701308312 -0.004734220691946742 -0.035622551706495025 0.031108553523104317 -0.018092541209568911 -0.03853862724765858 0.01282712762564267 -0.034879856779297606 0.013780727944442149 0.049534056251712616
leaf_weight=18.329649060964584 122.99632032215595 480.23270045220852 1017.5032245516777 24.36553530395031 12.581566616892813 10.834204599261282 48.051704347133636 149.98150362074375 7.3123189955949774 135.02347277104855 211.10012875497341 208.49234534800053 104.41938233375549 17.358071953058243 19.490444794297218 153.83294063806534 13.773737534880636 6.609336093068122 105.89828164875507 11.060885176062582 85.918343514204025 29.921204969286919 47.523282736539841 6.6936790943145743 33.30691784620285 53.814375102519989 8.1997624188661558 22.880276620388031 15.13330729305744
leaf_count=74 522 2022 4098 101 51 44 193 604 30 559 852 854 428 71 88 659 56 27 434 46 351 121 198 27 136 223 34 96 64
internal_value=2.01379e-05 -0.00372469 -0.00699787 0.0154195 0.00937398 0.00071183 -0.00247713 -0.00502025 -0.0173287 -0.0181708 0.0089357 0.00644619 0.019079 0.00813967 0.0225106 0.0194424 0.00753447 0.00241597 0.0301188 -0.00530898 0.00185343 -0.0239993 0.0142824 0.0247259 -0.0281338 0.027188 -0.00317429 0.0401556 0.0290472
internal_weight=3182.64 2560.43 2049.21 622.213 511.22 270.963 1426.64 1167.48 622.568 615.256 259.152 226.822 240.257 121.777 401.921 344.417 136.77 220.292 118.48 133.51 96.9792 36.5305 86.7823 54.217 44.1411 207.647 32.5653 57.504 38.0136
internal_count=13063 10450 8358 2613 2092 1108 5747 4702 2611 2581 1045 928 984 499 1708 1460 578 905 485 545 397 148 360 225 180 882 135 248 160
is_linear=0
shrinkage=0.05


Tree=18
num_leaves=31
num_cat=0
split_feature=18 27 9 29 4 2 6 4 8 45 4 10 27 8 5 12 18 16 4 3 7 22 8 15 2 16 1 4 4 22
split_gain=66.6916 42.6798 30.4307 23.5175 29.9277 21.734 19.8611 19.1541 18.8315 18.2515 17.0243 12.0081 11.0598 10.9395 17.243 12.0988 11.9295 10.4728 10.424 9.41359 8.95936 7.68229 7.51631 6.47522 7.6566 4.44929 4.40156 5.42748 4.19237 2.53571
threshold=20.305000305175785 -0.013067437519941048 0.95873993591401274 0.35999762852294037 0.098627102090667315 -0.007462953502381491 0.18433493273803972 0.28406789994826792 7.5780912557379594 0.017325340660172887 -0.023854824843501259 -0.10462720436139787 0.0086953205749202862 5.1438473845407069 0.30206353456814816 3.5406067756773294 21.239999771118168 0.81826553091667653 -0.21894721786720742 0.028866363482284274 1.5792997468948211 0.95598082093433845 2.383302248745323 -0.10433437321392434 -0.018524012196038678 0.57260315525957972 -0.061164370993029529 0.0040651247068617573 0.017886389888111698 0.024880405558852191
decision_type=2 2 2 2 2 2 2 2 2 2 2 2 2 2 2 2 2 2 2 2 2 2 2 2 2 2 2 2 2 2
left_child=1 2 11 17 8 12 10 -8 -5 -6 -4 28 23 15 21 22 -16 19 -13 -3 -19 -15 -7 -2 -25 -17 29 -28 -1 -14
right_child=5 3 6 4 9 13 7 -9 -10 -11 -12 18 26 14 16 25 -18 20 -20 -21 -22 -23 -24 24 -26 -27 27 -29 -30 -31
leaf_value=-0.057788842180911792 0.041111673724012435 0.015211723925474419 -0.019016639022756358 -0.0032356210577054196 0.045932975282889435 0.036946860614181391 -0.012068383997558853 0.025611972487241754 -0.02241258621470972 0.0069176316625770276 0.026095374244248917 0.03665648432334969 0.017524760141050269 -0.025139870853844611 -0.0083177824041682034 0.047133209423285895 0.026563269991309275 -0.027175059329609681 -0.018082044040156536 -0.0024117035980473515 0.037232448647915022 0.034599909076138663 -0.00099517821310047476 0.0079083229532978718 0.041942420994497305 0.014345551021936638 0.020403792101995 0.04530819862140386 -0.025027706579930649 0.061441767203467196
leaf_weight=25.041895061731339 21.686390265822411 204.91682144999504 26.257775038480759 674.21651102602482 32.568413138389587 14.51857979595661 313.00122743844986 36.771019488573074 157.44702264666557 292.78899788856506 89.672287166118622 7.8947069346904746 5.409504488110545 70.460809051990509 43.665984570980072 30.68963834643364 53.362855672836304 5.1631763875484458 495.51069106161594 118.80100567638874 55.577043294906616 4.8923297077417365 80.465269476175308 136.70995773375034 18.077513426542282 17.886116042733192 63.229800015687943 36.78269924223423 20.967447727918625 21.904616951942444
leaf_count=105 90 837 107 2735 132 61 1277 148 644 1193 362 33 24 289 176 132 224 21 2058 485 226 20 335 563 75 74 280 169 87 101
internal_value=2.21706e-05 -0.00354443 -0.0115006 0.00169578 -0.00186243 0.0147254 -0.00207696 -0.00803113 -0.00689468 0.0109672 0.0157596 -0.019461 0.0242582 0.00549549 -0.00297094 0.0156465 0.01089 0.0123942 -0.0171427 0.00874121 0.0313251 -0.0207934 0.0050768 0.0159566 0.0121589 0.0356942 0.0355111 0.0299705 -0.0438152 0.0538468
internal_weight=3176.34 2556.6 1015.12 1541.48 1157.02 619.742 465.702 349.772 831.664 325.357 115.93 549.415 303.8 315.942 172.382 143.56 97.0288 384.458 503.405 323.718 60.7402 75.3531 94.9838 176.474 154.787 48.5758 127.327 100.012 46.0093 27.3141
internal_count=13063 10450 4177 6273 4704 2613 1894 1425 3379 1325 469 2283 1302 1311 709 602 400 1569 2091 1322 247 309 396 728 638 206 574 449 192 125
is_linear=0
shrinkage=0.05


Tree=19
num_leaves=31
num_cat=0
split_feature=18 26 23 8 9 24 47 2 22 46 15 35 37 15 12 24 5 18 45 18 16 18 7 15 2 1 11 2 14 14
split_gain=60.6663 27.3244 28.6638 33.934 23.4679 22.1277 21.3996 19.8997 19.8884 31.3431 16.344 14.7228 14.0244 11.9066 10.8801 10.3838 17.0171 16.3831 10.3431 9.35957 8.10736 7.28023 6.9441 5.95303 7.0312 5.54809 4.83758 8.30763 6.47339 2.42708
threshold=20.305000305175785 4.1245000362396249 0.63444942601994103 7.5051081708043741 0.96148420543208701 0.60382738840904604 0.065736917166409406 -0.007462953502381491 0.47368372856274227 -0.0074141276702327499 -0.11109251006273263 0.012205132493598671 -0.028550345026727205 0.074002774742506425 0.18437520425948725 0.13492743749221631 0.25040870797351866 21.239999771118168 0.024485553935474583 20.800000190734867 0.93050661943396595 22.60000038146973 2.263614627096517 -0.10433437321392434 -0.018524012196038678 -0.0020625393142213078 -2.462281137263536 -0.031780388872956443 0.11546522400435645 -0.11209744396905845
decision_type=2 2 2 2 2 2 2 2 2 2 2 2 2 2 2 2 2 2 2 2 2 2 2 2 2 2 2 2 2 2
left_child=1 4 3 6 8 20 -3 18 13 -10 22 -7 -12 -1 -5 19 21 -18 26 -9 -6 -17 -4 29 -25 -21 28 -28 -2 -20
right_child=7 2 10 14 5 11 -8 15 9 -11 12 -13 -14 -15 -16 16 17 -19 23 25 -22 -23 -24 24 -26 -27 27 -29 -30 -31
leaf_value=-0.021148952360691909 0.044501565222346773 0.003933609745399083 -0.025149979480177817 -0.033747864699830772 0.0059304419157673455 -0.033115768037201947 -0.014335400372527056 -0.018618264666195258 -0.017535705050652054 0.01756687147195457 -0.014097258559734736 -0.002318950361081052 0.015864635856052443 -0.048589862362188062 0.0094994496865144808 -0.00697748569073239 -0.007222929192090723 0.024731486765047883 0.007227794691563847 -0.0051816407551740842 0.059825910295588959 -0.038137098897544429 0.0040204394357147497 0.0075249533343656029 0.040245837600395094 0.042697902642507661 -0.025714803937962716 0.029768796821284589 -0.012164981153767618 0.048684118581112663
leaf_weight=212.34675462543964 80.027358248829842 629.2813650816679 41.021711319684982 111.9301522821188 276.62476828694344 69.045194327831268 213.9276760071516 9.1398280709981901 228.74994659423828 86.904103994369507 41.880791902542114 88.240686908364296 442.91835881769657 49.464994192123413 16.054073438048363 76.645446017384529 68.790817007422447 93.395945534110069 5.3098835498094585 6.7663673609495154 6.2035309076309195 24.369136169552803 38.704166993498802 136.54632966220379 17.943195149302483 36.234096542000771 7.4732361733913413 33.488936275243759 4.8241979777812949 16.206085979938507
leaf_count=882 370 2555 167 459 1120 284 892 37 950 351 178 360 1798 206 66 317 278 396 22 29 25 101 157 563 75 153 33 149 22 68
internal_value=2.78973e-05 -0.00337196 0.000836161 -0.00436738 -0.00972228 -0.00100688 -0.000706926 0.0140844 -0.0163428 -0.00783071 0.00978893 -0.0159935 0.0132423 -0.0265176 -0.0282527 0.00525373 0.0011589 0.0111863 0.0232465 0.0254193 0.00733681 -0.0148437 -0.0110524 0.0152294 0.0115919 0.0351036 0.034214 0.0191555 0.0411174 0.0394507
internal_weight=3170.46 2553.3 1535.72 971.193 1017.58 440.114 843.209 617.161 577.466 315.654 564.525 157.286 484.799 261.812 127.984 315.342 263.201 162.187 301.819 52.1403 282.828 101.015 79.7259 176.005 154.49 43.0005 125.814 40.9622 84.8516 21.516
internal_count=13063 10450 6272 3972 4178 1789 3447 2613 2389 1301 2300 644 1976 1088 525 1311 1092 674 1302 219 1145 418 324 728 638 182 574 182 392 90
is_linear=0
shrinkage=0.05


Tree=20
num_leaves=31
num_cat=0
split_feature=18 27 9 29 4 2 24 45 8 20 12 10 4 16 3 7 8 4 17 0 7 29 29 0 12 0 3 27 10 1
split_gain=55.072 35.9332 25.1759 20.6007 26.364 18.2923 18.1288 15.8961 15.3454 15.0386 14.0988 10.9999 9.54259 9.3191 8.90668 8.08384 7.93968 7.90844 11.5607 8.61299 7.68623 11.4918 11.3564 5.37308 4.87301 4.42419 4.01703 3.64559 4.25253 0.151469
threshold=20.305000305175785 -0.013067437519941048 0.95873993591401274 0.35999762852294037 0.10908949180362491 0.014949703472747621 0.096649890478597553 0.017325340660172887 7.5780912557379594 0.98326296860373164 9.492106136105809 -0.10462720436139787 -0.21894721786720742 0.81826553091667653 0.028866363482284274 1.5792997468948211 3.3292558856366732 0.11064002454175879 0.044194405807804933 -0.028303715712659067 2.8409670902915933 0.69321817018554077 0.33303297363427914 0.0052309472559699021 1.6270947941983003 -0.0026850554290628239 0.015673708366082412 0.0086953205749202862 0.0031851297080106654 -0.066273472947914275
decision_type=2 2 2 2 2 2 2 2 2 2 2 2 2 2 2 2 2 2 2 2 2 2 2 2 2 2 2 2 2 2
left_child=1 2 11 13 8 17 9 -6 -5 -4 -8 26 -13 14 -3 -15 23 18 19 -2 21 -18 -22 -7 -25 -20 -1 28 -19 -29
right_child=5 3 6 4 7 16 10 -9 -10 -11 -12 12 -14 15 -16 -17 20 27 25 -21 22 -23 -24 24 -26 -27 -28 29 -30 -31
leaf_value=-0.049859855838050193 0.034882638140040535 0.014481807822998167 -0.024327832557608332 -0.0029514161045106294 0.045981973456383163 -0.0031885440940040387 -0.0092218028093211789 0.0071760447539895196 -0.020039784787612248 0.039829086634703255 0.017027307871853605 0.03578674378701939 -0.016495807269617521 -0.025948567863832039 -0.0026724966400978249 0.035182610861906376 0.00027691849549046134 0.013350491815902133 -0.053434335384428502 0.014573447673112165 -0.0087647881337394092 -0.03450188512586521 0.027647654364887666 0.0028602549093344623 0.064351215084468727 0 -0.013617270749083197 0.029318432470874074 0.049184641090179559 0.060716852036761894
leaf_weight=33.890326216816902 66.431901633739471 204.47547763586044 10.899628952145575 695.03805461525917 28.420087441802025 8.1396522670984286 355.34568963944912 270.41625826060772 161.46420708298683 40.169973880052567 58.681142956018448 7.9176652729511252 492.38390673696995 5.1695018857717505 118.64846570789814 55.252535194158554 79.766760051250458 24.593392372131348 6.403073087334632 258.35326869785786 40.885426998138428 32.646247282624245 42.806445091962814 4.9364508241415015 10.019732892513273 8.0049929022788984 11.533580780029295 4.2459398359060314 12.946082040667532 14.379032254219053
leaf_count=144 290 837 45 2822 116 34 1450 1102 664 161 238 33 2058 21 485 226 329 104 26 1111 166 134 179 20 43 33 48 20 56 68
internal_value=2.72605e-05 -0.00321058 -0.0105301 0.00159776 -0.00173354 0.0134521 -0.00196241 0.0110243 -0.00619829 0.025836 -0.00545734 -0.0178059 -0.0155887 0.0116239 0.00817865 0.0295337 0.00182791 0.0198634 0.0168664 0.0188372 -0.00146858 -0.00999438 0.00990684 0.0289249 0.04582 -0.0255736 -0.0412568 0.0372642 0.0267938 0.0556724
internal_weight=3164.26 2549.71 1010.82 1538.88 1155.34 614.558 465.096 298.836 856.502 51.0696 414.027 545.725 500.302 383.546 323.124 60.422 219.201 395.358 339.193 324.785 196.105 112.413 83.6919 23.0958 14.9562 14.4081 45.4239 56.1644 37.5395 18.625
internal_count=13063 10450 4177 6273 4704 2613 1894 1218 3486 206 1688 2283 2091 1569 1322 247 905 1708 1460 1401 808 463 345 97 63 59 192 248 160 88
is_linear=0
shrinkage=0.05


Tree=21
num_leaves=31
num_cat=0
split_feature=31 29 24 37 27 9 1 26 9 14 14 47 24 7 15 18 1 10 23 5 25 26 16 8 15 9 14 14 5 0
split_gain=52.7153 26.3291 18.002 18.4276 15.4865 14.7862 18.991 16.7942 14.7822 12.6782 11.6072 10.8401 10.4538 11.3075 9.9995 8.50629 8.12129 7.59092 8.35309 11.1346 6.80169 6.09157 5.93944 5.728 4.96461 4.62811 3.27498 2.79174 2.50648 1.4376
threshold=-0.037113328274618267 0.35999762852294037 0.11578866398540692 -0.035786824137375321 -0.037582708797382895 1.0084236182172464 0.015848834099065113 4.1340000629425058 1.0149677574212903 0.066635575720374832 -0.019939116428537823 0.059860228613940254 0.86028695340029171 3.9840746895374326 0.031698469736502081 21.239999771118168 -0.023823216466055185 -0.065613583092056699 0.19808539006468726 0.30206353456814816 0.58213310202273749 4.2084999084472665 0.30484984451723968 6.7152404343329453 1.0000000180025095e-35 0.7819127420710793 0.086281391935877014 -0.068487765932807934 0.3987140351489748 -0.011237433983020175
decision_type=2 2 2 2 2 2 2 2 2 2 2 2 2 2 2 2 2 2 2 2 2 2 2 2 2 2 2 2 2 2
left_child=12 5 8 20 -5 6 7 -2 14 16 -8 -10 17 22 -3 29 -7 24 21 -20 -4 -19 -14 -11 26 -17 -1 -26 -24 -15
right_child=1 2 3 4 -6 9 10 -9 11 23 -12 -13 13 15 -16 25 -18 18 19 -21 -22 -23 28 -25 27 -27 -28 -29 -30 -31
leaf_value=0.052355598916017071 -0.021895586052898677 0.0069520051982772391 -0.028659775152968477 -0.014954327256991619 -0.0027899569495705842 0.033067942937726046 0.024619125858243236 0.0071051891120561018 0.032312859228824896 -0.031327558758453132 -0.0042024817548222742 -0.0027794697618791536 -0.00066965714188448879 -0.0044138025969872935 -0.021094030361504472 -0.019175532238993168 0.012734456658533913 0.017202224772257493 0.011975003947404021 0.033386952039260322 -0.010310853294001283 -0.018726208528488841 -0.0225760639445385 0.010481928098317137 -0.0013875041349773265 0.029778416889927401 0.005905871105154361 0.028985444731982092 -0.073150239365859335 -0.041673542393873664
leaf_weight=30.78672830760479 125.26245012879372 84.591580614447594 122.48202928900719 330.09745609760284 1258.9664077609777 67.444593131542206 86.365621611475945 81.578912541270256 71.213570013642311 19.322382837533951 57.342371985316277 31.074586048722267 9.654916003346445 5.2604737877845764 49.479922339320183 4.8351802229881278 189.35748045146465 18.715827018022537 211.95796501636505 86.143330484628677 90.112227529287338 28.257911369204521 6.0828259885311109 12.830696597695349 11.383887827396395 31.462251260876656 4.9014442414045325 19.456716492772102 6.5163922607898712 5.5658336132764799
leaf_count=138 510 345 543 1387 5086 278 351 336 287 79 233 126 40 22 202 20 775 86 917 378 382 117 25 52 51 137 22 88 27 23
internal_value=3.02068e-05 -0.00270744 -0.00548574 -0.00718939 -0.00532783 0.00613356 -0.000759976 -0.0104544 0.00745487 0.0144876 0.0131346 0.0216799 0.0152545 -0.00260502 -0.00344108 0.0111905 0.0182016 0.0182759 0.0151871 0.0182701 -0.0209903 -0.00424677 -0.0312574 -0.0146797 0.0337609 0.0227839 0.0464473 0.0179257 -0.0525566 -0.025896
internal_weight=3158.5 2677.52 2038.02 1801.66 1589.06 639.505 350.549 206.841 236.36 288.955 143.708 102.288 480.982 69.3779 134.072 47.1237 256.802 411.604 345.075 298.101 212.594 46.9737 22.2541 32.1531 66.5288 36.2974 35.6882 30.8406 12.5992 10.8263
internal_count=13063 10972 8358 7398 6473 2614 1430 846 960 1184 584 413 2091 294 547 202 1053 1797 1498 1295 925 203 92 131 299 157 160 139 52 45
is_linear=0
shrinkage=0.05


Tree=22
num_leaves=27
num_cat=0
split_feature=31 29 4 6 45 46 9 1 26 8 4 3 22 36 0 10 24 10 16 23 1 26 16 25 8 0
split_gain=47.8025 23.8167 18.7029 27.7446 17.2155 16.6293 13.3764 17.1765 15.2065 10.9274 9.82465 13.8438 10.9618 8.21549 7.65377 6.93927 6.4713 5.77485 8.31754 5.67351 11.7189 11.0414 5.58064 3.96187 3.88757 3.00629
threshold=-0.037113328274618267 0.35999762852294037 0.43008291256326664 0.34372758966459599 0.029875054279419725 -0.029139031043710514 1.0084236182172464 0.015848834099065113 4.1340000629425058 10.619691353399963 0.015126869846340258 0.18875246257358994 0.92918653802480533 0.062578891787503213 0.00018397018384230557 0.087398803566649197 0.21722416357149663 0.074448103012583408 0.6720718618616065 0.22487967297422037 -0.023823216466055185 4.2084999084472665 0.85349076156249126 0.2161376051971062 15.029035935367023 0.0056162342460326512
decision_type=2 2 2 2 2 2 2 2 2 2 2 2 2 2 2 2 2 2 2 2 2 2 2 2 2 2
left_child=10 6 3 4 -3 -5 7 8 -2 -9 12 17 19 14 -4 22 -17 23 -19 21 -21 -1 -8 -12 -15 -13
right_child=1 2 13 5 -6 -7 15 9 -10 -11 11 25 -14 24 -16 16 -18 18 -20 20 -22 -23 -24 -25 -26 -27
leaf_value=0.017521845669857965 -0.02085255566416612 0.0016041436578671569 0.033290829968949991 -0.034240095632676 -0.0088986532877351875 -0.011383344232788806 0.014524302552573823 0.018648056686748536 0.0067618238133672695 -0.017849499396666805 0.041697156609214768 -0.00081675653739480669 -0.047043695358486709 0.055232897963019695 -0.025063875531503167 0.03211242720315325 -0.014928715133489898 0.027090153475151965 -0.024621090979027933 0.036060156217058062 0.0053628790748151828 -0.016753197512946537 0.041450757015364603 0.023889270311465108 0.017571384085338024 -0.043149074383128726
leaf_weight=44.362192884087563 125.00816325843334 885.94134843349457 8.7607688158750552 109.98245076835155 694.99440409243107 292.27326275408268 226.14824216067791 119.81823928654194 81.488557890057564 23.734640687704086 43.999655440449715 9.0131112039089221 7.9195886701345435 17.48972982168198 12.239336520433424 8.2731993049383146 33.300094708800316 16.457225844264034 12.9928972274065 46.231658443808556 93.721364632248878 47.738842248916626 20.776155337691307 148.83657562732697 13.768533661961554 7.3412462472915641
leaf_count=203 510 3577 36 465 2901 1202 929 488 336 96 197 37 32 71 50 34 136 71 53 209 392 199 85 668 56 30
internal_value=2.85339e-05 -0.00257608 -0.00521999 -0.00600452 -0.00301253 -0.0177145 0.00583888 -0.000721535 -0.00995109 0.0124973 0.0145659 0.0217457 0.00734457 0.0240124 -8.56808e-05 0.0137913 -0.00491556 0.0250317 0.00405248 0.00941609 0.0157227 -0.000179398 0.0169681 0.0281725 0.0398578 -0.0214987
internal_weight=3152.61 2674 2035.45 1983.19 1580.94 402.256 638.547 350.05 206.497 143.553 478.614 238.641 239.974 52.2584 21.0001 288.498 41.5733 222.286 29.4501 232.054 139.953 92.101 246.924 192.836 31.2583 16.3544
internal_count=13063 10972 8358 8145 6478 1667 2614 1430 846 584 2091 1056 1035 213 86 1184 170 989 124 1003 601 402 1014 865 127 67
is_linear=0
shrinkage=0.05


Tree=23
num_leaves=31
num_cat=0
split_feature=31 29 4 6 31 21 26 22 0 7 24 7 4 10 5 9 1 10 18 5 0 0 10 8 22 4 23 2 38 9
split_gain=43.3762 21.5419 17.3782 24.3923 17.9766 15.9261 12.5568 21.6803 15.4824 15.3163 9.38427 9.05266 8.81255 9.96397 8.14796 8.04092 7.80257 7.78234 7.62619 7.45527 7.15443 5.26508 4.76694 4.4487 4.27677 3.6108 3.58545 2.33432 0.630047 0.206653
threshold=-0.037113328274618267 0.35999762852294037 0.54143253458318086 0.34372758966459599 -0.025967568141420535 -0.17944497428073661 4.1340000629425058 0.88708123630982483 0.0098716324914188084 1.7039650447231875 0.89473674571254858 5.5150149136015658 0.021805786570201446 -0.065613583092056699 0.54143027749427641 0.76430718742161885 0.062135642069949051 0.036234765773566303 16.435000419616703 0.19379629925612021 -0.027508237034304658 -0.028303715712659067 0.24103635008377097 18.132321466889035 0.71866002944990226 0.0098008699988150726 0.47751148326410414 -0.035886160705300083 -1.0000000180025095e-35 1.1936150905639367
decision_type=2 2 2 2 2 2 2 2 2 2 2 2 2 2 2 2 2 2 2 2 2 2 2 2 2 2 2 2 2 2
left_child=10 6 3 5 -5 -3 7 9 15 -2 12 21 13 26 -9 -8 22 -18 28 -10 -15 25 -14 29 -20 -12 -1 -23 -4 -13
right_child=1 2 18 4 -6 -7 8 14 19 -11 11 23 16 20 -16 -17 17 -19 24 -21 -22 27 -24 -25 -26 -27 -28 -29 -30 -31
leaf_value=0.020842522532432378 -0.026880453102131746 -0.022888393395358086 0.078776041343282061 -0.038871147130781401 -0.01144662543635565 -0.0014531342409139407 -0.0039505779476904012 0.045771128577336617 0.024902930189479186 0.00054194767478008769 -0.024420066259243631 0.024878927485291951 0.028817945679473152 0.026737080915968249 -0.0008024751117336129 0.022581079624314548 0.034527498199654588 -0.025043169082322809 -0.022628974325949069 -0.033355530167748164 -0.00072899733385504636 -0.010843691264124461 -0.017189292541092343 -0.005492200132925497 0.026934707857755827 0.028251565894500615 0.054436108203939806 -0.04694546283312212 0.037133445147480397 0.053493515779112821
leaf_weight=39.058869034051895 61.132026135921478 91.05665622651577 5.6994194835424423 72.123727723956108 343.58234760165215 1497.5871616005898 32.873160034418106 31.401135459542274 6.2913740724325207 280.15519332885742 4.6699723005294782 5.699465751647951 174.08965887129307 27.217157155275345 12.881263792514799 190.65377210080624 7.4915564507246044 14.419191271066664 5.5600534379482296 22.193416103720665 146.21517209708691 8.0083166062831879 5.0567597299814215 8.2933573424816114 11.948480412364004 6.5872527658939362 10.482210695743559 14.098949581384659 5.7357787042856234 4.585853785276413
leaf_count=178 250 394 23 300 1427 6119 135 127 26 1139 20 25 787 124 52 796 33 59 23 89 621 34 21 35 49 29 46 58 23 21
internal_value=2.93528e-05 -0.00244854 -0.00496398 -0.0055284 -0.0162986 -0.00269851 0.00556078 -0.000105721 0.0142163 -0.00441958 0.0139202 -0.00597203 0.0163771 0.00943014 0.0323944 0.0186567 0.0239717 -0.00383895 0.0328347 -0.0199103 0.00368123 -0.0214064 0.0274033 0.021168 0.0105528 0.00578358 0.0289858 -0.0351193 0.0629565 0.0416898
internal_weight=3146.85 2670.87 2033.29 2004.35 415.706 1588.64 637.581 385.57 252.012 341.287 475.974 51.9432 424.031 222.973 44.2824 223.527 201.057 21.9107 28.9437 28.4848 173.432 33.3645 179.146 18.5787 17.5085 11.2572 49.5411 22.1073 11.4352 10.2853
internal_count=13063 10972 8358 8240 1727 6513 2614 1568 1046 1389 2091 222 1869 969 179 931 900 92 118 115 745 141 808 81 72 49 224 92 46 46
is_linear=0
shrinkage=0.05


Tree=24
num_leaves=25
num_cat=0
split_feature=31 37 27 38 24 6 3 8 6 10 24 15 24 3 10 5 9 22 8 25 0 0 12 3
split_gain=39.4124 21.3788 22.1239 20.4118 21.2959 13.1027 11.5457 15.7829 12.8292 8.85307 8.75992 8.40448 8.97885 6.73314 8.40567 6.54343 6.40043 6.19226 5.16768 5.06829 6.08004 3.41014 2.97863 2.42438
threshold=-0.037113328274618267 -0.035786824137375321 -0.037582708797382895 -0.017976485426242302 0.30143476700145788 0.17312318165511406 0.016977846704241319 14.527700955643411 0.22307145817089233 0.32274767424909584 0.86028695340029171 -0.045538955980579464 0.087080503725192868 0.054552404095610976 -0.065613583092056699 0.13199194073500423 0.87016305694498419 0.54258331318725606 7.5051081708043741 0.61287280377971365 0.0031957991712004237 -0.019827221640614526 0.18437520425948725 -0.0038095183035655564
decision_type=2 2 2 2 2 2 2 2 2 2 2 2 2 2 2 2 2 2 2 2 2 2 2 2
left_child=9 11 6 5 -5 -4 7 -3 -8 10 13 19 22 14 -1 -14 21 -15 -18 23 -21 -12 -13 -2
right_child=1 2 3 4 -6 -7 8 -9 -10 -11 16 12 15 17 -16 -17 18 -19 -20 20 -22 -23 -24 -25
leaf_value=0.029995449472175997 -0.057529957304514337 -0.020867453954325654 -0.004940581071457493 0.0078637709714561715 -0.004893727139747249 0.016952888759665045 0.012307791218985856 0.031158475186011354 -0.011289730181510901 -0.050401633782897998 0.0033052382369276722 -0.0034596827214342287 -0.03821316070526265 0.053610307740103759 0.0092414601102906412 -0.0091583097921420099 -0.025358489298348438 0.021260381059418493 0.013333261039171641 0.0073424466072515241 -0.033620950911976442 -0.045041459848828416 0.039100840658552315 -0.029790294433867333
leaf_weight=60.440250650048256 16.301232755184174 239.33047346770763 88.177065521478653 467.40077337622643 1082.8752675354481 292.31348693370819 90.657925948500633 14.576298892498015 153.75489187240601 4.4041672497987738 4.9082189798355094 5.8669180124998119 22.52860289812088 19.713312089443207 253.89821842312813 122.75382050871849 9.6988898664712888 66.943440765142441 43.190423458814621 15.895288705825804 18.730177357792854 10.367129534482954 10.424512684345244 26.368795543909073
leaf_count=279 75 1021 361 1884 4386 1207 371 60 637 18 21 25 99 88 1125 539 42 289 186 67 80 43 43 117
internal_value=3.16375e-05 -0.00232755 -0.000918755 0.00150439 -0.00104159 0.0118664 -0.0103016 -0.0177506 -0.00250205 0.0133102 0.0140249 -0.0165694 -0.00993104 0.0168373 0.0133303 -0.0139284 -0.00245167 0.0292043 0.00580625 -0.0300778 -0.0149975 -0.0299511 0.024171 -0.0415769
internal_weight=3141.52 2667.96 2429.09 1930.77 1550.28 380.491 498.32 253.907 244.413 473.564 469.16 238.869 161.574 400.995 314.338 145.282 68.1647 86.6568 52.8893 77.2955 34.6255 15.2753 16.2914 42.67
internal_count=13063 10972 9927 7838 6270 1568 2089 1081 1008 2091 2073 1045 706 1781 1404 638 292 377 228 339 147 64 68 192
is_linear=0
shrinkage=0.05


Tree=25
num_leaves=29
num_cat=0
split_feature=18 27 9 11 11 37 13 7 8 29 16 4 7 0 20 15 10 4 23 20 17 14 15 8 17 10 7 23
split_gain=35.8347 25.2504 19.9805 15.5707 15.2354 16.2086 13.5273 13.5194 22.9131 13.7059 13.3193 13.252 15.65 12.5744 12.4466 10.1903 10.1617 8.7445 8.43718 7.55846 6.91536 6.02139 4.89278 4.60661 4.59685 4.72714 4.08265 2.44678
threshold=20.305000305175785 -0.013067437519941048 0.95873993591401274 5.959985527211507 -4.8497120907348057 -0.028550345026727205 9.7771949043808313 2.8168322297678907 5.3863309875087095 0.69321817018554077 0.53770101325343145 0.053205178047455129 1.8442711506147018 0.011826964648832631 1.0012683415898962 -0.10264375633934204 -0.10462720436139787 -0.21894721786720742 0.66124370892947415 1.0556523615146118 0.046151511693046161 -0.095684917214039628 0.0028171176860638451 18.132321466889035 0.028145932713890213 0.02166659674845792 2.375127846300352 0.92535878332344357
decision_type=2 2 2 2 2 2 2 2 2 2 2 2 2 2 2 2 2 2 2 2 2 2 2 2 2 2 2 2
left_child=1 2 16 7 13 21 -7 8 15 20 -10 14 -13 19 -4 -2 26 -18 -5 -3 -9 -6 -15 -11 27 -26 -1 -20
right_child=3 4 11 18 5 6 -8 9 10 23 -12 12 -14 22 -16 -17 17 -19 24 -21 -22 -23 -24 -25 25 -27 -28 -29
leaf_value=-0.053725177260440328 0.040829492977070975 0.0020775927401151003 -0.021769027617705772 -0.067525583205335596 0.004338205576048422 0.0050890539820953838 -0.041001963071862692 0.016993508008369487 -0.040491759632703087 0.040901246034776233 0.0022050386441614584 0.031411220647385843 0.0002031546277540122 -0.018946810798774749 0.00080970072200748614 0.010129379545644683 0.036048352946399131 -0.014040975326227893 -0.0020286298308182398 -0.025192570546473086 -0.016889596564937045 -0.021653423003353572 -0.078120260557484472 -0.0072366583044089026 0.024794135402075802 -0.0086368289240284744 -0.021573008914022525 -0.047886391184422082
leaf_weight=21.467763468623161 30.753129512071609 62.464921981096268 107.14085251092911 5.1734873205423346 29.21637961268425 1280.8013838976622 15.107368215918539 131.28785488009453 33.17969673871994 84.054757744073868 38.573810204863548 52.314469575881958 164.35165594518185 6.9928095787763622 139.03860627114773 198.97489936649799 7.8891526758670798 486.17010831832886 4.8949685543775541 41.337631344795227 16.039140805602074 85.486189320683479 9.1392812281846982 4.7995722293853751 13.966733023524283 34.921577975153923 22.994720578193665 7.5839909464120865
leaf_count=92 137 258 448 21 127 5216 61 569 141 368 168 211 668 29 567 870 33 2058 20 171 67 373 38 21 58 142 100 31
internal_value=2.84221e-05 -0.00258172 -0.00875138 0.0109607 0.00145462 0.00291588 0.00451668 0.0137887 0.00671232 0.0227342 -0.0177549 -0.0011156 0.00787107 -0.0155726 -0.00904497 0.0144199 -0.0152906 -0.0131598 -0.0116825 -0.00887134 0.013182 -0.0150095 -0.0553652 0.0381938 -0.00588732 0.00111927 -0.0380473 -0.0317543
internal_weight=3136.12 2531.91 1001.37 604.204 1530.55 1410.61 1295.91 537.663 301.482 236.181 71.7535 462.846 216.666 119.935 246.179 229.728 538.522 494.059 66.5408 103.803 147.327 114.703 16.1321 88.8543 61.3673 48.8883 44.4625 12.479
internal_count=13063 10450 4177 2613 6273 5777 5277 2341 1316 1025 309 1894 879 496 1015 1007 2283 2091 272 429 636 500 67 389 251 200 192 51
is_linear=0
shrinkage=0.05


Tree=26
num_leaves=30
num_cat=0
split_feature=31 29 4 6 46 20 9 1 26 14 14 4 3 2 26 3 1 17 36 0 8 26 5 14 10 24 5 21 0
split_gain=33.6188 18.5476 16.0351 22.1595 13.877 13.0935 11.1582 14.8578 11.7952 11.5524 10.5612 8.52124 11.3537 7.97935 11.166 12.8426 7.28183 7.14281 7.03468 6.84348 5.30369 4.78829 11.9463 7.90909 4.49451 4.49482 4.03097 3.79936 2.74036
threshold=-0.037113328274618267 0.35999762852294037 0.43008291256326664 0.34372758966459599 -0.029139031043710514 0.90613257061368313 1.0084236182172464 0.015848834099065113 4.1340000629425058 0.066635575720374832 -0.019939116428537823 -0.0013801438429869952 0.18875246257358994 -0.0096409397668060868 4.2084999084472665 -0.053395414990772473 -0.023823216466055185 -0.061469337535691719 0.062578891787503213 0.00018397018384230557 6.7152404343329453 4.2084999084472665 0.30206353456814816 -0.11209744396905845 0.10954207708645806 0.24401844648102974 0.61531785525643834 0.04302805729162576 0.0056162342460326512
decision_type=2 2 2 2 2 2 2 2 2 2 2 2 2 2 2 2 2 2 2 2 2 2 2 2 2 2 2 2 2
left_child=11 6 3 5 -5 -3 7 8 -2 16 -9 13 24 14 17 -16 -8 -1 19 -4 -11 22 -15 -23 26 -26 -13 -20 -14
right_child=1 2 18 4 -6 -7 9 10 -10 20 -12 12 28 21 15 -17 -18 -19 27 -21 -22 23 -24 -25 25 -27 -28 -29 -30
leaf_value=0.052091497999484662 -0.018967724773760478 -0.01207570353276138 0.031779924974110883 -0.03100231037843644 -0.0099678004405535491 -0.00036505171012643451 0.030293530911352673 0.022587384262484231 0.005421255012352761 -0.03130332390987605 -0.0049500319338036218 0.025173227242607524 -0.0010106986901777533 -0.033408398469617816 -0.019179521537838251 0.027888947558956184 0.01096639218456924 0.015739134387456773 0.055270240107002912 -0.023495954446788113 0.0090230603439343891 -0.042739848810900698 0.01806619861983504 0.022340854890104556 -0.033837881768763421 0.014275583064024953 -0.00082024425640507678 0.01849677361088093 -0.041590998078863427
leaf_weight=17.742939859628677 124.18698596954346 292.5765770226717 8.7441336810588854 107.98399788141251 290.4627688229084 1282.3932915180922 66.703265175223351 85.905483439564705 81.048764780163765 19.270198836922646 57.159238889813423 204.13558781147003 8.9771044999361056 34.058630362153053 42.196403115987778 20.786012813448906 188.19304640591145 57.016040593385696 14.801461547613146 12.164307519793509 12.774220541119574 4.8934359848499325 15.708819165825842 21.402033716440201 6.1536461114883449 14.05988074839115 15.616942659020422 16.422686338424683 7.29208119213581
leaf_count=89 510 1239 36 465 1202 5239 278 351 336 79 233 934 37 140 178 87 775 267 60 50 52 20 66 88 26 59 70 67 30
internal_value=2.24267e-05 -0.00215487 -0.00449368 -0.00522314 -0.0157443 -0.00254995 0.00529024 -0.00071465 -0.00933255 0.0125738 0.0115925 0.0123366 0.0184783 0.00490112 0.0120625 -0.00337432 0.0161422 0.0250065 0.0226033 0 -0.0152897 -0.00799077 -0.0170264 0.00892441 0.0212404 -0.00104064 0.023308 0.0372582 -0.0208441
internal_weight=3130.83 2660.79 2025.55 1973.42 398.447 1574.97 635.241 348.3 205.236 286.941 143.065 470.04 256.235 213.804 137.741 62.9824 254.896 74.759 52.1326 20.9084 32.0444 76.0629 49.7674 26.2955 239.966 20.2135 219.753 31.2241 16.2692
internal_count=13063 10972 8358 8145 1667 6478 2614 1430 846 1184 584 2091 1156 935 621 265 1053 356 213 86 131 314 206 108 1089 85 1004 127 67
is_linear=0
shrinkage=0.05


Tree=27
num_leaves=29
num_cat=0
split_feature=29 0 28 9 6 36 7 6 7 15 20 7 11 7 36 18 10 23 12 5 6 15 22 15 3 15 0 9
split_gain=30.0698 21.4901 21.4055 16.0034 18.0107 15.3223 19.913 14.5247 13.7577 12.9537 11.8191 11.3833 10.4034 10.1738 23.6571 12.4678 9.97979 7.86005 8.10349 7.35917 7.86429 6.21889 5.00503 4.01218 3.83139 4.52299 3.78733 2.28805
threshold=0.23491506103838802 0.00079138086131303343 0.031406637422331414 1.0709146584442026 0.18615567056030433 0.10573176058088175 2.2011388832696652 0.34965559596431484 2.0080429700219224 -0.0972332480744003 0.88103593060945451 1.5372028716795556 0.72084536177521208 2.28345721420304 0.067822409047601298 22.60000038146973 0.0075714596466505569 0.39330087983414291 0.84238279764528534 0.19274528956130113 0.31569330804736268 -0.017044964591978795 0.57320535079815105 0.049509857681556961 0.066754449553166298 0.065845856748611611 0.010231154006306217 0.98399783417640085
decision_type=2 2 2 2 2 2 2 2 2 2 2 2 2 2 2 2 2 2 2 2 2 2 2 2 2 2 2 2
left_child=1 7 11 5 9 10 -7 12 -6 -5 -4 17 22 15 -15 -13 -14 21 -19 23 26 -2 -1 -3 25 -9 -21 -26
right_child=2 19 3 4 8 6 -8 24 -10 -11 -12 13 16 14 -16 -17 -18 18 -20 20 -22 -23 -24 -25 27 -27 -28 -29
leaf_value=0.044387658884233495 -0.0029124348620218764 -0.0097547463942739276 -0.00042287911189714967 -0.01873115798865975 -0.020469710138358313 -0.010454947192552997 0.02121521050748891 -0.0025911745811125989 0.0011120862538491253 0.020919211606716302 -0.011824164531834925 0.022200363748280227 -0.014454881712255348 0.023861139908803227 -0.0024999075007583922 -0.010217769449407136 0.031265680529347147 0.033919994530899514 -0.016170269465215825 -0.021140924154298347 0.016331191009823717 -0.056362903186229142 0.016052219630798656 0.038934763932597358 -0.0071218007625488194 -0.051707832556909861 -0.065991726125860739 0.035400418076329709
leaf_weight=89.083159118890762 8.9380007237195986 8.2548758089542371 302.04565100371838 22.752508416771889 87.186373308300972 94.776399314403534 101.91904003918171 17.199469134211544 451.52472493052483 157.48950411379337 930.07975906133652 176.97103616595268 21.025999650359154 109.9271944463253 364.0568755120039 34.746746465563774 25.0620386749506 10.954277098178862 23.876077502965927 11.89893819391728 6.5676498115062705 14.30625446140766 21.428156524896622 6.8463212549686423 4.7280500233173353 5.6345202624797812 9.5702420324087125 6.4291323721408844
leaf_count=418 37 35 1223 92 356 382 415 75 1855 640 3917 740 89 485 1521 152 108 46 99 51 27 58 99 30 20 25 40 28
internal_value=2.25799e-05 0.0172353 -0.0013725 -0.00390531 0.00217189 -0.0069661 0.00595417 0.0244378 -0.00240296 0.0158107 -0.0090359 0.0059301 0.0308381 0.00773991 0.00364063 0.0168334 0.0104371 -0.0151235 0 -0.014306 -0.029158 -0.036984 0.0391315 0.0130559 -0.00494451 -0.016582 -0.0434036 0.017866
internal_weight=3125.28 233.729 2891.55 2147.77 718.953 1428.82 196.695 190.591 538.711 180.242 1232.13 743.776 156.599 685.702 473.984 211.718 46.088 58.0746 34.8304 43.138 28.0368 23.2443 110.511 15.1012 33.9912 22.834 21.4692 11.1572
internal_count=13063 1045 12018 8880 2943 5937 797 862 2211 732 5140 3138 714 2898 2006 892 197 240 145 183 118 95 517 65 148 100 91 48
is_linear=0
shrinkage=0.05


Tree=28
num_leaves=23
num_cat=0
split_feature=31 37 27 36 24 25 13 43 10 16 25 16 24 7 3 10 1 24 24 2 7 10
split_gain=28.1424 16.5592 15.1929 13.6063 18.6815 12.5648 11.2392 9.23814 7.8219 7.66829 9.12948 8.82405 7.49074 9.82893 6.52474 7.42152 6.78454 6.28682 6.28329 4.72523 4.0338 3.78134
threshold=-0.037113328274618267 -0.035786824137375321 -0.027694510649440004 0.018133116115177986 0.52727229438180856 0.78194116344308295 9.6770984478596329 -0.013870011009138259 0.32274767424909584 0.8439270223497316 0.57829063930311542 0.59158706881810919 0.86028695340029171 5.1971509399136808 0.054552404095610976 -0.065613583092056699 0.055182408690550473 0.7416265576580735 0.9789473491425098 0.0035769319913439572 3.0868054556695812 0.052329430659574259
decision_type=2 2 2 2 2 2 2 2 2 2 2 2 2 2 2 2 2 2 2 2 2 2
left_child=8 9 6 4 -4 -5 7 -3 12 10 19 -12 14 20 15 -1 -16 21 -15 -2 -14 -11
right_child=1 2 3 5 -6 -7 -8 -9 -10 17 11 -13 13 18 16 -17 -18 -19 -20 -21 -22 -23
leaf_value=0.027102441368807274 -0.015173974612560683 0.056414998348864598 0.0039387831563987927 0.001359484152250778 -0.023047150272873004 0.012790563523607527 0.05181205418260737 -0.0077400043077169569 -0.048501119016264006 0.041051990090958189 0.004740127294705165 -0.027464877035896604 -0.053098767242782632 0.04033508572907929 0.034726950273303643 0.0073508490662957081 0.0013731974958879492 -0.03218089076924701 -0.011025390592675056 -0.03597318978402541 -0.010443264640960596 -0.004552547549603032
leaf_weight=58.602661535143852 52.781449422240257 4.6491616964340201 136.53742025792599 1103.9527333676815 119.10736517608166 306.90167854726315 7.1339538842439643 740.76281949877739 4.4033168852329245 12.079401850700384 63.550874754786491 30.670289322733879 5.8110412657260886 15.271531000733377 64.819323837757111 249.97832715511322 20.365019172430038 5.2253506481647483 8.6292653530836088 64.726641714572906 37.883147701621056 6.4021102041006079
leaf_count=279 245 19 550 4496 494 1254 29 3085 18 51 272 132 24 69 291 1125 86 23 37 295 162 27
internal_value=2.15135e-05 -0.00196707 -0.000730199 0.00193044 -0.00865555 0.00385691 -0.0066235 -0.00725812 0.0113455 -0.0145977 -0.0176248 -0.00586888 0.0120312 -0.00324481 0.0146678 0.0111935 0.0269195 0.011855 0.0218928 -0.0268798 -0.0172892 0.0255749
internal_weight=3120.24 2654.48 2419.05 1666.5 255.645 1410.85 752.546 745.412 465.764 235.436 211.729 94.2212 461.36 67.595 393.765 308.581 85.1843 23.7069 23.9008 117.508 43.6942 18.4815
internal_count=13063 10972 9927 6794 1044 5750 3133 3104 2091 1045 944 404 2073 292 1781 1404 377 101 106 540 186 78
is_linear=0
shrinkage=0.05


Tree=29
num_leaves=29
num_cat=0
split_feature=29 0 24 0 7 46 18 1 6 31 24 38 23 4 11 10 4 4 22 17 3 10 16 11 20 0 5 10
split_gain=26.3961 19.7173 18.732 21.2148 20.4478 21.0661 19.5036 16.9913 16.5249 14.5405 13.767 12.1646 12.1444 10.2726 8.80696 11.5144 8.60383 9.7351 6.5766 5.82882 6.61122 4.78731 3.75341 3.56191 3.36964 2.54943 1.92462 1.86217
threshold=0.23491506103838802 0.00079138086131303343 0.11578866398540692 0.010678943251759204 2.0930118456296958 1.0000000180025095e-35 15.414999961853029 -0.014618200585244722 0.30517664626048308 0.070560555310386089 0.86794246280301535 0.079055273198472734 0.15215233364834477 0.17372724847573445 0.72084536177521208 0.0075714596466505569 0.026347474523292069 -0.096872110341588588 0.54641106788861793 0.044194405807804933 -0.0012397419580914939 0.0059904247767907414 0.028707948629695855 -1.2037601613987208 0.93840855668752021 0.01086105090779675 0.1884687518649398 0.032713724211856671
decision_type=2 2 2 2 2 2 2 2 2 2 2 2 2 2 2 2 2 2 2 2 2 2 2 2 2 2 2 2
left_child=1 10 3 7 8 6 -6 22 11 -9 14 -4 -7 23 18 -16 17 -3 -1 20 -5 25 -2 -12 -10 -18 -19 -23
right_child=2 16 4 19 5 12 -8 9 24 -11 13 -13 -14 -15 15 -17 21 26 -20 -21 -22 27 -24 -25 -26 -27 -28 -29
