tree
version=v4
num_class=1
num_tree_per_iteration=1
label_index=0
max_feature_idx=47
objective=binary sigmoid:1
feature_names=ret_1d ret_5d ret_10d ret_21d ret_63d vol_5d vol_21d atr_pct_14 bb_width volume_ratio_20d obv_slope_10d dist_ma20_pct dist_ma50_pct dist_ma200_pct autocorr_lag1 autocorr_lag5 trend_strength_10d mean_reversion_5d vix_level vix_percentile vix_ma20_ratio vix_ret_5d rank_ret_5d rank_ret_21d rank_vol_21d rank_volume_ratio macro_tnx_close macro_tnx_ret_21d macro_sp500_ret_63d macro_sp500_breadth_ratio macro_sp500_vol_21d macro_svix_ret_5d fred_yield_curve_10y2y fred_high_yield_oas fred_fed_funds_rate macro_gold_ret_5d macro_gold_ret_21d macro_oil_ret_5d macro_oil_ret_21d macro_em_ret_5d macro_smallcap_ret_5d macro_usd_ret_5d sector_rank sector_momentum_5d sector_momentum_21d leading_sector_momentum lagging_sector_momentum sector_dispersion
feature_infos=[-0.44043750892676059:0.28947369421718205] [-0.48918128014917017:0.57570837922166895] [-0.50282347916026193:0.77268447832663956] [-0.52589830568376272:1.8024263903894699] [-0.57307142530168809:5.0646958923032841] [0.0048767023231437428:4.1372412688234386] [0.015977444747356927:2.0399484470642015] [0.16121595008824752:20.96215512570209] [0.13184244667448741:69.64684155096856] [4.8519735645072311e-05:11.325519097148099] [-0.41941504996212664:0.42610895694350531] [-42.360794162978607:53.572197605469306] [-48.776639148736201:112.74363701761089] [-29.211276500512724:40.339646481579862] [-0.51194346454580542:0.35424843075407308] [-0.42691865007993179:0.39032968291183728] [9.0176570007384271e-15:0.98891771924616245] [-0.52789120406086809:0.50326710362359062] [13.600000381469727:26.420000076293945] [0.4784688995215311:91.866028708133967] [0.78500821155830636:1.383318493642091] [-0.31647571702481642:0.42881941857437395] [0.0019120458891013384:1] [0.0019120458891013384:1] [0.0019120458891013384:1] [0.0019193857965451055:1] [3.9619998931884766:4.2750000953674316] [-0.067984012999224963:0.043259479342043994] [-0.0020229132275417783:0.11671225062460433] [0.23461538461538461:0.86705202312138729] [0.059067036012996912:0.15337673188742545] [-0.13857492098093771:0.1698222460065133] none none none [-0.089644015076281836:0.097633822168018636] [-0.071437401039285753:0.24410433091589101] [-0.06894310296067474:0.10192146652642964] [-0.089837981860244276:0.13690559827232196] none [-0.04409598767701628:0.059418287328831365] none [0:1] [-0.074448843586620295:0.073218486155716356] [-0.070160165653418871:0.17992463416141202] [-0.0033626763742456989:0.073218486155716356] [-0.074448843586620295:0.0085154825412632196] [0.01475677059155811:0.13117865634485504]
tree_sizes=3223 3460 3235 3254 3483 3457 3367 3254 3265 3469 3275 3479 3493 3514 3268 3476 3477 3367 3486 3154 2614 2924 3278 2406 2619 3045 2854 3260 2527 3247 2495 2518 3481 2818 2836 3382 2614 3281 3276 3343 3150 3219 3489 2095 1991 2729 1751 1760 1976 3280 2089 1982 2627 1939 1953 3476 1978 1995 3162 1972 1971 3396 3276 1765 2001 2095 3472 3048 3394 1871 1867 3361 3015 2090 3032 1964 1861 1877 2279 3250 3340 1958 2635 1844 1971 2597 2407 2953 2617 3372 3519 1757 3143 2518 3496 1965 2511 3398 1763 3239 1991 3480 2063 2928 1994 2502 3502 3151 3064 2400 3246 3356 3268 1538 3256 3498 3081 3174 3175 2501 3478 2497 2832 2501 3138 1546 3516 1973 3376 3005 2959 3290 3147 1976 2617 2808 1746 2184 2394 1878 2385 3282 3485 3013 1844 1854 2830 3493 3121 2199 2596 2703 2707 2740 3032 3501 2583 1330 2384 2176 2807 3018 3254 2060 3270 2389 2731 2078 3365 3182 3521 3215 3484 2716 3139 2842 3269 1979 3482 2313 2711 3234 1770 1334 3254 2070 3050 2260 3159 2791 2820 2923 3296 2038 2396 2603 3248 2255 2277 1755

Tree=0
num_leaves=30
num_cat=0
split_feature=26 20 30 27 28 27 4 1 7 0 8 12 12 1 20 4 7 8 4 20 8 20 2 3 8 24 0 16 22
split_gain=458.273 282.283 233.64 103.101 85.9013 40.8375 53.1682 34.6221 22.6984 20.6997 20.1674 20.3218 19.0037 19.6301 15.7019 14.9849 13.0986 10.2065 9.72761 8.66374 10.0431 8.16629 6.89494 6.17034 5.35808 3.35734 2.95187 2.7778 1.24043
threshold=3.9974999427795415 1.2738285116354782 0.068291671231301157 -0.063367075824270411 0.027958975711707138 -0.044412652034146342 0.10162202647396527 -0.0081107377688830005 2.0465333553098781 0.010769642366121697 7.5704180896880873 -8.0226299285661966 -11.680028976408705 0.00069824115251311753 1.0334844673005812 -0.019959104234602062 3.903106912676376 2.1588892071041577 0.057426878266026958 1.3629480013946085 4.6266252482439096 1.3629480013946085 0.034836584170171388 0.033137291098744949 4.0216266541599017 0.94354153388570217 0.0035258842830369168 0.17753633730784049 0.063157952572470949
decision_type=2 2 2 2 2 2 2 2 2 2 2 2 2 2 2 2 2 2 2 2 2 2 2 2 2 2 2 2 2
left_child=5 2 10 9 -5 12 8 21 17 -4 11 -2 27 28 -15 -10 24 -7 -12 20 -9 25 -21 -18 -8 -3 -23 -1 -14
right_child=1 7 3 4 -6 6 16 19 15 -11 18 -13 13 14 -16 -17 23 -19 -20 22 -22 26 -24 -25 -26 -27 -28 -29 -30
leaf_value=0.23371235286079833 0.2345657095775803 0.2626099976206972 0.1919976443836573 0.22188137575375771 0.20843101640087203 0.19302157050878582 0.2281278317197003 0.18348576402217634 0.16071091277361185 0.15059872160605123 0.1778705167145839 0.1696130739805706 0.15231137855751684 0.17243541223193648 0.13872952900713703 0.19476210712788233 0.2134986282162456 0.1331962348315075 0.21172617950086484 0.26689264663234258 0.23462701294587202 0.28715309208593764 0.21788677158569178 0.27601672685163792 0.18996932103116421 0.21756820695631401 0.25218610093864002 0.18875341175736018 0.12342887203366436
leaf_weight=5.1941955685615522 11.625104367733 86.075240850448608 50.952585101127625 1552.3224470615387 5040.1011000275612 8.9043352603912336 12.614474952220915 15.087901413440703 70.492654144763947 78.160276174545288 34.380627810955048 418.50375723838806 13.356502890586851 80.386359989643097 67.524542391300201 61.588318884372711 6.6782514452934292 60.351605653762817 51.94195568561554 20.03475433588028 22.755523443222046 84.838527619838715 12.119789659976957 10.388391137123106 27.207691073417664 5.1941955685615531 12.119789659976957 6.6782514452934265 85.333212912082672
leaf_count=21 47 348 206 6276 20377 36 51 61 285 316 139 1692 54 325 273 249 27 244 210 81 92 343 49 42 110 21 49 27 345
internal_value=0.206934 0.210075 0.208238 0.210731 0.211601 0.161435 0.175741 0.261342 0.163723 0.166657 0.175864 0.17144 0.147338 0.144374 0.15666 0.17634 0.2182 0.140509 0.198121 0.230745 0.21403 0.272508 0.24946 0.253547 0.202402 0.260244 0.28334 0.208587 0.1267
internal_weight=8012.91 7496.21 7237.99 6721.54 6592.42 516.699 258.226 258.226 201.337 129.113 516.451 430.129 258.473 246.601 147.911 132.081 56.8888 69.2559 86.3226 69.998 37.8434 188.228 32.1545 17.0666 39.8222 91.2694 96.9583 11.8724 98.6897
internal_count=32396 30307 29263 27175 26653 2089 1044 1044 814 522 2088 1739 1045 997 598 534 230 280 349 283 153 761 130 69 161 369 392 48 399
is_linear=0
shrinkage=1


Tree=1
num_leaves=31
num_cat=0
split_feature=27 30 18 30 38 37 18 20 12 18 12 17 12 18 0 9 1 4 0 8 6 0 4 22 12 18 18 8 14 16
split_gain=353.725 255.389 212.223 167.201 102.477 83.8134 57.2734 56.7448 55.1509 48.0119 45.2982 32.5235 26.9815 33.7091 18.5062 15.5281 14.1687 13.4015 12.0943 10.4664 9.57805 8.8297 8.70101 8.77311 8.34968 7.94692 7.59547 4.1406 4.05135 3.38635
threshold=-0.037081585434709567 0.068291671231301157 22.85000038146973 0.12766742158537822 -0.016269042162499078 0.016368597958966172 14.97499990463257 0.86699479629585829 -11.680028976408705 19.845000267028812 2.2000322113260133 -0.0082304357904836572 -17.843729174025796 16.205000877380375 0.010769642366121697 0.84837615570933056 0.055695435871238937 0.053153071335243531 0.010565088835297694 2.667648531731853 0.46776077717738745 0.023464733621538211 -0.24422050401626497 0.19712936712013659 -5.6416422276088429 25.555000305175785 25.555000305175785 15.641002899499178 -0.024364511665082172 0.4863205793547104
decision_type=2 2 2 2 2 2 2 2 2 2 2 2 2 2 2 2 2 2 2 2 2 2 2 2 2 2 2 2 2 2
left_child=3 15 4 6 7 -6 14 -3 22 10 -10 26 27 -14 17 20 -16 -1 19 -17 24 -11 -5 -24 -2 -13 -4 -8 -22 -20
right_child=1 2 11 8 5 -7 12 -9 9 21 -12 25 13 -15 16 18 -18 -19 29 -21 28 -23 23 -25 -26 -27 -28 -29 -30 -31
leaf_value=-0.038471136522421213 -0.014311256850938425 -0.0077418755464056521 0.051249431258584069 0.066033526862464859 -0.0060661183941445908 0.0093082568355453404 0.011977241315277071 0.017152239907188151 -0.049705796061975782 -0.077632602834759798 -0.019117932213037037 0.0070070861882450923 0.006386584954025689 -0.014735013742661071 -0.060091653859604757 -0.043441688644878178 0.010479521715321133 0.011863616264286692 -0.064515336235042561 -0.0088145857310052041 -0.026886633285949525 -0.032029339986502203 -0.032034866769449069 0.034935246448999119 -0.049576786869321654 0.040588955098262137 0.073715024487233313 0.064132487580372738 0.024439727686105889 -0.031432505565512935
leaf_weight=26.257274687290192 20.084780678153038 258.68031907081604 89.968246087431908 8.907523915171625 2066.2243133187294 1550.9031150490046 5.9360323846340206 1938.0596700757742 290.86737470328808 104.53414481878281 211.24795186519623 38.545922562479973 384.31091380119324 369.37363022565842 71.096124172210693 26.556910708546638 7.4576354026794425 24.771013855934143 17.120682775974274 112.10246567428112 6.932788759469986 14.431952327489851 7.4247526526451137 10.629007443785666 177.16976964473724 32.979045242071152 95.083955898880959 15.828205198049544 6.4379955828189832 22.059396296739578
leaf_count=106 81 1046 366 36 8358 6275 24 7839 1172 420 853 156 1554 1492 286 107 30 100 69 452 28 58 30 43 714 134 388 64 26 89
internal_value=0 0.00515273 0.00767041 -0.0214165 0.00570078 0.000525268 -0.00751184 0.0142163 -0.0407859 -0.0438325 -0.0369105 0.0520861 -0.00234314 -0.00396409 -0.0381494 -0.0340962 -0.0532815 -0.0141823 -0.0229421 -0.015746 -0.0433376 -0.0724552 0.028275 0.00689504 -0.0461015 0.0229063 0.0631538 0.0512782 -0.00184426 -0.0472592
internal_weight=8011.98 6458.91 6070.44 1553.07 5813.87 3617.13 905.031 2196.74 648.043 621.081 502.115 256.577 775.449 753.685 129.582 388.465 78.5538 51.0283 177.839 138.659 210.625 118.966 26.9613 18.0538 197.255 71.525 185.052 21.7642 13.3708 39.1801
internal_count=32396 26128 24562 6268 23518 14633 3656 8885 2612 2503 2025 1044 3134 3046 522 1566 316 206 717 559 849 478 109 73 795 290 754 88 54 158
is_linear=0
shrinkage=0.05


Tree=2
num_leaves=29
num_cat=0
split_feature=26 18 30 38 26 2 24 18 4 1 4 4 8 7 14 8 0 4 18 8 18 2 0 14 0 0 5 7
split_gain=370.309 234.573 189.829 133.015 112.27 72.7911 37.0352 41.0973 51.7487 29.3427 25.0201 24.6217 17.4453 16.9653 12.7222 12.0504 8.90038 8.83986 7.2586 9.1308 7.10593 6.41836 6.37029 6.17058 6.34196 5.80842 3.26566 3.22108
threshold=3.9974999427795415 22.85000038146973 0.068291671231301157 -0.016269042162499078 4.0694999694824228 -1.0000000180025095e-35 0.23923466883511721 19.845000267028812 -0.019959104234602062 -0.0081107377688830005 0.26820389436074182 -0.15779453699103355 7.5704180896880873 1.5662677515476042 -0.22552552234628157 1.6250915934497847 0.018140229884083099 0.057426878266026958 25.555000305175785 4.6266252482439096 25.555000305175785 0.034836584170171388 -0.0018681164098269067 0.015562587208684827 -0.0017352652534731357 0.001669987285678254 0.41923204790069973 2.544653558779419
decision_type=2 2 2 2 2 2 2 2 2 2 2 2 2 2 2 2 2 2 2 2 2 2 2 2 2 2 2 2
left_child=6 2 12 5 -5 -4 15 8 14 20 -10 22 13 -2 -8 -1 -13 -14 19 -11 26 -20 -9 25 -25 -17 -3 -22
right_child=1 9 3 4 -6 -7 7 11 10 18 -12 16 17 -15 -16 23 -18 -19 21 -21 27 -23 -24 24 -26 -27 -28 -29
leaf_value=0.00085985689348710482 -0.010590928587612836 0.052239971027752852 0.022828103970269478 -0.018769514299076015 0.0021120289912041536 0.0045988401711300952 0.019562172744643214 0.032153084778441449 -0.013408278241439989 -0.022641644933110053 0.045128382784783726 -0.079015684285418178 -0.026527888168714236 -0.036657660376121184 -0.053424784776640089 -0.086882040786718018 -0.036590818320934269 0.0056864003258067959 0.055879274846071497 0.026131385445486238 0.055735121234657216 0.0086267771086076927 -0.034594759357693149 -0.0034804411280433727 -0.059993034174679487 -0.057721907647511339 0.018231056316483859 0.079815308488036904
leaf_weight=6.4737303406000128 77.622438341379166 80.274720653891563 1073.2362193614244 776.16131342947483 3746.1671942621469 1120.074462339282 5.7205812036991111 7.4128987342119217 161.79486107826233 15.112486347556112 19.552081167697906 67.669097617268562 34.532048463821411 354.91005520522594 109.90627092123032 51.103920415043831 18.959132462739944 52.030708685517311 19.778808832168583 22.667515337467194 39.501817867159843 12.047652348875998 5.1995341926813108 7.9807869046926525 13.717822000384329 44.631006255745888 9.778420075774191 55.45183952152729
leaf_count=26 312 329 4348 3134 15156 4537 23 30 651 61 79 271 139 1427 441 205 76 210 81 92 163 49 21 32 55 179 40 229
internal_value=0 0.00283602 0.00117197 0.00342591 -0.00147409 0.0135274 -0.040754 -0.0331162 -0.0236396 0.0499102 -0.0068568 -0.0609057 -0.0279286 -0.0320265 -0.0496341 -0.0646768 -0.0703113 -0.00726378 0.0217022 0.00641186 0.0603224 0.0389522 0.00374872 -0.0683086 -0.0404969 -0.0740767 0.0488428 0.070535
internal_weight=8009.47 7489.35 7234.73 6715.64 4522.33 2193.31 520.122 396.214 296.974 254.613 181.347 99.2407 519.095 432.532 115.627 123.907 86.6282 86.5628 69.6065 37.78 185.007 31.8265 12.6124 117.434 21.6986 95.7349 90.0531 94.9537
internal_count=32396 30307 29263 27175 18290 8885 2089 1592 1194 1044 730 398 2088 1739 464 497 347 349 283 153 761 130 51 471 87 384 369 392
is_linear=0
shrinkage=0.05


Tree=3
num_leaves=29
num_cat=0
split_feature=26 40 20 30 26 30 20 28 7 11 24 18 12 2 22 6 14 12 9 12 8 0 10 18 14 15 15 23
split_gain=334.393 232.02 173.748 140.668 109.035 101.252 99.091 94.2264 61.318 51.6606 33.4296 37.2052 31.2679 31.0243 30.7058 26.2219 20.6146 19.1684 13.7553 12.9947 10.877 8.4699 7.9813 6.76372 5.76288 6.46349 3.38507 1.47543
threshold=3.9974999427795415 -0.0095585615745146218 1.136456603087163 0.13463866061791116 4.1494998931884775 0.063761950202204667 0.96566594023053709 0.047509059549644579 1.838682717560628 -6.1880278392582815 0.23923466883511721 19.845000267028812 2.2000322113260133 -0.0013283264836470832 0.72057390680058331 0.27793759653862365 -0.24686813000786897 -11.680028976408705 0.84837615570933056 19.4084326434531 1.6250915934497847 0.018140229884083099 0.06123390277377444 25.555000305175785 -0.10080313735393379 -0.12114000067750723 0.020011989640035425 0.25167395588375352
decision_type=2 2 2 2 2 2 2 2 2 2 2 2 2 2 2 2 2 2 2 2 2 2 2 2 2 2 2 2
left_child=10 2 4 5 15 18 -7 13 -9 -6 20 12 16 -5 23 -2 -12 26 -3 -14 -1 -19 -16 -4 27 -26 -13 -22
right_child=1 3 14 7 9 6 -8 8 -10 -11 11 17 19 -15 22 -17 -18 21 -20 -21 24 -23 -24 -25 25 -27 -28 -29
leaf_value=0.00082265364828692307 0.0058329612911312495 -0.039578653879450421 0.050057847935463397 0.049112754219051036 -0.022426327354988309 -0.017566867969831975 0.00039190294750725399 -0.028365687412304438 0.0099181114339522806 0.027411326571286521 0.046884279767661671 -0.019580703076610646 -0.0068462008120839012 0.020447352668871335 0.03210301228127125 -0.011295252717332867 -0.038686171902207148 -0.07394837358367376 -0.020439363504327294 0.056051453757505511 -0.043136156216314898 -0.033187847033136895 0.00035992004336379011 0.068466705060464719 -0.0044656391311698948 -0.059170478247069384 0.031431188378094138 -0.086318779027718812
leaf_weight=6.4733992218971244 503.82718408107758 211.62404826283455 183.66639830172062 172.75807432830334 55.20646108686924 1034.7674596905708 2970.2004531472921 130.14672288298607 515.26889719069004 717.78060147166252 6.4643539488315573 6.1642685979604703 108.27706950902939 214.24543535709381 80.900600522756577 399.7394956946373 174.65343621373177 68.986171916127205 178.46023678779602 7.8740571886301032 5.9981273412704459 19.23363533616066 26.569247245788574 89.842268139123917 6.2447141110897055 69.953729152679443 4.9264636784791946 35.475944623351097
leaf_count=26 2039 849 752 701 224 4180 12019 527 2087 2913 26 25 436 868 330 1617 700 276 717 32 24 77 108 376 25 280 20 142
internal_value=2.92234e-07 0.00269828 0.0169918 -0.00272156 0.0100476 -0.00662394 -0.0042501 0.0138765 0.00215859 0.0238211 -0.0387024 -0.0314453 -0.0224332 0.0333501 0.0474316 -0.00174317 -0.0353639 -0.0578791 -0.03091 -0.00209754 -0.0614083 -0.0655894 0.0243771 0.0563504 -0.064852 -0.0548679 0.00339056 -0.0813539
internal_weight=8005.73 7485 2057.53 5427.47 1676.55 4395.05 4004.97 1032.42 645.416 772.987 520.725 396.579 297.269 387.004 380.979 903.567 181.118 99.3105 390.084 116.151 124.146 88.2198 107.47 273.509 117.673 76.1984 11.0907 41.4741
internal_count=32396 30307 8359 21948 6793 17765 16199 4183 2614 3137 2089 1592 1194 1569 1566 3656 726 398 1566 468 497 353 438 1128 471 305 45 166
is_linear=0
shrinkage=0.05


Tree=4
num_leaves=31
num_cat=0
split_feature=27 18 30 30 40 30 27 40 18 12 2 18 12 12 18 18 0 10 1 1 9 4 0 10 1 4 22 21 0 8
split_gain=263.232 190.889 157.871 124.233 97.3264 86.6921 69.382 68.4972 47.5656 46.2508 42.3889 35.0341 34.7727 24.5875 28.7996 24.1633 16.6543 14.9888 12.8294 12.7376 12.3763 12.0827 11.0834 10.8245 10.6613 7.65464 7.9845 7.49107 6.87119 3.75859
threshold=-0.037081585434709567 20.445000648498539 0.068291671231301157 0.12766742158537822 -0.0062817836027153065 0.12828049741358677 0.0078906017568587412 -0.0031536348713977476 14.97499990463257 -11.680028976408705 -0.00049118327186371466 19.845000267028812 2.2000322113260133 -17.843729174025796 16.205000877380375 20.710000038146976 0.010769642366121697 0.0081091508710917377 -0.0074375095680431109 0.055695435871238937 0.84837615570933056 0.053153071335243531 0.010565088835297694 0.050087601890528105 -0.0064792295678386663 -0.24422050401626497 0.19712936712013659 0.3749097111945357 0.011370106936304263 15.641002899499178
decision_type=2 2 2 2 2 2 2 2 2 2 2 2 2 2 2 2 2 2 2 2 2 2 2 2 2 2 2 2 2 2
left_child=3 2 20 8 5 -4 15 -6 16 25 27 12 -11 29 -15 18 21 -17 -3 -18 23 -1 -22 -2 -12 -5 -27 -8 -13 -10
right_child=1 6 4 9 7 -7 10 -9 13 11 24 28 -14 14 -16 17 19 -19 -20 -21 22 -23 -24 -25 -26 26 -28 -29 -30 -31
leaf_value=-0.034663491414133274 -0.031276269331620692 0.0088441420145681585 0.020013664321748 0.063776405385535972 -0.026238818643293183 -0.002428816501872749 0.063720299020288765 0.00049160731376505932 0.01196801306885969 -0.043142744530345001 0.040637312166796564 -0.070939172707443154 -0.01640074724349248 0.0062920079232409139 -0.013219206815064341 0.031927377348072182 -0.055055165091735359 0.0073345987247044209 -0.022808956063219549 0.011602351997247417 -0.012550063256661692 0.013013624519659745 -0.042573198197529548 -0.059548242237698369 0.013171253784423015 -0.029044979314390776 0.034777966901681168 0.041979171772191362 -0.042332098701106137 0.06190079975501387
leaf_weight=26.409223228693008 167.03011476993561 73.64145340025425 1285.501219406724 8.8417396098375338 258.72333998978138 645.70990990102291 152.55830815434456 3098.8452394157648 5.9356853365898159 292.5815814435482 55.05165833234787 81.325642883777618 211.97605848312378 384.22454813122749 370.31422151625156 149.86572241783142 71.44757217168808 107.44839334487915 54.975352361798286 7.4708993732929221 139.27067106962204 24.825413525104523 39.404608994722366 44.943510457873344 102.26724125444889 7.461755350232127 10.620990231633185 68.250383123755455 37.969671234488487 15.724501982331274
leaf_count=106 669 299 5227 36 1043 2611 636 12547 24 1172 230 326 853 1554 1492 609 286 436 223 30 559 100 158 180 417 30 43 284 152 64
internal_value=7.75921e-07 0.00446033 0.00130081 -0.0184409 0.00356932 0.0125099 0.0279069 -0.00157386 -0.00645364 -0.0350927 0.0431116 -0.0378708 -0.0319724 -0.00173878 -0.00328195 0.0129237 -0.0343061 0.0217455 -0.00471852 -0.0486162 -0.0293293 -0.0116593 -0.0193992 -0.0375455 0.0230102 0.0281493 0.00803778 0.0572424 -0.0623032 0.04957
internal_weight=8000.62 6443.49 5679.43 1557.13 5288.78 1931.21 764.059 3357.57 906.352 650.777 378.128 623.853 504.558 776.199 754.539 385.931 130.153 257.314 128.617 78.9185 390.649 51.2346 178.675 211.974 157.319 26.9245 18.0827 220.809 119.295 21.6602
internal_count=32396 26128 22994 6268 21428 7838 3134 13590 3656 2612 1567 2503 2025 3134 3046 1567 522 1045 522 316 1566 206 717 849 647 109 73 920 478 88
is_linear=0
shrinkage=0.05


Tree=5
num_leaves=31
num_cat=0
split_feature=26 18 30 38 26 2 21 4 2 7 8 12 22 4 7 18 3 16 12 18 8 4 23 11 17 15 2 23 7 15
split_gain=271.885 179.762 141.167 104.987 86.718 62.2282 30.6417 39.1874 24.9895 18.0038 16.0057 17.3125 13.3832 11.3838 10.8579 10.5865 10.4913 9.30396 9.14263 9.0187 8.93845 7.91627 7.68466 9.59486 7.03568 6.11363 5.21782 5.11552 5.07623 1.30037
threshold=3.9974999427795415 22.85000038146973 0.068291671231301157 -0.016269042162499078 4.0694999694824228 -1.0000000180025095e-35 -0.13756172976245615 0.10162202647396527 0.025675928250146932 2.0465333553098781 7.5704180896880873 -8.0226299285661966 0.42105301714980631 -0.019959104234602062 3.903106912676376 25.555000305175785 -0.14635684799106394 0.081550271211771705 9.0686273990791779 19.845000267028812 2.1588892071041577 0.057426878266026958 0.82966491578939661 2.395595337981534 -0.0082304357904836572 -0.026542208971074746 0.079632780997528657 0.5502388225899798 2.0155510680498825 0.060864304129112055
decision_type=2 2 2 2 2 2 2 2 2 2 2 2 2 2 2 2 2 2 2 2 2 2 2 2 2 2 2 2 2 2
left_child=6 2 10 5 -5 -4 7 9 15 20 11 -2 16 -11 26 24 -8 19 -19 -14 -1 -12 23 -10 -3 -24 -9 -16 -17 -18
right_child=1 8 3 4 -6 -7 12 14 22 13 21 -13 17 -15 27 28 29 18 -20 -21 -22 -23 25 -25 -26 -27 -28 -29 -30 -31
leaf_value=-0.0054858271587368383 0.029990319510606395 0.045763226908814764 0.020582444214216199 -0.016571809071863973 0.0017587905000363878 0.0036913693366939456 0.0030046067247394039 0.0074876481459066769 0.015524707389887371 -0.035265661026878795 -0.022548943149365418 -0.029643591410652415 0.023704384906651232 -0.0058479062071667151 0.0050740977261898405 0.040314556561643414 -0.059350403639916977 -0.050817787895801103 -0.020288704476969108 -0.035640822307787513 -0.060145643579475133 0.0078724589005284978 0.066344440847001529 -0.041545202173165194 0.0082514027709152029 0.01112968162925586 -0.038580532082891472 0.064285699726496434 0.0708687214667134 -0.081266096761841489
leaf_weight=8.9812871068716031 11.680231705307959 76.282238513231277 1066.5156536102295 778.50128993391991 3742.6960750520229 1117.4303371161222 5.8861743062734595 33.589828535914421 24.830159440636635 71.203263536095619 34.680253177881241 422.40873777866364 11.229927435517311 62.115421161055565 5.7218747437000301 23.508697912096977 83.688997268676758 90.206992402672768 37.087134554982185 12.410280928015709 60.907675191760063 52.208680137991905 8.9539173692464846 9.2984910458326322 15.910656362771986 11.631987690925596 6.4705291986465445 11.280374452471731 77.068162173032761 19.683314695954323
leaf_count=36 47 321 4348 3134 15156 4537 24 135 103 285 139 1692 45 249 23 100 336 362 149 50 244 210 37 38 65 48 26 46 332 79
internal_value=1.25244e-06 0.00243712 0.000998394 0.00294838 -0.0013994 0.0119479 -0.0349047 -0.0225984 0.0442523 -0.032852 -0.0240465 -0.0279623 -0.0470618 -0.0217422 0.0137669 0.052701 -0.0606438 -0.0368628 -0.0421896 -0.00742894 -0.0533684 -0.00433125 0.0139843 -0.00062192 0.0395011 0.0373381 -0.000589876 0.0460254 0.0642435 -0.06431
internal_weight=7994.07 7473.61 7226.12 6705.14 4521.2 2183.95 520.463 260.27 247.484 203.208 520.978 434.089 260.193 133.319 57.0626 192.77 109.258 150.934 127.294 23.6402 69.889 86.8889 54.7146 34.1287 92.1929 20.5859 40.0604 17.0022 100.577 103.372
internal_count=32396 30307 29263 27175 18290 8885 2089 1044 1044 814 2088 1739 1045 534 230 818 439 606 511 95 280 349 226 141 386 85 161 69 432 415
is_linear=0
shrinkage=0.05


Tree=6
num_leaves=30
num_cat=0
split_feature=26 40 20 30 26 36 3 27 7 26 3 27 7 22 2 5 7 22 3 25 18 7 0 26 15 18 10 3 15
split_gain=246.215 181.522 147.174 120.801 105.247 99.7092 76.7958 62.2735 52.7673 52.4343 32.4407 27.8447 27.9627 25.9906 23.3532 16.8084 15.9384 12.2803 9.57198 9.10575 7.88489 9.32954 7.7012 7.50114 6.52765 5.23848 4.70236 4.57626 1.23282
threshold=3.9974999427795415 -0.0062817836027153065 1.136456603087163 0.13463866061791116 4.1494998931884775 0.097127148188388648 -0.10694632872031525 0.0078906017568587412 1.838682717560628 4.0694999694824228 -0.097853031794858505 -0.044412652034146342 3.903106912676376 0.72057390680058331 -0.0013283264836470832 0.17088990995998413 2.0465333553098781 0.42105301714980631 -0.14635684799106394 0.75120146168610669 19.845000267028812 2.2753201787912443 -0.00032017514526564193 4.12150001525879 -0.12742152760209555 25.555000305175785 -0.016488083787131135 -0.081460557826737265 0.060864304129112055
decision_type=2 2 2 2 2 2 2 2 2 2 2 2 2 2 2 2 2 2 2 2 2 2 2 2 2 2 2 2 2
left_child=11 2 4 5 15 9 -6 8 -5 -3 -7 17 16 25 -9 -2 22 18 -1 26 21 -19 -13 -15 -18 -4 -14 -22 -20
right_child=1 3 13 7 6 10 -8 14 -10 -11 -12 12 19 23 -16 -17 24 20 28 -21 27 -23 -24 -25 -26 -27 -28 -29 -30
leaf_value=0.0028771312726190378 0.0062328857170570306 -0.029569184355275602 0.045545593148374357 -0.022520684797498743 -0.036675190120987654 -0.023105282014774978 0.024652679548424952 0.05001743466410611 0.011455453673493194 -0.0096843819151500449 0.0053203055540922903 -0.058957141774327274 0.0024930395148272423 0.030853515979719172 0.019436163142007152 -0.0071235961135742328 0.0090508106451080046 -0.04682221594733333 -0.056616467476821024 -0.022581924160478745 -0.013541826311817957 -0.0098284306872084559 -0.026040610930505984 0.002579005408089302 -0.021600863891943416 0.062183557153732208 0.052446556351213591 -0.051589368336577839 -0.077799637131195865
leaf_weight=5.8839854896068564 361.26035565137863 390.32407161593437 180.01367689669132 138.29058921337128 53.401100367307663 106.84832932054996 843.01210616528988 118.66480904817581 634.6775801628828 2199.9369375258684 1441.1397207975388 45.812673807144165 6.963949576020247 70.583430483937263 136.60733591020107 671.58005124330521 19.201207861304283 25.960616007447243 83.398977383971214 7.432012826204299 10.382801234722136 49.624809578061104 34.12537257373333 35.779982835054398 130.48414634168148 85.566256016492844 15.964595153927801 64.830508768558502 19.579307720065117
leaf_count=24 1465 1566 752 559 217 433 3443 490 2578 8883 5837 184 28 292 556 2714 77 104 336 30 42 199 137 146 523 376 65 261 79
internal_value=1.47469e-06 0.00231961 0.0139973 -0.00288247 0.00843088 -0.00669447 0.0209569 0.012446 0.00534913 -0.012693 0.00334138 -0.0332427 -0.0215062 0.0427567 0.0338113 -0.0024455 -0.0274775 -0.0448469 -0.0578873 0.0229326 -0.0350808 -0.0230451 -0.0454623 0.0215013 -0.0176018 0.051138 0.0382217 -0.0466493 -0.0614016
internal_weight=7987.33 7467.69 2301.2 5166.49 1929.25 4138.25 896.413 1028.24 772.968 2590.26 1547.99 519.645 259.984 371.943 255.272 1032.84 229.623 259.661 108.862 30.3606 150.799 75.5854 79.938 106.363 149.685 265.58 22.9285 75.2133 102.978
internal_count=32396 30307 9405 20902 7839 16719 3660 4183 3137 10449 6270 2089 1044 1566 1046 4179 921 1045 439 123 606 303 321 438 600 1128 93 303 415
is_linear=0
shrinkage=0.05


Tree=7
num_leaves=29
num_cat=0
split_feature=26 40 20 30 26 36 11 28 7 26 3 24 19 4 22 2 24 4 4 8 8 0 26 16 0 5 2 3
split_gain=223.168 164.383 135.234 109.178 95.3829 89.8867 78.2513 74.8752 50.1249 47.2655 29.2545 26.822 28.8415 45.9835 24.2522 23.4899 22.2602 19.1411 17.9631 10.1897 10.1868 7.44 6.84563 5.7324 5.40826 3.41509 3.16339 2.06494
threshold=3.9974999427795415 -0.0062817836027153065 1.136456603087163 0.13463866061791116 4.1494998931884775 0.097127148188388648 -6.1880278392582815 0.047509059549644579 1.838682717560628 4.0694999694824228 -0.097853031794858505 0.21626814062694596 83.737864077669911 -0.019959104234602062 0.72057390680058331 -0.0013283264836470832 0.029664183204764733 0.26820389436074182 -0.15779453699103355 3.0521856333228832 1.6250915934497847 0.018140229884083099 4.12150001525879 0.017048628513519345 -0.0018681164098269067 0.20893602999052016 -0.025514742110602878 0.01552890338386651
decision_type=2 2 2 2 2 2 2 2 2 2 2 2 2 2 2 2 2 2 2 2 2 2 2 2 2 2 2 2
left_child=11 2 4 5 16 9 -6 15 -9 -3 -7 20 13 19 23 -5 -2 -15 24 -13 -1 -20 -16 -4 -14 26 -22 -27
right_child=1 3 14 7 6 10 -8 8 -10 -11 -12 12 18 17 22 -17 -18 -19 21 -21 25 -23 -24 -25 -26 27 -28 -29
leaf_value=0.0058295388022625676 0.039661385027157436 -0.02806220889780725 0.023720995931399189 0.043276033028788172 -0.03149414425863916 -0.02190550880854647 0.024207440295334209 -0.026083552039650751 0.0084842557689030502 -0.0091925765011611673 0.0050575616496295432 0.0018792354313078034 0.032578377457687102 -0.0078314158904340247 0.029500222415955686 0.018137234344747354 -0.0036051912464698369 0.043226057773482762 -0.064465112191849042 -0.046659089695260246 -0.01605675090106588 -0.027053110294811784 0.0024544290633699544 0.051615501105566376 -0.029017463396414696 -0.046084663495745068 -0.062685062429757729 -0.0031445223357873414
leaf_weight=6.4843475073575965 29.6245227009058 390.76211631298065 23.407826855778694 169.07323670387268 67.329188108444214 107.11310581862926 826.21888157725334 130.70462045073509 513.44522459805012 2201.7575080245733 1440.2817751020193 11.701295435428618 7.3571067154407501 167.02600032091141 70.186429992318153 212.93148601055145 1003.4208537191153 19.599388301372528 68.730286955833435 107.93572005629539 4.946459859609603 19.682338640093803 35.767306104302406 238.79016424715519 5.1945936977863294 5.4527210146188718 88.715197488665581 5.7001204788684845
leaf_count=26 120 1566 100 701 273 433 3387 527 2087 8883 5837 47 30 670 292 868 4059 80 280 433 20 79 146 1028 21 22 358 23
internal_value=1.22078e-06 0.00220797 0.013341 -0.00273792 0.00802107 -0.00635768 0.0199742 0.0118527 0.00143278 -0.0120484 0.00317496 -0.0316841 -0.0256025 -0.017833 0.0410702 0.0293605 -0.00232245 -0.00224091 -0.0487149 -0.041894 -0.0534653 -0.0565881 0.0205253 0.0492438 0.00645746 -0.0572013 -0.060471 -0.0266144
internal_weight=7979.34 7460.81 2294.75 5166.07 1926.59 4139.91 893.548 1026.15 644.15 2592.52 1547.39 518.526 407.227 306.262 368.152 382.005 1033.05 186.625 100.964 119.637 111.299 88.4126 105.954 262.198 12.5517 104.814 93.6617 11.1528
internal_count=32396 30307 9405 20902 7839 16719 3660 4183 2614 10449 6270 2089 1640 1230 1566 1569 4179 750 410 480 449 359 438 1128 51 423 378 45
is_linear=0
shrinkage=0.05


Tree=8
num_leaves=29
num_cat=0
split_feature=26 40 20 30 26 40 7 20 23 40 24 18 4 4 22 6 23 4 4 8 8 10 21 18 14 15 0 23
split_gain=202.384 149.102 118.539 97.7307 74.9751 54.9375 48.8109 44.7882 41.8194 40.7659 24.6474 26.1094 35.8183 23.4084 22.673 21.3882 19.5529 17.1063 16.3579 11.3959 8.86527 7.15842 6.55384 6.22445 5.97846 5.8281 4.96304 1.67878
threshold=3.9974999427795415 -0.0095585615745146218 1.136456603087163 0.088344581070995618 4.1494998931884775 0.025090996223260057 2.4612798808637493 0.96566594023053709 0.51196127557636106 0.019036233065760414 0.23923466883511721 19.845000267028812 -0.019959104234602062 0.057426878266026958 0.70909064269649769 0.27793759653862365 0.95598082093433845 0.26820389436074182 -0.15779453699103355 3.0521856333228832 1.6250915934497847 0.065012698596656315 0.3749097111945357 25.555000305175785 -0.10080313735393379 -0.12114000067750723 -0.0018681164098269067 0.25167395588375352
decision_type=2 2 2 2 2 2 2 2 2 2 2 2 2 2 2 2 2 2 2 2 2 2 2 2 2 2 2 2
left_child=10 2 4 9 15 7 -7 -5 -6 13 20 12 19 -3 23 -2 -11 -14 26 -12 -1 -20 -16 -4 27 -26 -13 -22
right_child=1 3 14 5 8 6 -8 -9 -10 16 11 18 17 -15 22 -17 -18 -19 21 -21 24 -23 -24 -25 25 -27 -28 -29
leaf_value=0.0055771079719183856 0.0051036586284500269 -0.031433052622457949 0.041662162896522789 -0.0087448367998285825 0.0080236883514149659 0.0030786819181263751 0.028802608562363538 0.0029804559183821276 0.031480133807948445 -0.006663790589050398 0.009788579262114936 0.03123954552379505 -0.0079691976152227867 -0.012150433155213967 0.028778036186628782 -0.010364380320081152 0.039308471561847726 0.040757016342005278 -0.059753580982230603 -0.043160759426905282 -0.033537033330934572 -0.01402764257602851 0.0027859239661482149 0.059762826062181966 0.0020600447314385044 -0.047412210969598231 -0.027792873143546365 -0.074115909983615627
leaf_weight=6.4842126816511145 502.88259455561638 376.69813185930252 173.3766476213932 1294.6845774799585 389.74461053311825 461.49838794767857 307.00539295375347 2191.0966583490372 372.88148145377636 493.75977468490601 10.70949839055538 7.3322777301073074 162.32504303753376 275.03110064566135 72.553279846906662 400.40671582520008 23.25046044588089 19.234833002090454 73.982639655470848 104.70917291939259 5.9270122498273841 10.812397360801695 37.196588173508644 81.170236825942993 6.2064268589019767 69.056912466883659 5.1963077932596189 34.910622105002403
leaf_count=26 2039 1508 740 5226 1602 1880 1258 8884 1535 1996 43 30 651 1102 304 1617 94 79 303 421 24 44 152 370 25 280 21 142
internal_value=1.47912e-06 0.00210195 0.0136569 -0.00222467 0.00799163 0.00129325 0.0133856 -0.00137436 0.0195253 -0.0150246 -0.0302221 -0.0240014 -0.0165103 -0.0233345 0.0394577 -0.00175131 -0.00451483 -0.00258468 -0.046409 -0.0381629 -0.0498347 -0.0542127 0.0201186 0.047665 -0.0529933 -0.0432935 0.00614132 -0.0692883
internal_weight=7970.12 7453.24 2030.21 5423.02 1665.92 4254.29 768.504 3485.78 762.626 1168.74 516.887 394.302 296.979 651.729 364.297 903.289 517.01 181.56 97.3236 115.419 122.585 84.795 109.75 254.547 116.101 75.2633 12.5286 40.8376
internal_count=32396 30307 8359 21948 6793 17248 3138 14110 3137 4700 2089 1592 1194 2610 1566 3656 2090 730 398 464 497 347 456 1110 471 305 51 166
is_linear=0
shrinkage=0.05


Tree=9
num_leaves=31
num_cat=0
split_feature=26 40 20 30 26 36 11 45 9 7 3 21 4 1 2 24 2 15 7 1 16 23 12 7 24 2 10 2 23 23
split_gain=183.654 135.219 114.236 93.7099 79.4871 76.6365 70.8796 49.8545 45.5487 41.8254 26.4704 23.6563 29.8489 20.2893 20.243 19.9546 15.1744 12.2616 11.1082 10.8262 10.1811 9.68822 8.37591 7.90416 7.59655 6.49974 6.35185 4.91121 4.59759 3.39009
threshold=3.9974999427795415 -0.0062817836027153065 1.136456603087163 0.13463866061791116 4.1494998931884775 0.097127148188388648 -4.7876060753933611 0.024324420300027464 0.99219368350792048 1.6484299972481917 -0.097853031794858505 -0.13756172976245615 0.10162202647396527 -0.0081107377688830005 -0.0013283264836470832 0.029664183204764733 0.0099053165616316777 -0.12742152760209555 2.4612798808637493 0.0010060451794736531 0.081550271211771705 0.096649890478597553 9.0686273990791779 3.903106912676376 0.40382812099367787 0.0055990605476457659 0.06123390277377444 0.079632780997528657 0.5502388225899798 0.029664183204764733
decision_type=2 2 2 2 2 2 2 2 2 2 2 2 2 2 2 2 2 2 2 2 2 2 2 2 2 2 2 2 2 2
left_child=11 2 4 5 15 8 -6 14 -3 -9 -7 12 16 25 -5 -2 18 -18 -1 21 24 29 -22 27 -21 -4 -15 -14 -25 -13
right_child=1 3 13 7 6 10 -8 9 -10 -11 -12 19 23 26 -16 -17 17 -19 -20 20 22 -23 -24 28 -26 -27 -28 -29 -30 -31
leaf_value=-0.028806067682195537 0.037711009167580897 -0.016470875595851808 0.049946680185440295 0.04565074606717584 -0.021378007003850851 -0.020850766411758512 0.023258225151371183 -0.029727771334780207 -0.0029334856393643722 0.0086603770409854949 0.0047745284984825782 -0.040778968286437206 0.0093504301437940425 0.026330444958882239 0.01697637415255783 -0.0033567942370579494 0.0076604937587382354 -0.051917564404236095 0.0010748122641796576 -0.035063463274749886 -0.044195335605312552 -0.058214427411347441 -0.015153174712543321 0.0031051597752017293 0.021420543884077367 0.028901883291685554 -0.0015122012007500348 -0.035277752199718564 0.059230545102268821 0.0058840592729697411
leaf_weight=71.514398261904716 29.465165376663208 1559.5411119014025 199.84140242636204 116.05594293773174 99.322489321231842 107.32243824005127 788.61464150249958 78.011235386133194 1034.9800895154476 693.31085109710693 1439.2976559698582 5.3779329210519782 33.579564049839973 80.911756902933121 135.57953032851219 1003.8728938251734 9.4535534381866437 67.121411442756653 53.792247444391251 8.6237902790308016 91.43064084649086 90.482805624604225 36.711335614323616 5.6903653144836452 14.603376373648642 52.770607963204384 26.731872409582138 6.4933826774358741 10.988352805376051 9.079089939594267
leaf_count=289 120 6277 887 490 404 433 3256 314 4172 2823 5837 22 135 338 556 4059 38 271 216 35 371 372 149 23 59 231 110 26 46 37
internal_value=1.96354e-06 0.00200137 0.0121362 -0.0024768 0.00727839 -0.00582534 0.0182413 0.0110664 -0.0110758 0.00473788 0.00298079 -0.0288459 -0.0180322 0.0379379 0.0303493 -0.0021456 -0.0270186 -0.044494 -0.0160321 -0.0396257 -0.0306142 -0.0521654 -0.0360955 0.013763 0 0.0457014 0.0194198 0.00131435 0.0416236 -0.0126661
internal_weight=7960.57 7445.63 2281.53 5164.1 1921.28 4141.14 887.937 1022.96 2594.52 771.322 1546.62 514.942 258.633 360.256 251.635 1033.34 201.882 76.575 125.307 256.309 151.369 104.94 128.142 56.7517 23.2272 252.612 107.644 40.0729 16.6787 14.457
internal_count=32396 30307 9405 20902 7839 16719 3660 4183 10449 3137 6270 2089 1044 1566 1046 4179 814 309 505 1045 614 431 520 230 94 1118 448 161 69 59
is_linear=0
shrinkage=0.05


Tree=10
num_leaves=29
num_cat=0
split_feature=26 40 20 30 26 36 18 23 40 31 8 24 18 4 22 6 2 4 4 14 8 0 10 0 10 18 0 16
split_gain=166.623 122.799 100.289 84.2489 61.573 46.5067 76.5406 36.8932 34.8519 31.6362 21.9551 21.8654 23.3248 37.1734 20.0304 19.0163 18.3737 14.8016 14.7565 10.6648 8.72128 6.8957 6.7487 8.08603 6.20204 5.68764 4.54375 0.948852
threshold=3.9974999427795415 -0.0095585615745146218 1.136456603087163 0.088344581070995618 4.1494998931884775 0.051250642472291059 20.445000648498539 0.51196127557636106 0.019036233065760414 -0.0033499492049127162 2.667648531731853 0.21626814062694596 19.845000267028812 -0.019959104234602062 0.72057390680058331 0.27793759653862365 1.0000000180025095e-35 -0.15779453699103355 0.26820389436074182 -0.22552552234628157 1.6250915934497847 0.018140229884083099 0.007762336629026232 -0.00032017514526564193 0.06123390277377444 25.555000305175785 -0.0018681164098269067 0.56788537277112083
decision_type=2 2 2 2 2 2 2 2 2 2 2 2 2 2 2 2 2 2 2 2 2 2 2 2 2 2 2 2
left_child=11 2 4 8 15 6 -5 -6 10 -7 -3 20 13 19 25 -2 -10 26 -15 -13 -1 -19 23 -22 -16 -4 -14 -24
right_child=1 3 14 5 7 9 -8 -9 16 -11 -12 12 17 18 24 -17 -18 21 -20 -21 22 -23 27 -25 -26 -27 -28 -29
leaf_value=0.0072055140057655899 0.0049143045451412494 -0.040633108913831907 0.038430336538984783 -0.01171818703561682 0.0069539177689791178 -0.0026737384085036764 0.029695454339799102 0.02906153692416304 -0.015620010974356944 0.0080453151288106383 -0.017087642011755829 0.025734594872083474 0.030903978651828798 -0.0059537100505835548 0.024745293253166135 -0.0096673043891806476 0.0035468842299088764 -0.058078542426241622 0.039203817844823012 -0.040231266418905287 -0.054532754769812043 -0.02221764931534621 -0.070213458451600264 -0.0086967260181856718 -0.0030227126401162537 0.055821612738320092 -0.025623664807669824 -0.050075191366354382
leaf_weight=6.4792292714118949 502.62800046801567 122.60727250576019 172.27282348275185 1037.2164874970913 388.1368402838707 1032.7005774378777 123.98786304891109 369.21681459248066 208.42481303215027 2057.4676809459925 529.05824798345566 5.7269882410764685 7.3192373365163803 166.90582013130188 78.405458852648735 400.91680729389191 308.88838654756546 66.814555510878563 19.269728302955627 112.97319601476192 19.834774851799011 19.503889635205269 32.111902728676796 19.273899763822556 26.246655508875847 79.317330300807953 5.1869902461767179 31.639545321464539
leaf_count=26 2039 491 752 4180 1602 4181 523 1535 842 8364 2119 23 30 670 330 1617 1248 280 80 457 82 79 132 79 108 376 21 130
internal_value=2.45753e-06 0.00190566 0.0124345 -0.00201321 0.00725654 0.00125524 -0.00727019 0.0177623 -0.0138952 0.0044618 -0.0215807 -0.0275284 -0.0220354 -0.0150786 0.0364736 -0.00155379 -0.00418102 -0.0430811 -0.00106858 -0.0368184 -0.0473805 -0.0503802 -0.0509033 -0.0328481 0.0177711 0.0441323 0.00692748 -0.0612238
internal_weight=7950.53 7437.49 2017.14 5420.35 1660.9 4251.37 1161.2 757.354 1168.98 3090.17 651.666 513.04 403.7 304.876 356.242 903.545 517.313 98.8247 186.176 118.7 109.339 86.3184 102.86 39.1087 104.652 251.59 12.5062 63.7514
internal_count=32396 30307 8359 21948 6793 17248 4703 3137 4700 12545 2610 2089 1640 1230 1566 3656 2090 410 750 480 449 359 423 161 438 1128 51 262
is_linear=0
shrinkage=0.05


Tree=11
num_leaves=31
num_cat=0
split_feature=26 40 20 40 26 27 7 36 28 2 4 21 4 2 17 6 2 7 17 23 7 2 7 21 18 7 4 8 23 23
split_gain=151.405 111.313 92.3712 59.6642 55.8502 46.6441 47.2394 46.2671 74.6709 33.9216 23.4752 20.9824 25.2893 18.6876 18.2223 17.1576 13.7014 9.96895 9.88476 9.1433 6.92605 6.89512 6.83562 5.96054 5.41948 7.8623 5.08369 4.90452 4.22142 3.52909
threshold=3.9974999427795415 -0.0095585615745146218 1.136456603087163 0.025090996223260057 4.1494998931884775 0.0078906017568587412 2.9276739763765049 0.097127148188388648 0.027958975711707138 -0.055662138716443509 0.53644095909764788 -0.13756172976245615 0.10162202647396527 -0.0013283264836470832 -0.0082304357904836572 0.27793759653862365 0.0099053165616316777 2.4612798808637493 0.0015469558316453804 0.096649890478597553 3.903106912676376 0.0055990605476457659 2.03766042745097 0.3749097111945357 19.845000267028812 2.3335051356104244 -0.15444784885920801 4.0216266541599017 0.5502388225899798 0.029664183204764733
decision_type=2 2 2 2 2 2 2 2 2 2 2 2 2 2 2 2 2 2 2 2 2 2 2 2 2 2 2 2 2 2
left_child=11 2 4 7 15 6 -5 8 -3 -6 -9 12 16 -7 21 -2 17 -1 19 29 27 -4 -18 -16 25 -20 -26 -14 -22 -13
right_child=1 3 14 5 9 13 -8 10 -10 -11 -12 18 20 -15 23 -17 22 -19 24 -21 28 -23 -24 -25 26 -27 -28 -29 -30 -31
leaf_value=-0.026136124132871058 0.0046718448609489351 0.017951909510434596 0.047114404037062983 -0.0040387759576785897 -0.0098402213602762894 0.043075362460531147 0.029610604382192991 0.0019539749195409311 -0.010309078695885857 0.021115104065549992 0.049555979918174793 -0.038839605462563827 0.026269530207558536 0.015382168513293312 0.026220442487139242 -0.0091772361576330144 -0.060795218631838933 0.0022066078706214731 -0.038241998438238958 -0.054670467543385198 0.0026576487441354749 0.025305365805340169 -0.028392852313603396 0.0015149993078078378 0.0031935155079480543 -0.005932993147453082 -0.042266967764004619 -0.010185450260706341 0.056593778368090687 0.0089936294534969444
leaf_weight=71.05369944870472 502.33725163340569 254.62793715298176 192.59144866466522 514.76619774103165 101.50902043282986 114.16266269981861 129.71299864351749 1520.3624727129936 2724.7882921844721 653.22275583446026 25.364682868123055 5.3560002893209449 12.647880375385283 134.81328302621841 70.693656697869301 401.25411210954189 28.124830439686775 53.695446148514748 30.259042307734489 88.095577374100685 5.678707808256152 50.939802393317223 47.873751938343048 37.888445451855659 6.4115196615457526 49.656014189124107 64.77311597764492 27.380623325705528 10.784469336271284 8.8031802922487241
leaf_count=289 2039 1046 882 2086 415 490 529 6167 10971 2722 103 22 51 556 300 1617 116 216 123 369 23 228 193 156 26 200 269 110 46 36
internal_value=1.98144e-06 0.00181417 0.0118593 -0.00191341 0.00690655 0.00988557 0.0027614 -0.00424581 -0.00788694 0.0169376 0.00276987 -0.0263072 -0.0161157 0.0282218 0.0350852 -0.00147588 -0.0244158 -0.0139763 -0.0365313 -0.0487105 0.0132042 0.0426952 -0.0410828 0.0177379 -0.0279903 -0.0185497 -0.0381156 0.00157096 0.0394932 -0.010139
internal_weight=7939.63 7429.04 2010.44 5418.6 1658.32 893.455 644.479 4525.14 2979.42 754.732 1545.73 510.594 257.239 248.976 352.113 903.591 200.748 124.749 253.354 102.255 56.4917 243.531 75.9986 108.582 151.1 79.9151 71.1846 40.0285 16.4632 14.1592
internal_count=32396 30307 8359 21948 6793 3661 2615 18287 12017 3137 6270 2089 1044 1046 1566 3656 814 505 1045 427 230 1110 309 456 618 323 295 161 69 58
is_linear=0
shrinkage=0.05


Tree=12
num_leaves=31
num_cat=0
split_feature=26 40 20 26 11 40 29 17 38 10 22 21 22 24 12 2 38 12 15 22 10 16 12 3 3 20 3 25 6 12
split_gain=137.558 100.914 88.928 59.2938 60.6264 59.0578 63.226 39.319 31.7242 27.3769 32.2878 19.2757 17.7391 17.6571 17.3257 13.8801 12.4365 10.2946 10.0928 9.4446 8.29516 7.43286 9.00007 7.77105 6.74307 6.64401 5.90122 5.05116 3.11189 2.28598
threshold=3.9974999427795415 -0.0062817836027153065 1.136456603087163 4.1494998931884775 -6.1880278392582815 0.022292154747282859 0.58525302495935538 -0.0019547696484102923 0.080297458185780726 -0.046746134204240404 0.73205717090466893 -0.13756172976245615 0.70909064269649769 0.029664183204764733 6.5424760282760994 0.0060107495071670299 0.0038418042472337936 -2.9221120834945977 -0.12742152760209555 0.42105301714980631 0.035458624417121602 0.10780610337181704 2.4518594244619636 -0.0032773787957403521 -0.14635684799106394 1.3629480013946085 0.076745906413070761 0.52065369850878496 0.37775903686632301 3.3277365491791815
decision_type=2 2 2 2 2 2 2 2 2 2 2 2 2 2 2 2 2 2 2 2 2 2 2 2 2 2 2 2 2 2
left_child=11 2 3 13 -5 6 8 -8 -3 16 -11 14 25 -2 15 17 -7 -1 -17 24 27 23 -23 -21 -13 -4 -14 -16 -22 -26
right_child=1 5 12 4 -6 9 7 -9 -10 10 -12 19 26 -15 20 18 -18 -19 -20 21 28 22 -24 -25 29 -27 -28 -29 -30 -31
leaf_value=-0.027256199514668317 0.035791425600411431 0.00042634485534698974 0.035197467431538038 -0.029324817572646246 0.019633232495763955 0.029888041183483025 -0.031797391894456704 -0.0096697207031686758 -0.014955378670002281 -0.0020061388879375991 0.015058635307926988 0.0040321056570935456 0.010638433649755842 -0.0029570134442115821 0.050862464299243682 0.010631272538661777 0.0054224253599783464 0.0017566720930798797 -0.041497215732264753 0.022406199101462274 0.0031560597613680555 -0.049326496774128155 -0.020475122424869371 -0.027946770785605885 -0.054939667837367624 0.054155885384681635 0.040354222473890894 0.006135009970044028 -0.041596270423006149 -0.034198120608569457
leaf_weight=50.192749053239822 29.275342211127281 2324.6464425623417 165.31621055305004 67.616997465491295 811.40982328355312 156.22028136253357 300.62780450284481 607.78489804267883 390.58210287988186 901.99506393074989 398.81042394042015 5.8608898073434821 87.513647422194481 1004.4320764839649 13.672298058867456 9.8938071429729444 79.158559873700142 74.912696719169617 81.273476526141167 14.000698402523996 8.9714013934135419 45.591924965381622 73.218779921531677 14.627399474382399 71.539091601967812 74.844524726271629 20.353213176131248 12.118053033947943 5.4574621915817252 26.841891333460808
leaf_count=204 120 9403 740 273 3387 649 1209 2447 1569 3679 1626 24 370 4059 57 40 320 303 332 57 36 188 301 60 301 370 86 50 22 114
internal_value=3.10147e-06 0.00172854 0.0105353 0.00629323 0.0158325 -0.00213043 -0.00561366 -0.017025 -0.00178915 0.00608107 0.00322941 -0.0251366 0.03375 -0.00182127 -0.0153623 -0.0209657 0.0217391 -0.00996758 -0.0357318 -0.0349779 0.0144256 -0.0264316 -0.0319075 -0.00322757 -0.0466521 0.0413265 0.0166106 0.0310466 -0.0150456 -0.049732
internal_weight=7928.76 7420.59 2260.76 1912.73 879.027 5159.83 3623.64 908.413 2715.23 1536.18 1300.81 508.173 348.028 1033.71 256.492 216.273 235.379 125.105 91.1673 251.681 40.2192 147.439 118.811 28.6281 104.242 240.161 107.867 25.7904 14.4289 98.381
internal_count=32396 30307 9405 7839 3660 20902 14628 3656 10972 6274 5305 2089 1566 4179 1044 879 969 507 372 1045 165 606 489 117 439 1110 456 107 58 415
is_linear=0
shrinkage=0.05


Tree=13
num_leaves=31
num_cat=0
split_feature=26 40 20 37 31 31 45 28 11 4 3 1 24 4 18 17 16 11 4 17 2 0 16 16 0 21 14 14 9 14
split_gain=124.932 91.6868 78.3223 50.8041 47.9819 45.3057 45.2808 41.1622 28.5236 24.6088 21.6439 21.4217 18.7001 19.0637 28.2442 16.1118 15.0542 14.3849 10.9376 8.90429 10.5293 8.06664 7.26069 6.91306 5.73565 5.46022 5.39343 4.49944 3.79116 3.02276
threshold=3.9974999427795415 -0.0095585615745146218 1.136456603087163 -0.013457350314467762 0.035197644607626651 0.0040725443568858663 0.024930306670205574 0.047509059549644579 0.95853991036498043 0.0052233804158188244 0.21113964469606308 -1.0000000180025095e-35 0.40382812099367787 -0.005308372774562007 19.845000267028812 -0.0082304357904836572 0.65207475293100692 -1.0939703310111333 0.53644095909764788 0.0012038597123987251 0.0072977574116596727 0.018140229884083099 0.15980326102071826 0.017048628513519345 -0.0028129273891439282 0.3749097111945357 -0.11000159091647337 -0.18214075114295283 0.7229857837756507 -0.057113488782005631
decision_type=2 2 2 2 2 2 2 2 2 2 2 2 2 2 2 2 2 2 2 2 2 2 2 2 2 2 2 2 2 2
left_child=12 2 4 6 9 10 8 -7 -3 -2 -5 -8 19 17 18 23 -6 22 -15 28 24 -16 -14 -4 -21 -17 -22 -19 29 -1
right_child=1 3 15 5 16 7 11 -9 -10 -11 -12 -13 13 14 21 25 -18 27 -20 20 26 -23 -24 -25 -26 -27 -28 -29 -30 -31
leaf_value=0.0085638460521509641 -0.0046529546870560162 0.0082780212854808646 0.011384833895387069 -0.007239909073674263 0.032887798811567941 0.013213745550585505 -0.026610864784641159 3.3213732481657463e-05 -0.011095528503678767 0.0086426960873718546 0.028201208584745147 -0.010631952947546729 0.013306838668753838 0.0027551701980590166 -0.053356298719585707 0.024338937808074407 0.0027814705390988097 -0.00081530600635222866 0.067996911080888331 -0.040590557036000084 -0.057053467365211358 -0.0036307776203816956 -0.02374320060442035 0.042474695750057467 0.0029374038084831909 0.00064887139390092021 -0.028172926539654603 -0.049331365204020879 -0.054382734188553342 -0.040477615753841019
leaf_weight=4.8757604658603668 630.07639442384243 441.4684027582407 20.943268939852715 1253.0757715851068 195.14687371253967 1016.8696646988392 332.10582575201988 1418.7361810207367 331.94741843640804 774.39301557838917 43.590397611260414 578.03240078687668 18.584949925541878 127.07506307959557 30.755271151661873 69.944307267665863 53.392112612724304 5.4158590584993354 5.7887975573539725 8.6580634117126447 25.159625679254532 11.479680731892584 39.855931878089905 215.27241867780685 33.719959765672684 37.768336713314056 59.512637957930565 64.862873330712318 64.068711712956429 6.0781687796115857
leaf_count=20 2571 1792 96 5051 822 4184 1333 5748 1342 3176 176 2322 76 513 134 300 224 22 25 36 105 47 165 1014 138 156 247 266 270 25
internal_value=3.42513e-06 0.00164602 0.0108012 -0.00173013 0.00627097 0.00152149 -0.00893824 0.00554133 -3.41738e-05 0.00267535 -0.00602381 -0.0164909 -0.0240113 -0.0160553 -0.0052253 0.0324786 0.0264773 -0.030595 0.00612179 -0.0358106 -0.0272733 -0.0403529 -0.011851 0.0397989 -0.00657106 0.0161606 -0.0373787 -0.0457266 -0.0496537 -0.0193399
internal_weight=7918.65 7412.76 1996.94 5415.83 1653.01 3732.27 1683.55 2435.61 773.416 1404.47 1296.67 910.138 505.891 303.818 175.099 343.928 248.539 128.72 132.864 202.073 127.05 42.235 58.4409 236.216 42.378 107.713 84.6723 70.2787 75.0226 10.9539
internal_count=32396 30307 8359 21948 6793 15159 6789 9932 3134 5747 5227 3655 2089 1248 719 1566 1046 529 538 841 526 181 241 1110 174 456 352 288 315 45
is_linear=0
shrinkage=0.05


Tree=14
num_leaves=29
num_cat=0
split_feature=26 28 36 36 36 45 29 7 38 7 38 17 8 7 2 24 18 4 4 4 25 14 8 10 0 10 0 16
split_gain=113.616 84.0708 88.5189 54.521 52.1801 48.5791 46.5741 36.8311 52.4338 35.0479 33.9168 31.9123 25.5043 23.5109 17.806 17.68 18.2002 29.5253 12.5977 11.9335 11.3728 9.56971 8.25192 6.41806 7.47902 6.31635 4.13199 1.27625
threshold=3.9974999427795415 0.041717610268412371 0.031140354769733095 0.097127148188388648 0.085607982345435554 0.018396590467504307 0.44923353016518469 2.4612798808637493 0.057871814040953547 1.9574407520379067 0.036234161794407534 0.0033993156243402605 2.8815227738235842 2.2753201787912443 -0.0021965525833793501 0.21626814062694596 19.845000267028812 -0.019959104234602062 -0.15779453699103355 0.53644095909764788 0.6205577292189578 -0.22552552234628157 1.6250915934497847 0.007762336629026232 -0.00032017514526564193 0.065012698596656315 -0.0018681164098269067 0.56788537277112083
decision_type=2 2 2 2 2 2 2 2 2 2 2 2 2 2 2 2 2 2 2 2 2 2 2 2 2 2 2 2
left_child=15 2 9 4 6 20 -3 10 -9 11 -4 -2 -6 -7 -11 22 17 21 26 -19 -5 -17 -1 24 -24 -20 -18 -25
right_child=1 3 7 5 12 13 -8 8 -10 14 -12 -13 -14 -15 -16 16 18 19 25 -21 -22 -23 23 27 -26 -27 -28 -29
leaf_value=0.011604243138747524 0.023398844599554196 0.0057752097457858722 0.0017583297458421928 0.01776653789892374 -0.033931131944962112 -0.0060753321357098081 -0.0079378322551955545 0.014805610023121894 -0.0080864130916447445 0.04478979837429798 0.019881825147457465 -0.016141199086343046 -0.012297489383199574 0.01012867094953945 0.022486367256470564 0.027527872916930429 0.031677287054931176 -0.0018943484395347603 -0.049231126520780259 0.066125094292351236 0.04028296657585001 -0.034780880538321318 -0.048337445790853951 -0.064051145202248624 -0.003983648421755968 -0.0067683423185481567 -0.022387559910912555 -0.04353961205688639
leaf_weight=6.4334577322006217 145.18278533220291 1026.9189613908529 520.38329516351223 151.34157171845436 176.49293527007103 487.90476967394352 1555.5218146294355 341.01006123423576 929.79707652330399 203.28600001335144 512.98846550285816 77.39102229475975 604.11719372868538 411.76290945708752 168.41169381141663 5.7145533859729758 7.3042758256196976 179.53563326597214 72.238227963447571 5.685937210917472 92.593357056379318 111.04877243936062 19.107789322733879 30.965587615966797 18.899814799427986 10.659812137484549 5.1414681673049909 30.593504592776299
leaf_count=26 626 4178 2133 648 709 1981 6271 1405 3776 940 2100 322 2424 1673 725 23 30 725 314 25 396 457 82 132 79 45 21 130
internal_value=2.83738e-06 0.00156716 0.00820922 -0.00270443 -0.0059119 0.00672048 -0.00248272 0.00376442 -0.00193279 0.0253994 0.0107706 0.00961733 -0.0172323 0.00133843 0.0347852 -0.0229595 -0.0180157 -0.0119056 -0.036992 0.00051074 0.0264634 -0.0314811 -0.0411025 -0.0446394 -0.0270776 -0.0439762 0.00896674 -0.0547962
internal_weight=7908.43 7405.1 2898.45 4506.65 3363.05 1143.6 2582.44 2304.18 1270.81 594.272 1033.37 222.574 780.61 899.668 371.698 503.329 397.329 301.985 95.3438 185.222 243.935 116.763 106 99.5667 38.0076 82.898 12.4457 61.5591
internal_count=32396 30307 12027 18280 13582 4698 10449 9414 5181 2613 4233 948 3133 3654 1665 2089 1640 1230 410 750 1044 480 449 423 161 359 51 262
is_linear=0
shrinkage=0.05


Tree=15
num_leaves=31
num_cat=0
split_feature=46 30 40 19 4 19 7 30 9 45 6 30 37 3 47 35 24 3 5 3 8 23 6 0 2 0 7 2 5 0
split_gain=97.5888 70.4646 54.6692 54.7655 63.6761 52.013 43.7116 59.4485 38.0066 37.4541 36.4785 50.3794 40.0386 34.0523 55.6966 35.9275 28.3067 23.1886 21.3897 17.5967 14.9417 11.7335 17.0337 11.9042 11.6062 6.96979 4.1558 3.25602 4.12916 3.09567
threshold=-0.023575706138180049 0.0733377695516058 0.022292154747282859 36.428742228598757 0.035079780424960932 91.321363868630115 2.8304554784423024 0.1292214351095356 0.99548098238835225 0.023623405796304845 0.28469412091595669 0.14307915223171933 -0.01899183091591999 -0.10997976288266446 0.034297524013909904 0.030171864376802974 0.49186647912500098 0.049712945510431018 0.44896578193198738 0.14949504141041267 5.453521562250919 0.44306169095184728 0.15527231926046312 -0.0080997078703118845 0.031161906019544636 0.0035258842830369168 2.0155510680498825 -0.037496772849432404 0.26160928292648383 0.014277447372366409
decision_type=2 2 2 2 2 2 2 2 2 2 2 2 2 2 2 2 2 2 2 2 2 2 2 2 2 2 2 2 2 2
left_child=1 21 3 4 16 10 8 18 17 -6 12 -12 -3 14 -5 -15 -2 -4 -8 -9 -10 27 -23 -24 26 -26 -7 28 -1 -29
right_child=2 5 6 13 9 24 7 19 20 -11 11 -13 -14 15 -16 -17 -18 -19 -20 -21 -22 22 23 -25 25 -27 -28 29 -30 -31
leaf_value=-0.0018125846344937944 -0.019474938495734888 0.0014473676359391396 -0.0043990614799667774 0.042063281003475811 0.026618044411017061 0.028520102316098063 -0.017687624313792834 0.044469883057566467 0.014108911620330684 0.0019964037076823297 0.0046892496106343429 -0.024270483545003437 0.01736216156790062 -0.010476423132993006 -0.021071201141044927 -0.026778771477962118 -0.0023347097622885664 -0.029267886039817455 0.019332731871063127 -0.011290580641668917 -0.0070659232693794875 0.04028347935754336 0.023228085100923425 -0.034915817392035461 0.032541807910223 -0.029247041905428824 0.056496271182905157 -0.058978481997497806 -0.051120558885210089 -0.013324993281043069
leaf_weight=9.7175638526678103 499.82708272337914 611.40263688564301 357.83376209437847 65.314520448446274 192.24771046638489 21.865731000900269 93.418551549315453 161.57602268457413 350.76042568683624 773.27425998449326 999.2649090886116 175.70213118195534 1121.3262967467308 836.369748711586 72.807661920785904 570.58569398522377 466.09648969769478 126.55890408158302 65.459185734391212 14.950567811727522 108.13366451859474 10.712910100817679 9.7200451940298063 52.035243213176727 8.7460853457450884 7.5620730221271506 66.286492720246315 35.532398715615273 6.97528052330017 5.2215352654457083
leaf_count=39 2032 2517 1454 263 788 106 378 679 1434 3128 4138 708 4656 3386 294 2325 1889 513 266 62 442 43 39 209 39 33 344 143 28 21
internal_value=3.04261e-06 0.00684011 -0.00451408 -0.00776538 -0.00214726 0.00839968 0.00432085 0.019796 -0.00119146 0.00692653 0.00714383 0.000337463 0.0117535 -0.0147792 0.00883533 -0.0171057 -0.0112202 -0.0109538 -0.00237808 0.0396822 0.00910389 -0.0290691 -0.0152573 -0.0254602 0.04291 0.0035671 0.0500107 -0.0458478 -0.0244238 -0.0537082
internal_weight=7897.29 3142.07 4755.21 3476.52 1931.45 3012.16 1278.69 335.404 943.287 965.522 2907.7 1174.97 1732.73 1545.08 138.122 1406.96 965.924 484.393 158.878 176.527 458.894 129.915 72.4682 61.7553 104.46 16.3082 88.1522 57.4468 16.6928 40.7539
internal_count=32396 13063 19333 14105 7837 12541 5228 1385 3843 3916 12019 4846 7173 6268 557 5711 3921 1967 644 741 1876 522 291 248 522 72 450 231 67 164
is_linear=0
shrinkage=0.05


Tree=16
num_leaves=31
num_cat=0
split_feature=20 19 40 45 6 40 38 7 18 6 9 37 23 10 3 22 2 11 3 1 2 11 15 2 4 7 9 2 15 8
split_gain=82.6832 56.2674 56.5688 53.4429 45.3883 43.6444 35.6031 39.3109 35.2027 31.0622 30.4489 28.1273 22.4673 17.6974 16.44 22.2618 16.2193 15.9508 15.4688 13.9162 12.4128 10.9835 9.13006 6.09925 8.27118 5.99093 5.29986 4.89336 3.82041 5.4209
threshold=1.1289424097999359 5.7554287817445724 0.025090996223260057 0.012020550603616178 0.17942582244902888 -0.017736141096122812 -0.019278288274160778 2.9934891050140924 16.644999504089359 0.2740682512696973 0.68310540344851656 -0.024835618693540392 0.57703310549951292 0.083632184390795936 -0.066272595990292407 0.78564573672373517 -0.0013283264836470832 2.0324908409714433 -0.047776619989218165 0.0083846122217922248 0.081667966671620865 -2.0136037922562502 -0.016261301893532164 -0.020933854329339956 -0.0172913970823406 2.6612786359243046 0.95427036263894383 0.0021135028262302146 0.037545635291074721 3.4628579454739516
decision_type=2 2 2 2 2 2 2 2 2 2 2 2 2 2 2 2 2 2 2 2 2 2 2 2 2 2 2 2 2 2
left_child=1 4 5 21 10 9 16 -8 -7 -3 18 14 13 -6 26 -16 -4 -14 -1 -12 22 28 -13 24 -23 -22 -5 -25 29 -2
right_child=3 2 6 11 12 8 7 -9 -10 -11 19 20 17 -15 15 -17 -18 -19 -20 -21 25 23 -24 27 -26 -27 -28 -29 -30 -31
leaf_value=0.033718893166826996 -0.00037796482618506714 0.016802764960553874 0.038721714097005637 -0.010601708713523058 0.015153047642886615 -0.0031511409030824354 -0.0037139785099313742 0.028061848251840465 -0.011827086916624291 -0.0055385059881451395 0.024500016268681247 0.025150826426874547 0.049778244251693748 -0.02888077065980172 0.0088813726600478933 -0.027910726350277623 0.012647463488194344 0.021199583285556222 -0.033297001707012018 -0.018044323261113292 0.014523573069061586 -0.055348998359120098 0.010518753025689567 0.044904274271850488 0.023115064778648359 -0.020343780962942901 -0.04805583476803868 0.020988489268987345 0.061116947661412818 0.043994517228280905
leaf_weight=8.6311342269182187 7.6031218469142905 356.36069110035896 110.36889418959618 16.263610780239105 208.74566233158112 2709.310953989625 524.70839804410934 118.42275568842888 2059.982942044735 274.41131511330605 66.90699091553688 193.95197214186192 84.661072283983231 24.605840548872948 161.35325314104557 54.05126728117466 133.32474447786808 122.40022370219231 90.414410054683685 25.842917963862419 17.723359435796738 4.5508390814065933 244.9845417290926 32.260333523154259 7.4879663884639722 34.927106142044067 25.813715875148773 76.635859459638596 37.993005871772766 53.519734874367714
leaf_count=35 37 1484 490 66 862 10971 2127 488 8358 1128 282 824 353 101 656 219 556 507 368 107 74 21 1046 153 35 146 104 342 193 263
internal_value=3.59536e-06 -0.00191219 -0.0033432 0.0136745 0.0122932 -0.00526594 0.00835189 0.00216377 -0.00690125 0.00708211 -0.00796033 0.00728001 0.0211228 0.0103851 -0.00607849 -0.000414045 0.0245869 0.0330916 -0.0271284 0.0125265 0.0142852 0.0352878 0.017038 0.0247423 -0.00813215 -0.00846149 -0.0342774 0.0284631 0.0477292 0.0384773
internal_weight=7888.22 6919.1 6286.89 969.12 632.208 5400.07 886.825 643.131 4769.29 630.772 191.795 749.069 440.413 233.352 257.482 215.405 243.694 207.061 99.0455 92.7499 491.587 220.051 438.937 120.935 12.0388 52.6505 42.0773 108.896 99.1159 61.1229
internal_count=32396 28217 25602 4179 2615 21941 3661 2615 19329 2612 792 3135 1823 963 1045 875 1046 860 403 389 2090 1044 1870 551 56 220 170 495 493 300
is_linear=0
shrinkage=0.05


Tree=17
num_leaves=30
num_cat=0
split_feature=26 35 7 18 30 20 4 20 18 13 26 21 4 7 5 14 2 2 22 15 16 12 3 5 3 10 5 12 12
split_gain=93.5262 73.2344 66.7401 64.3936 52.5531 44.0392 41.7679 40.8539 24.8948 24.6125 19.889 16.6341 19.3555 12.2198 19.3621 11.6317 11.3163 8.62739 8.3883 8.12066 6.7194 8.09097 6.89074 6.67839 5.84353 5.7758 6.20805 4.82211 2.46628
threshold=3.9974999427795415 0.010131468355634722 2.8304554784423024 22.85000038146973 0.063761950202204667 0.96566594023053709 0.0075410922915692584 0.94784014849456122 16.315000534057621 10.375755388142005 4.1494998931884775 -0.13756172976245615 0.10162202647396527 1.597631970134741 0.16472544495143046 -0.073844064785596839 -0.032344365967108657 0.029367258859388148 0.42105301714980631 -0.0096918450606896748 0.10780610337181704 2.4518594244619636 -0.0032773787957403521 0.36801393674923116 -0.14635684799106394 0.057864038100162322 0.27704374342006971 11.599741828035542 3.3277365491791815
decision_type=2 2 2 2 2 2 2 2 2 2 2 2 2 2 2 2 2 2 2 2 2 2 2 2 2 2 2 2 2
left_child=11 2 9 8 13 7 -7 -6 -4 10 -2 12 16 15 -15 -3 23 -5 24 -18 22 -22 -20 -1 -13 27 -27 -14 -26
right_child=1 4 3 17 5 6 -8 -9 -10 -11 -12 18 25 14 -16 -17 19 -19 20 -21 21 -23 -24 -25 28 26 -28 -29 -30
leaf_value=0.016195582890724702 0.012560858998337629 -0.017841257751172502 0.012137587755051917 0.044998628071681514 -0.0012165792072472341 -0.0036946363217177703 0.0072765957114527191 -0.018796257924798318 -0.012852543155930294 -0.060148482334547039 0.025842241373524907 0.0054139831077664033 0.012953830195812248 -0.041469887130578142 -0.014911558191692757 0.02366715286635597 -0.013466129024786231 0.0028410885973598238 0.023932441762372785 -0.036431538026021691 -0.044144508215913078 -0.016587210784423122 -0.023772463754038534 -0.031048309302633317 -0.049721421909077718 -0.043021622247560322 0.020649205887308789 0.053291164992151197 -0.028699862742173843
leaf_weight=29.958317741751671 828.87502409517765 37.790794610977173 122.52342356741428 71.070483699440956 903.74830900132656 1478.1045538932085 2096.0293070375919 520.76148331165314 514.13165853917599 9.4059601426124555 431.94373945891857 5.8650496304035178 33.515594065189362 100.33472838997841 222.48884704709053 28.873445332050323 79.560536757111549 15.070847421884535 13.919796153903009 79.052514180541039 44.409044101834297 71.87827555835247 14.362282663583754 8.8442008197307569 68.84684856235981 7.206800162792204 6.2169855833053589 9.1719885915517789 25.788382649421692
leaf_count=122 3458 152 506 366 3661 6061 8570 2088 2088 39 1836 24 136 404 894 116 327 68 57 329 188 301 60 36 301 29 25 40 114
internal_value=6.18192e-06 0.00142373 0.0096105 -0.0025114 -0.00160478 -0.000223692 0.00273821 -0.00765541 -0.00802389 0.0165087 0.0171318 -0.0209298 -0.011847 -0.0192707 -0.023284 0.000146944 -0.0192048 0.0377976 -0.0302194 -0.0250999 -0.022165 -0.0274404 -0.000106965 0.00479221 -0.0414239 0.0138351 -0.0137998 0.0227567 -0.0444053
internal_weight=7879.75 7381.15 1993.02 722.796 5388.13 4998.64 3574.13 1424.51 636.655 1270.22 1260.82 498.597 253.527 389.488 322.824 66.6642 197.416 86.1413 245.07 158.613 144.569 116.287 28.2821 38.8025 100.5 56.1114 13.4238 42.6876 94.6352
internal_count=32396 30307 8361 3028 21946 20380 14631 5749 2594 5333 5294 2089 1044 1566 1298 268 814 434 1045 656 606 489 117 158 439 230 54 176 415
is_linear=0
shrinkage=0.05


Tree=18
num_leaves=31
num_cat=0
split_feature=26 35 27 6 30 20 38 23 30 29 8 1 21 4 13 7 5 2 14 15 12 22 16 3 12 3 10 5 25 15
split_gain=84.997 66.3183 61.0349 66.3229 47.5429 41.6885 44.278 38.6279 33.3749 31.1162 24.8889 22.9671 15.2979 17.598 14.8643 11.0737 17.6253 10.9678 10.5295 10.4134 9.21723 7.83574 6.19496 9.62594 9.20315 5.41381 5.27703 5.68742 4.64025 2.5478
threshold=3.9974999427795415 0.010131468355634722 0.0040605962331256027 0.28469412091595669 0.063761950202204667 1.0398897077603009 0.046174965669559261 0.48133923796546602 0.12311574358957801 0.51245210727969359 17.452432979912359 -0.0051391862145924979 -0.13756172976245615 0.10162202647396527 10.615186539268928 1.597631970134741 0.16472544495143046 0.0099053165616316777 -0.073844064785596839 -0.12742152760209555 -2.9221120834945977 0.42105301714980631 0.15980326102071826 -0.0087391289752253142 2.4518594244619636 -0.14635684799106394 0.057864038100162322 0.27704374342006971 0.66282481913479996 0.098298192812704424
decision_type=2 2 2 2 2 2 2 2 2 2 2 2 2 2 2 2 2 2 2 2 2 2 2 2 2 2 2 2 2 2
left_child=12 2 3 14 15 9 -7 8 -4 -6 -5 -9 13 17 -2 18 -17 20 -3 -19 -1 25 23 -23 -24 -14 28 -28 -15 -27
right_child=1 4 7 10 5 6 -8 11 -10 -11 -12 -13 21 26 -16 16 -18 19 -20 -21 -22 22 24 -25 -26 29 27 -29 -30 -31
leaf_value=-0.024723068202518191 0.013565333692322785 -0.016993643088415219 -0.0050402862570917244 -0.016152767441607204 0.0027556001040618576 0.012749229399365201 -0.0016130454100431854 0.041148169049466131 0.021972363438393989 -0.0081293567306218728 0.024045699331241458 0.019046565530951645 0.0051850740792471796 0.03272291449849455 -0.061328352496324449 -0.039555870159343892 -0.014181308112208888 0.014266357394478233 0.022497032163820204 -0.040557642715324797 0.0027292803766957793 0.025189454435446481 -0.045840521113365763 -0.02621396872977735 -0.015430532618943591 -0.038940413622041647 -0.041185547191305537 0.019773527815500156 -0.002102673365890421 -0.06932295877501557
leaf_weight=52.244631230831146 541.20844857394695 37.743056327104568 241.09017446637154 444.84638503193855 1027.3063966780901 996.81231082975864 1159.5207603573799 197.53102220594883 215.61656053364277 1813.5600878894329 41.170999810099602 300.47098940610886 5.862006187438964 29.060030400753021 5.7131992727518073 99.987333133816719 222.30459798872471 9.3256425857543928 28.907535716891289 64.48175872862339 70.750986039638519 15.856681004166601 40.200020849704742 18.777600973844528 69.094753369688988 83.982644319534302 7.1965001970529539 6.2120990306138992 13.477290987968443 9.4673946648836118
leaf_count=216 2198 152 1004 1792 4180 4178 4706 901 1004 7316 166 1273 24 121 23 404 894 38 116 271 289 65 172 79 290 373 29 25 55 42
internal_value=4.71535e-06 0.00135411 0.00915771 0.000726259 -0.00152589 -0.000212725 0.00502675 0.0182645 0.00772192 -0.00419182 -0.0126949 0.027888 -0.0200088 -0.0112937 0.0126634 -0.018341 -0.0221669 -0.0183214 0.000139616 -0.0334656 -0.00899663 -0.0289606 -0.0211764 -0.00249307 -0.0269753 -0.0398687 0.0132273 -0.0131844 0.0217793 -0.0427728
internal_weight=7869.78 7373.79 1987.65 1032.94 5386.14 4997.2 2156.33 954.709 456.707 2840.87 486.017 498.002 495.99 252.749 546.922 388.943 322.292 196.803 66.6506 73.8074 122.996 243.241 143.929 34.6343 109.295 99.312 55.9459 13.4086 42.5373 93.45
internal_count=32396 30307 8361 4179 21946 20380 8884 4182 2008 11496 1958 2174 2089 1044 2221 1566 1298 814 268 309 505 1045 606 144 462 439 230 54 176 415
is_linear=0
shrinkage=0.05


Tree=19
num_leaves=28
num_cat=0
split_feature=26 35 7 18 9 36 24 18 45 18 13 26 35 24 18 4 4 0 4 11 14 8 12 14 16 0 0
split_gain=77.3176 60.0706 56.7918 55.7089 34.7885 61.2564 40.8044 36.3448 30.2783 21.8067 21.1218 17.7424 16.9122 15.7624 14.8445 24.7433 11.0366 10.4111 10.2352 10.0533 8.69181 7.87551 7.1379 6.4165 6.43538 5.19005 3.75781
threshold=3.9974999427795415 0.010131468355634722 2.8304554784423024 22.85000038146973 1.0018482101845567 0.10149563875312585 0.88995296806663593 20.710000038146976 0.029264725339784862 16.315000534057621 10.375755388142005 4.1494998931884775 0.027067495622361885 0.21626814062694596 19.845000267028812 -0.019959104234602062 -0.15779453699103355 0.0027777969002442818 0.53644095909764788 -3.5294491567666495 -0.22552552234628157 1.6250915934497847 5.8359498873037587 0.015562587208684827 0.62106273048427296 0.0061631609240548535 -0.0018681164098269067
decision_type=2 2 2 2 2 2 2 2 2 2 2 2 2 2 2 2 2 2 2 2 2 2 2 2 2 2 2
left_child=13 2 10 9 5 6 -3 8 -6 -4 11 -2 -7 21 15 20 26 -5 -17 -9 -15 -1 -18 25 -25 -23 -16
right_child=1 4 3 17 7 12 -8 19 -10 -11 -12 -13 -14 14 16 18 22 -19 -20 -21 -22 23 -24 24 -26 -27 -28
leaf_value=0.014746499083320867 0.011385625696516237 -0.012517519836910997 0.01138372291734694 0.045798499034775654 0.0096661186474542096 -0.0032902131521614676 0.0089898650569817263 0.041222724162675861 -0.0029527311114521493 -0.012036667390038645 -0.055597228097031597 0.023983517237279456 0.0098800834888927418 0.028910065239443394 0.032426234990868129 7.5758736446071513e-05 -0.051264182328483343 0.0047595619610897805 0.063934630394640354 0.015978634327743303 -0.030354123757390536 -0.054503796422824838 -0.019633535263416171 -0.033621346890592166 0.026114234796302982 -0.024306428221203286 -0.019368745260338761
leaf_weight=6.3817208260297766 824.89881244301796 1808.3960332721472 122.07429879903793 62.437229856848717 723.06502763926983 386.99266357719898 250.13905474543571 61.017163336277008 1382.3834230601788 514.54858340322971 9.4889612346887571 427.26774725317955 653.6331952214241 5.7036382853984824 7.2798645943403244 178.83412674069405 46.868901804089546 21.134971424937248 5.5091154277324668 118.12655283510685 108.81799466907978 55.882399469614029 32.486845150589943 10.834330424666407 6.2916907519102088 23.305391803383827 5.0768818408250791
leaf_count=26 3458 7312 506 334 2993 1565 1016 253 5600 2088 39 1836 2720 23 30 725 215 100 25 487 457 248 144 47 27 101 21
internal_value=3.38195e-06 0.00128849 0.00872876 -0.00246641 -0.00145059 -0.00490142 -0.00989857 0.00322854 0.00138106 -0.00752709 0.0151202 0.015704 0.004979 -0.0191396 -0.0144684 -0.00898686 -0.0319875 0.0356581 0.00234582 0.0247857 -0.0271345 -0.0365464 -0.0387829 -0.040113 -0.0111701 -0.0460929 0.0109146
internal_weight=7858.88 7365.6 1981.85 720.195 5383.75 3099.16 2058.54 2284.59 2105.45 636.623 1261.66 1252.17 1040.63 493.273 390.577 298.865 91.7125 83.5722 184.343 179.144 114.522 102.696 79.3557 96.3138 17.126 79.1878 12.3567
internal_count=32396 30307 8361 3028 21946 12613 8328 9333 8593 2594 5333 5294 4285 2089 1640 1230 410 434 750 740 480 449 359 423 74 349 51
is_linear=0
shrinkage=0.05


Tree=20
num_leaves=23
num_cat=0
split_feature=27 28 18 30 46 26 28 13 38 9 24 7 7 15 2 30 4 4 0 0 7 0
split_gain=71.0164 62.5119 40.4802 35.3429 40.4998 28.6532 27.0429 26.6104 26.0542 13.8641 13.573 12.3637 12.1105 11.5003 10.9622 10.4449 8.13778 10.407 6.53915 6.35732 4.05156 3.43572
threshold=-0.063367075824270411 0.041717610268412371 25.555000305175785 0.061877451903325921 -0.023194257630066325 4.1705000400543222 0.079600445321591065 9.8557319153637302 0.090372385347087816 0.87125193385746991 0.97416357149659727 2.7682860893196248 1.597631970134741 -0.16295052909044208 0.031161906019544636 0.10854270713526566 -0.16218201541587793 -0.026997834081376831 0.0093531253028270884 0.0035258842830369168 2.0155510680498825 -0.0018681164098269067
decision_type=2 2 2 2 2 2 2 2 2 2 2 2 2 2 2 2 2 2 2 2 2 2
left_child=10 2 7 9 5 -5 -6 8 -2 11 13 -3 -11 18 20 -9 21 -18 -1 -16 -4 -15
right_child=1 3 14 4 6 -7 -8 15 -10 12 -12 -13 -14 16 19 -17 17 -19 -20 -21 -22 -23
leaf_value=0.037126188070643412 0.0093846303603161568 -0.038783995269491944 0.024387207844696682 0.0018362343174934946 -0.007909568917841751 0.020345391703664964 0.0037413787581810128 -0.079122943260961864 -0.0010068386726355108 0.024466795711615183 0.039004648360844413 -0.0034700310734340697 -0.015593928682781935 0.030551622388831041 0.028545176835724242 -0.0093533218183593971 -0.056157100426194539 -0.02789598700398048 -0.021884776157615714 -0.031126781692651369 0.052420792126163879 -0.017042445421231855
leaf_weight=9.2931646406650561 1856.0869714319706 111.28258617222309 20.817854583263397 1404.9286610037088 2185.2662017941475 244.89329418540001 643.67067627608776 11.484308108687403 891.89894269406796 22.65546378493309 6.7930389195680609 32.484503045678139 91.878150805830956 6.2865365892648697 8.4179726690053922 10.25192269682884 42.385691955685616 165.81787745654583 7.6346033662557593 7.4833157360553733 60.193869590759277 6.8598061949014646
leaf_count=38 7777 452 106 5745 8880 1045 2610 47 3638 91 28 131 370 26 39 43 182 712 31 33 344 28
internal_value=3.82005e-06 0.000859882 0.00668695 -0.00266598 -0.00162532 0.00459735 -0.00525647 0.00556571 0.00601097 -0.0206151 -0.0264321 -0.0309184 -0.00748321 -0.0284737 0.0382961 -0.0482946 -0.0315102 -0.0339142 0.0104965 0 0.0456631 0.00591426
internal_weight=7848.77 7603.69 2866.64 4737.06 4478.76 1649.82 2828.94 2769.72 2747.99 258.301 245.071 143.767 114.534 238.278 96.913 21.7362 221.35 208.204 16.9278 15.9013 81.0117 13.1463
internal_count=32396 31351 12027 19324 18280 6790 11490 11505 11415 1044 1045 583 461 1017 522 90 948 894 69 72 450 54
is_linear=0
shrinkage=0.05


Tree=21
num_leaves=26
num_cat=0
split_feature=26 18 30 46 29 22 24 18 2 14 7 7 5 8 8 10 0 23 0 0 7 14 22 15 1
split_gain=65.8614 50.4106 47.5488 32.7548 29.3823 24.5883 14.615 12.9304 10.369 10.3065 11.1254 9.65446 15.495 9.51384 7.28892 6.48625 7.07842 6.40113 6.34629 5.80799 3.95016 6.01911 2.90268 2.33745 0.98021
threshold=3.9974999427795415 25.555000305175785 0.063761950202204667 -0.02837918958339752 0.56633900273299831 0.54736892229474821 0.21626814062694596 19.845000267028812 0.031161906019544636 -0.24686813000786897 2.4978131396131338 1.597631970134741 0.16472544495143046 2.5356661450722169 1.6250915934497847 0.007762336629026232 -0.00032017514526564193 0.072727339325875648 0.018140229884083099 0.0035258842830369168 2.0155510680498825 -0.010790688578326045 0.47081382826751067 -0.018882615107572161 -0.014553882559065218
decision_type=2 2 2 2 2 2 2 2 2 2 2 2 2 2 2 2 2 2 2 2 2 2 2 2 2
left_child=6 2 11 4 -4 -5 14 9 20 22 -11 13 -13 -2 -1 16 -16 -9 -19 -10 21 -3 -8 -17 -22
right_child=1 8 3 5 -6 -7 7 17 19 10 -12 12 -14 -15 15 23 -18 18 -20 -21 24 -23 -24 -25 -26
leaf_value=0.014614098538956941 -0.020768700045872123 0.037846843302210331 0.0036477227191600405 -0.0037623564439489689 0.017861903430748147 0.0033649624079471665 0.0084797527456173041 0.0085412366396285383 0.027527447278402985 -0.021282385234561885 -0.0014045910759039075 -0.036278122754282008 -0.012416319085949973 0.016946557157906769 -0.041851032281006798 -0.030732966588992036 0.0013578285777822961 -0.041946014149330302 -0.0079451249377880916 -0.029515878714581729 0.05543111263932704 -0.022086554249407642 0.061561327479095707 -0.056094630069324386 0.03222719455480156
leaf_weight=6.3806988745927802 27.951484709978104 15.863809630274774 1509.8638007491827 2668.3812766671181 478.81280453503132 2212.1926168203354 5.461323067545889 9.1679375916719419 8.3319305926561338 123.51028162240982 163.64782691001892 99.143662378191948 221.6492356210947 38.546475917100906 18.028699904680252 19.147685721516609 18.333284333348274 61.820329368114471 18.742385014891624 7.5499583780765525 46.322833105921745 4.7233677804470053 5.2149760723114014 39.238987475633621 12.161022827029226
leaf_count=26 113 81 6269 10853 2091 9006 22 38 39 512 675 404 894 155 82 85 79 292 80 33 281 25 21 177 63
internal_value=3.60986e-06 0.00118678 0.000709898 0.00167253 0.00707984 -0.000530742 -0.0177508 -0.0132509 0.0371918 -0.00816086 -0.0100158 -0.0163115 -0.0198964 0.000946575 -0.0346487 -0.0381364 -0.0204786 -0.0298143 -0.0342916 0 0.0445121 0.0234784 0.0378881 -0.0485191 0.0513131
internal_weight=7840.19 7351.49 7256.54 6869.25 1988.68 4880.57 488.694 387.565 94.9529 297.834 287.158 387.291 320.793 66.498 101.129 94.7487 36.362 89.7307 80.5627 15.8819 79.071 20.5872 10.6763 58.3867 58.4839
internal_count=32396 30307 29785 28219 8360 19859 2089 1640 522 1230 1187 1566 1298 268 449 423 161 410 372 72 450 106 43 262 344
is_linear=0
shrinkage=0.05


Tree=22
num_leaves=29
num_cat=0
split_feature=26 28 36 36 30 45 4 22 0 24 38 13 10 19 24 4 18 3 8 25 8 4 0 8 10 10 0 15
split_gain=59.857 47.699 51.1155 31.4763 38.9789 34.8661 32.2825 30.9872 28.6771 25.9639 25.6074 18.2704 17.8143 16.1486 13.5826 13.4268 21.7763 11.7659 13.9739 10.7926 10.5008 9.41413 8.80068 6.74692 6.42272 6.07539 6.56033 2.22358
threshold=3.9974999427795415 0.041717610268412371 0.031140354769733095 0.097127148188388648 0.13463866061791116 0.018396590467504307 0.055849640848868627 0.58564646930836695 -0.023652188679615854 0.1818183483146891 0.096980725244823388 9.8331918405867587 -0.040013226362654898 51.808194360570454 0.21626814062694596 -0.019959104234602062 19.845000267028812 -0.081460557826737265 3.7304591931885431 0.6205577292189578 2.8603048255681927 0.53644095909764788 0.018140229884083099 1.6250915934497847 -0.026258572926138892 0.007762336629026232 -0.00032017514526564193 -0.018882615107572161
decision_type=2 2 2 2 2 2 2 2 2 2 2 2 2 2 2 2 2 2 2 2 2 2 2 2 2 2 2 2
left_child=14 2 7 4 6 19 -3 20 -6 13 -11 -7 -9 -4 23 17 21 24 -19 -5 -2 -17 -18 -1 -16 26 -25 -27
right_child=1 3 9 5 8 11 -8 12 -10 10 -12 -13 -14 -15 15 16 22 18 -20 -21 -22 -23 -24 25 -26 27 -28 -29
leaf_value=0.013965841107132938 0.0092005854852170513 -0.013642869953086046 0.0052540386797863426 0.013592918990628819 -0.020771190718719225 -0.00025378774422689978 -0.0014032411237135825 0.042460864248295843 0.0055613576712529172 0.0044923864176257718 -0.0078686510179336085 0.060596388868915135 0.0011439344060485076 0.025136662441819248 -0.028405824271963101 0.00087480547054384042 -0.043652998062733379 -0.00011389560980601564 -0.042511014994620844 0.035765325138226771 0.03386093157503009 0.062587494912419259 1.6692311528825027e-05 -0.04043416315277823 0.01517518444961316 -0.029545613786622255 0.0012930175834888204 -0.054387380665293576
leaf_weight=6.389222800731658 53.219738975167274 1261.2782068997622 230.32242839038372 147.59285280108452 113.80322381854057 885.89390088617802 941.99919146299362 28.726775348186493 1036.2268290668726 1247.4419033527374 629.5736505240202 11.508137732744215 216.10982199013233 184.63108593225479 11.822642564773558 178.68176880478859 41.857225596904755 25.550415724515915 83.54986572265625 89.698523640632629 267.6856599599123 5.4109489470720282 15.473081588745115 17.769143387675285 23.802750051021576 18.966196492314339 18.339583948254585 38.497525408864021
leaf_count=26 237 5084 950 648 463 3607 3795 133 4240 5136 2568 47 952 760 50 725 202 109 362 396 1291 25 66 82 101 85 79 177
internal_value=3.25476e-06 0.00112929 0.00617783 -0.00208488 -0.00452122 0.00510837 -0.00841516 0.0196251 0.00293545 0.00284925 0.000341701 0.00058756 0.00616501 0.0141519 -0.0169697 -0.0126368 -0.00535073 -0.0246365 -0.0327186 0.0221102 0.029828 0.00304405 -0.0319829 -0.033367 0.000195181 -0.0367653 -0.0196425 -0.0469194
internal_weight=7831.82 7345.71 2857.71 4488 3353.31 1134.69 2203.28 565.742 1150.03 2291.97 1877.02 897.402 244.837 414.954 486.11 386.149 241.423 144.726 109.1 237.291 320.905 184.093 57.3303 99.9617 35.6254 93.5724 36.1087 57.4637
internal_count=32396 30307 12027 18280 13582 4698 8879 2613 4703 9414 7704 3654 1085 1710 2089 1640 1018 622 471 1044 1528 750 268 449 151 423 161 262
is_linear=0
shrinkage=0.05


Tree=23
num_leaves=21
num_cat=0
split_feature=27 45 26 3 18 3 35 18 26 18 1 24 24 1 9 43 4 4 0 24
split_gain=57.5336 47.4634 39.7398 60.5797 42.1336 45.0464 39.8845 28.5405 24.4768 20.0826 13.5706 12.0431 10.3751 9.34881 8.04596 5.44617 5.65889 7.19403 3.72557 1.99201
threshold=-0.063367075824270411 0.0056848436270731115 4.1494998931884775 -0.0705378840187008 20.445000648498539 0.031930985007270152 0.01611877049977917 19.015000343322757 4.1844999790191659 15.75500011444092 -0.087774809032060627 0.97416357149659727 0.029664183204764733 -0.049291511713435751 0.98914386391161335 0.003074005377983247 -0.24422050401626497 0.0040687439487503358 -0.022930369757822557 0.93588602448297853
decision_type=2 2 2 2 2 2 2 2 2 2 2 2 2 2 2 2 2 2 2 2
left_child=11 7 4 8 9 -6 -5 10 -4 -3 18 15 -12 19 -15 -1 -17 -18 -2 -9
right_child=1 2 3 6 5 -7 -8 13 -10 -11 12 -13 -14 14 -16 16 17 -19 -20 -21
leaf_value=0.015413272542187216 -0.068382717712830374 0.00080750292279677159 0.0070282464437687294 0.019593528250131297 0.01702621919098736 -0.0091752382858460279 0.0037519538142540992 0.057083649337905884 -0.029264049311493619 -0.0069494709127573585 0.062935190027212456 0.037578559748160531 0.0058382430700066089 0.016836230461383824 0.040747353008203667 0.025614417314485299 -0.042137384970227676 -0.022159776662121038 -0.012512072356287623 0.018890056118942816
leaf_weight=6.9521823525428763 6.2372883707284927 1160.5192420184612 63.80401848256588 540.73736350238323 487.65090836584568 245.887810587883 1497.5645679980516 33.210126847028732 164.76790039241314 2956.5342566072941 7.2760681658983222 6.7898018807172766 237.57506453990936 114.03953501582146 52.817071363329887 4.1204304397106162 67.867560118436813 155.11977554857731 6.4570785015821439 5.679292529821395
leaf_count=31 25 4702 263 2342 2108 1027 6137 188 671 12013 30 28 963 553 271 17 294 675 26 32
internal_value=3.83437e-06 0.000770272 -0.00023941 0.00522362 -0.00279408 0.00823595 0.00796453 0.0162597 -0.0191251 -0.00476205 0.00510744 -0.0240026 0.00780438 0.0301033 0.0246325 -0.0259625 -0.0273131 -0.0284234 -0.0433177 0.0522447
internal_weight=7821.61 7580.76 7117.47 2266.87 4850.59 733.539 2038.3 463.292 228.572 4117.05 257.545 240.85 244.851 205.746 166.857 234.06 227.108 222.987 12.6944 38.8894
internal_count=32396 31351 29263 9413 19850 3135 8479 2088 934 16715 1044 1045 993 1044 824 1017 986 969 51 220
is_linear=0
shrinkage=0.05


Tree=24
num_leaves=23
num_cat=0
split_feature=27 45 26 3 18 11 35 18 26 30 2 24 15 11 0 12 0 14 15 15 15 16
split_gain=52.2173 43.2301 35.9078 54.8173 38.0676 43.4263 35.1069 26.4945 22.4128 20.3254 11.8782 11.009 10.2148 9.91605 9.7628 7.01164 6.11414 5.6353 5.39227 5.09773 4.09188 3.37875
threshold=-0.063367075824270411 0.0056848436270731115 4.1494998931884775 -0.073896032575829745 20.445000648498539 -4.2267650284101199 0.01611877049977917 19.015000343322757 4.1844999790191659 0.061877451903325921 -0.11726162092424676 0.97416357149659727 -0.16295052909044208 -2.1702326126487992 0.010149674251914006 -14.578890145522793 0.0097526798155937074 0.10181900408794113 0.034707655639306313 -0.018882615107572161 0.037545635291074721 0.49958776618481465
decision_type=2 2 2 2 2 2 2 2 2 2 2 2 2 2 2 2 2 2 2 2 2 2
left_child=11 7 4 8 9 -6 -5 10 -4 -3 19 12 16 20 -12 -14 21 -15 -17 -2 -9 -1
right_child=1 2 3 6 5 -7 -8 13 -10 -11 14 -13 15 17 -16 18 -18 -19 -20 -21 -22 -23
leaf_value=0.061348619905755443 -0.0040181375617086351 -0.018127828699240917 0.0071516288696740664 0.018396112171918839 0.033285015834399682 0.0020076706462495656 0.0035596212401703639 0.032337382601715314 -0.028833588607387689 -0.0036136007952122283 0.0025523548609050102 0.03587338310513085 0.018026107085187867 0.016283470254826817 0.028678626687480203 -0.023668374120994564 -0.021351597426470109 0.061683096194939495 -0.041656409488931588 -0.07275501159214931 0.057060679322731567 0.0030729289888603716
leaf_weight=4.9826613962650317 4.9747196882963181 256.63297837972641 58.937217950820923 542.26177839934826 135.50832329690456 596.46508976817131 1506.0652228295803 53.148783653974533 156.30924178659916 3860.6653632372618 204.04038900136948 6.8040563613176337 7.3098299950361243 111.82869057357311 42.57374607026577 143.72320386767387 7.08290971815586 6.586216375231742 64.805595278739929 5.7372511327266675 31.447425290942192 4.7732475697994232
leaf_count=20 20 1044 243 2361 600 2535 6175 288 634 15671 828 28 30 540 173 633 29 32 285 23 184 20
internal_value=5.31465e-06 0.000734228 -0.000227065 0.00497062 -0.00265483 0.0078423 0.00749684 0.0155667 -0.0189697 -0.00452368 0.00485354 -0.0229317 -0.0248189 0.0290312 0.00718041 -0.0277478 0.0118946 0.0193459 -0.0294546 -0.0443287 0.0421456 0.0362376
internal_weight=7812.66 7573.18 7112.85 2263.57 4849.27 731.973 2048.33 460.337 215.246 4117.3 257.326 239.482 232.677 203.011 246.614 215.839 16.8388 118.415 208.529 10.712 84.5962 9.75591
internal_count=32396 31351 29263 9413 19850 3135 8536 2088 877 16715 1044 1045 1017 1044 1001 948 69 572 918 43 472 40
is_linear=0
shrinkage=0.05


Tree=25
num_leaves=27
num_cat=0
split_feature=26 18 30 9 27 45 12 12 23 14 10 23 18 4 23 14 15 17 9 10 9 10 0 10 7 0
split_gain=48.5651 38.5875 35.5377 25.0569 37.8427 29.2301 12.7379 11.3554 15.4091 10.9962 9.49238 9.19384 8.51782 9.59877 9.05268 8.34456 8.18084 7.09914 6.20717 7.37291 5.62868 6.20713 1.24736 1.04547 0.736392 0.52133
threshold=3.9974999427795415 25.555000305175785 0.063761950202204667 1.0081679449567735 0.020527262726465659 0.029264725339784862 2.2000322113260133 -3.8385295765391709 0.61148289781176979 -0.24686813000786897 0.0098599371364805049 0.13014365984630377 19.845000267028812 0.53644095909764788 0.87559797220573909 0.052909605215348827 0.089784130217200581 -0.019161881626820417 0.93040813107598275 -0.03040251041496787 0.99548098238835225 -0.035130261984384785 0.0035258842830369168 0.0098599371364805049 2.0086309680366177 0.012758778391680065
decision_type=2 2 2 2 2 2 2 2 2 2 2 2 2 2 2 2 2 2 2 2 2 2 2 2 2 2
left_child=6 2 7 4 -4 -5 9 10 -9 -1 -2 15 13 14 -8 -11 -13 22 25 -20 21 -19 24 -22 -3 -14
right_child=1 17 3 5 -6 -7 12 8 -10 11 -12 16 18 -15 -16 -17 -18 20 19 -21 23 -23 -24 -25 -26 -27
leaf_value=0.032606074927404964 0.012127942771547238 0.024055916073762826 -0.0040412147261320759 0.010227125195209446 0.0076062901476614004 0.00035897668294482613 0.0070678098656661529 -0.029537993263016371 -0.0069679682333147743 0.0021792595241337388 -0.027347196333453297 -0.02455919608756639 -0.057931192819165936 0.061350859474701071 -0.020490210573155795 -0.042788096175997381 -0.052673561087452518 0.046696353200659832 0.03834747086612366 -0.019294498495230968 0.048146282060290056 -0.01255505853883139 0.015725512655370425 0.018873827848812013 0.052796376520606939 -0.024091673357787047
leaf_weight=7.9498208910226813 61.43757738173008 5.7601401954889289 2904.4681231677532 1374.8751099258661 916.458256945014 1653.3037588894367 92.291879206895828 155.27123925089836 149.47150008380413 50.340710118412971 19.120490059256554 178.43326580524445 9.3266449719667417 5.3128187358379355 42.746945738792419 11.894768282771109 31.197236552834511 4.7206760495901134 5.3969390392303458 41.137688115239143 10.586478158831598 18.399359852075577 4.6123154014348975 7.8825971484184256 36.812562763690948 4.4450096338987342
leaf_count=33 249 34 11846 5773 3858 6742 383 634 605 213 78 785 46 25 175 51 140 25 25 193 57 92 28 38 248 20
internal_value=6.82416e-06 0.00101866 0.000613582 0.00144625 -0.00124497 0.00484293 -0.0153748 -0.0141403 -0.0185431 -0.0222591 0.00247677 -0.0239954 -0.00568711 0.00106318 -0.0017055 -0.0068768 -0.0289971 0.0335989 -0.0212398 -0.0118381 0.0177057 0.000770091 0.0468454 0.0375208 0.0496638 -0.0497178
internal_weight=7803.65 7323.18 7234.41 6849.11 3820.93 3028.18 480.474 385.301 304.743 279.816 80.5581 271.866 200.658 140.352 135.039 62.2355 209.631 88.7741 60.3063 46.5346 41.5891 23.12 47.185 18.4691 42.5727 13.7717
internal_count=32396 30307 29785 28219 15704 12515 2089 1566 1239 1222 327 1189 867 583 558 264 925 522 284 218 212 117 310 95 282 66
is_linear=0
shrinkage=0.05


Tree=26
num_leaves=25
num_cat=0
split_feature=27 28 36 45 29 26 17 1 24 35 5 21 0 24 24 8 14 0 4 18 1 4 5 14
split_gain=45.3704 38.0007 40.0206 24.2644 27.4651 26.4531 24.0988 23.1042 23.0711 22.4802 21.6691 21.175 19.2111 10.0712 10.0282 9.23032 8.01743 5.38998 10.3937 8.21993 16.3622 8.27202 7.76776 6.66732
threshold=-0.063367075824270411 0.041717610268412371 0.031140354769733095 0.010151266728936627 0.44242189802534632 4.1705000400543222 0.021173676592150862 -0.0064792295678386663 0.1818183483146891 0.026176187811078892 0.10534227519268317 -0.011846502901530208 0.0074039111159645921 0.029664183204764733 0.97416357149659727 2.4759872085626999 -0.062339192622301094 0.020036430156100987 0.17641224416929194 19.845000267028812 0.011029523384058644 -0.15779453699103355 0.46007329516703116 -0.016537040444144533
decision_type=2 2 2 2 2 2 2 2 2 2 2 2 2 2 2 2 2 2 2 2 2 2 2 2
left_child=14 2 7 12 5 -5 -6 15 9 -4 -9 -10 13 -3 17 -2 -14 19 22 20 -1 -21 -19 -20
right_child=1 3 8 4 6 -7 -8 10 11 -11 -12 -13 16 -15 -16 -17 -18 18 23 21 -22 -23 -24 -25
leaf_value=-0.022532358451006373 -0.0029466501444550802 0.052098798487675346 0.026146373601794223 -0.00048032992993316253 -0.0090408633342942916 0.017686286227599966 0.00053261822916506919 -0.013568676033370381 0.010044192148054729 0.0026367462463851256 0.016357177753704089 -0.0028352629230165437 0.014334793992284196 0.00050858596121945774 0.034613582071171316 0.030603052646434887 0.041290722029527244 -0.057770964466209107 0.03013469329565234 0.013231563844079012 0.023648769391842656 -0.034590422465410046 0.0016227146068387968 -0.032421883156758056
leaf_weight=57.063553780317307 21.881199687719345 8.8503986895084363 181.35736794769764 1159.1575641781092 1966.4695859104395 241.13759905099869 985.57309693098068 85.553819239139557 406.89877201616764 231.62549182772636 199.64484438300133 1465.3940328657627 61.221705093979836 245.37968710064888 6.8003733903169623 245.93903969228268 53.178672417998314 36.167838200926781 7.6198038309812546 9.5133693516254407 27.620614439249039 78.589168339967728 6.2080132961273184 7.414064556360243
leaf_count=233 103 38 760 4699 8008 1045 4006 364 1712 950 880 5992 267 1026 28 1266 235 151 32 40 112 392 26 31
internal_value=7.00834e-06 0.000684315 0.00525588 -0.00206363 -0.0031084 0.00265487 -0.00584386 0.0173139 0.00232945 0.0130111 0.00734651 -2.96798e-05 0.0102332 0.00252125 -0.0214875 0.0278426 0.0271577 -0.023309 -0.0366989 -0.0186457 -0.00731134 -0.0292799 -0.0491178 -0.00050173
internal_weight=7796.26 7559.26 2838.29 4720.97 4352.34 1400.3 2952.04 553.019 2285.28 412.983 285.199 1872.29 368.63 254.23 236.997 267.82 114.4 230.196 57.4097 172.787 84.6842 88.1025 42.3759 15.0339
internal_count=32396 31351 12027 19324 17758 5744 12014 2613 9414 1710 1244 7704 1566 1064 1045 1369 502 1017 240 777 345 432 177 63
is_linear=0
shrinkage=0.05


Tree=27
num_leaves=29
num_cat=0
split_feature=26 18 9 45 11 36 35 23 37 7 21 14 0 2 2 12 11 11 0 12 16 12 3 0 7 14 6 7
split_gain=41.2767 33.8735 28.8361 23.8448 33.4596 23.2806 33.3199 18.0931 17.6882 11.9786 13.406 9.89049 12.9128 12.915 9.44143 8.21729 8.3283 7.83706 7.33488 7.47391 6.59236 9.74368 8.90611 5.46725 4.05181 11.7287 3.1492 1.19479
threshold=3.9974999427795415 25.555000305175785 1.0081679449567735 0.029264725339784862 1.3099845475801102 0.097127148188388648 0.02416146183053303 0.46602821916001852 -0.052823314302816164 2.0465333553098781 -0.13756172976245615 0.031580884938927391 -0.0013284573001700755 0.0099053165616316777 0.031161906019544636 -2.6240009283185874 -0.45869274676390298 1.9403627808507584 0.0051631713319884127 -1.5914754098668411 0.10780610337181704 2.2000322113260133 -0.063340692563457882 0.0035258842830369168 2.544653558779419 0.05125578258216542 0.22033226468305181 5.3985107268974213
decision_type=2 2 2 2 2 2 2 2 2 2 2 2 2 2 2 2 2 2 2 2 2 2 2 2 2 2 2 2
left_child=9 2 5 8 -5 6 -2 -7 -4 11 15 12 26 -14 24 16 -11 -17 19 -13 22 -22 -12 -16 25 -3 -1 -26
right_child=1 14 3 4 -6 7 -8 -9 -10 10 20 18 13 -15 23 17 -18 -19 -20 -21 21 -23 -24 -25 27 -27 -28 -29
leaf_value=-0.059514753908563825 0.0012352226903247826 0.035894827608476294 -0.022820125916264922 -0.00592917434882356 0.0081442829083505416 -0.0032404670346214007 -0.0093464490625404292 0.0095416605294278405 0.010033341406891799 -0.0050235865422554342 0.037031292673264125 -0.021082702892027946 0.008399517509466407 -0.037804062462801075 0.023977396313522241 0.018825693419050743 -0.053157021892296263 -0.0059832249366007263 -0.037764689512071355 0.049939615722717767 -0.037722655472636701 -0.01100275252581487 -0.015009869725468236 -0.032002817233821611 0.055819861946708862 -0.051759826656962549 -0.012007969012071866 0.01866639939488576
leaf_weight=37.932247787714005 1374.9701448827982 32.472742050886154 41.236755266785622 961.84956881403923 751.29817877709866 490.48017300665379 1617.5368650257587 632.20095597207546 1355.6361134946346 37.94267600774765 10.223248183727263 5.0967042893171319 25.479385733604431 34.654282227158546 7.9947435855865461 66.484648033976555 11.006264373660086 59.137691631913185 6.0773006677627555 8.8527059853076935 67.478847965598106 71.716226726770401 29.687477588653564 7.4417883604764938 30.471421808004379 3.3767486959695807 4.766237646341323 4.1770601719617835
leaf_count=177 5723 190 169 3915 3071 2030 6548 2618 5711 158 44 23 110 157 39 272 47 246 27 38 313 322 135 33 210 20 20 30
internal_value=8.19223e-06 0.000938962 0.000564887 0.00419823 0.000240951 -0.00218012 -0.00448402 0.003955 0.00904427 -0.0142335 -0.00949175 -0.0276566 -0.0338695 -0.0183281 0.0319647 0.000351873 -0.0167941 0.0071522 0.00410113 0.0239812 -0.0190626 -0.0241683 -0.000977828 -0.003011 0.0396281 0.0263222 -0.0547224 0.0521303
internal_weight=7787.68 7311.14 7225.21 3110.02 1713.15 4115.19 2992.51 1122.68 1396.87 476.536 353.677 122.859 102.832 60.1337 85.9345 174.571 48.9489 125.622 20.0267 13.9494 179.106 139.195 39.9107 15.4365 70.498 35.8495 42.6985 34.6485
internal_count=32396 30307 29785 12866 6986 16919 12271 4648 5880 2089 1537 552 464 267 522 723 205 518 88 61 814 635 179 72 450 210 197 240
is_linear=0
shrinkage=0.05


Tree=28
num_leaves=22
num_cat=0
split_feature=27 28 45 5 17 36 40 3 19 36 44 2 7 1 14 24 43 25 25 3 9
split_gain=39.2811 33.0198 28.4904 36.385 36.7393 26.8427 25.3645 23.4196 32.0342 23.1407 16.7781 15.5362 15.301 11.9987 11.0197 9.18909 5.11969 6.40772 6.24007 4.27527 4.25202
threshold=-0.063367075824270411 0.027958975711707138 0.024930306670205574 0.11051438567930465 0.00090483112541916999 0.05860370101998736 0.025090996223260057 -0.10350011247712726 82.766990291262147 0.10399971847337576 -0.021102755808683812 -0.0013283264836470832 2.3335051356104244 -0.00069628969026695167 -0.043172018156084631 0.97416357149659727 0.003074005377983247 0.26224715783257058 0.28530193415030275 0.043140772339721238 0.81906926143647818
decision_type=2 2 2 2 2 2 2 2 2 2 2 2 2 2 2 2 2 2 2 2 2
left_child=15 5 6 12 -5 13 9 8 -7 -3 -9 -8 -4 19 -15 16 -1 20 -19 -2 -18
right_child=1 2 3 4 -6 7 11 10 -10 -11 -12 -13 -14 14 -16 -17 17 18 -20 -21 -22
leaf_value=0.018408883342397351 0.02780106625486586 -0.0014522495742666254 -0.022164521613141953 -0.0093030656373404574 0.0025740667657069881 -0.033044055804719696 0.032560018552111721 -0.03968567114321013 0.017964554961141219 0.0096248174071828698 0.0074300200815944671 0.0065606312421358035 0.0072439582523972333 -0.015943065507872542 0.024615831743655153 0.033550779482496899 -0.025170852577638611 0.032952091004659421 -0.019808580711712036 0.051719611450612657 -0.055184904844820241
leaf_weight=6.8011474758386603 109.50671674311161 2035.8707261532545 349.36315776407719 1104.094106733799 1583.1350358873606 86.989025786519051 104.18434378504753 18.1805270165205 46.412417724728584 612.35472856462002 1225.9019916951656 129.3912175744772 49.856336697936058 29.43612839281559 36.165949895977974 6.8012618571519843 33.23204979300499 4.8610935956239691 160.52536569535732 25.075737833976746 22.093208476901054
leaf_count=31 618 8359 1428 4482 6425 350 490 75 193 2611 5135 556 202 134 164 28 145 21 715 129 105
internal_value=6.75484e-06 0.000634658 -0.00106541 -0.00440342 -0.00230564 0.0070657 0.0025082 0.00456584 -0.0152586 0.0011099 0.00670615 0.0182681 -0.0184704 0.0241343 0.00637556 -0.0201099 -0.0218757 -0.0232171 -0.018039 0.0326431 -0.0380122
internal_weight=7780.23 7545.92 5968.25 3086.45 2687.23 1577.67 2881.8 1377.48 133.401 2648.23 1244.08 233.576 399.219 200.185 65.6021 234.314 227.513 220.712 165.386 134.582 55.3253
internal_count=32396 31351 24553 12537 10907 6798 12016 5753 543 10970 5210 1046 1630 1045 298 1045 1017 986 736 747 250
is_linear=0
shrinkage=0.05


Tree=29
num_leaves=29
num_cat=0
split_feature=26 30 18 44 38 12 14 11 12 23 7 6 6 24 11 12 14 17 1 11 24 30 14 25 0 7 1 0
split_gain=35.7244 30.5705 27.9066 17.8766 18.1155 11.6457 11.9119 10.4457 10.4126 13.6974 12.8368 10.6903 9.18356 8.98037 9.62789 11.547 8.10879 8.07782 7.37596 7.35341 7.27166 6.76302 6.73289 5.59279 5.29685 5.20439 2.73534 1.3953
threshold=3.9974999427795415 0.063761950202204667 25.555000305175785 0.086635564860276473 -0.016269042162499078 1.3439915980103583 -0.24686813000786897 -1.0939703310111333 -3.8385295765391709 0.61148289781176979 1.5455571167167761 0.27674691302017701 0.44358855418596355 0.17416283891196535 3.032625827616124 8.2070112742902932 -0.12409270325535555 0.0015469558316453804 -0.019223540957495181 0.8548900997944856 0.42296689450048724 0.13271935202121116 -0.011658267770763181 0.74351653624686265 -0.00017765174171385087 2.6612786359243046 0.0054192506678717254 0.0035258842830369168
decision_type=2 2 2 2 2 2 2 2 2 2 2 2 2 2 2 2 2 2 2 2 2 2 2 2 2 2 2 2
left_child=5 8 3 4 -3 6 -1 20 11 16 -11 22 -13 19 17 -16 -10 -15 27 24 -8 -5 -2 -20 -7 -9 -21 -4
right_child=1 2 18 21 -6 13 7 25 9 10 -12 12 -14 14 15 -17 -18 -19 23 26 -22 -23 -24 -25 -26 -27 -28 -29
leaf_value=0.039607919411638187 0.029001261941208074 0.0048326054429788301 0.047272640597166238 0.067531124557383165 -0.00065772034847885882 -0.022594658326469782 -0.029067260513944829 -0.040797808845948136 -0.011156310303772118 0.028573321659569113 -0.012264243927235697 -0.037084651918102791 0.0291941977455983 -0.0079102153577561962 -0.032368353682628373 0.0031815135654474874 -0.035734263663366177 0.022424424162524145 0.0019920484980939369 -0.059783741009265083 -0.002565186267314334 0.0029507570390120905 -0.0074490702958358093 0.043899864796912179 0.042277102609628345 -0.018876944738083934 -0.025274895220851003 0.012032424864184044
leaf_weight=6.981213077902793 34.338415801525116 2233.9846790879965 39.504233047366142 13.006731763482096 4579.7419441789389 5.4855278730392456 38.592680931091309 77.403203308582306 52.73987390100956 21.610073372721672 127.58995071053505 21.213022753596309 5.9323726743459693 34.048580601811409 37.959393337368965 54.297231420874596 101.48004522919655 57.802428007125854 29.03027306497097 9.6992986500263232 76.792424440383911 6.0717542171478263 18.923418819904327 10.17366488277912 5.1041633486747724 47.493827566504478 21.147119581699371 4.3168733119964591
leaf_count=29 140 9395 288 54 18745 26 175 350 217 87 518 86 24 155 162 234 417 243 152 47 337 25 77 54 22 210 99 28
internal_value=7.23306e-06 0.000871324 0.00163496 0.00128182 0.00114208 -0.0132966 -0.0207778 -0.0227099 -0.0128435 -0.0170738 -0.0061652 0.00307185 -0.0218998 -0.00501729 -0.000209358 -0.0115823 -0.0274874 0.0111616 0.0302774 -0.0257536 -0.0116458 0.0483979 0.01606 0.0138132 0.00919162 -0.032718 -0.0378193 0.0442585
internal_weight=7772.46 7299.66 6915.83 6832.81 6813.73 472.807 247.263 240.282 383.827 303.42 149.2 80.4072 27.1454 225.544 184.108 92.2566 154.22 91.851 83.025 41.4361 115.385 19.0785 53.2618 39.2039 10.5897 124.897 30.8464 43.8211
internal_count=32396 30307 28741 28219 28140 2089 1101 1072 1566 1239 605 327 110 988 794 396 634 398 522 194 512 79 217 206 48 560 146 316
is_linear=0
shrinkage=0.05


Tree=30
num_leaves=22
num_cat=0
split_feature=27 45 28 13 29 24 23 26 18 17 16 24 24 24 8 12 4 23 0 0 22
